{
  "sizes": [
    7,
    4,
    20,
    12,
    30,
    24,
    60,
    60,
    7,
    1
  ],
  "layers": [
    {
      "title": {},
      "start_time_year": {},
      "start_time_month": {},
      "start_time_day": {},
      "start_time_hour": {},
      "start_time_minute": {},
      "register_start_day_distance": {}
    },
    {
      "0": {
        "bias": -0.15542258322238922,
        "weights": {
          "title": 0.11367340385913849,
          "start_time_year": -0.07825186848640442,
          "start_time_month": 0.17314331233501434,
          "start_time_day": -0.17703072726726532,
          "start_time_hour": 0.07230173796415329,
          "start_time_minute": 0.12830254435539246,
          "register_start_day_distance": -0.14177238941192627
        }
      },
      "1": {
        "bias": 0.15776778757572174,
        "weights": {
          "title": 0.0826459527015686,
          "start_time_year": -0.07735591381788254,
          "start_time_month": -0.16793231666088104,
          "start_time_day": 0.058866214007139206,
          "start_time_hour": 0.001862935139797628,
          "start_time_minute": -0.01695330999791622,
          "register_start_day_distance": -0.17059928178787231
        }
      },
      "2": {
        "bias": -0.12408572435379028,
        "weights": {
          "title": -0.18521645665168762,
          "start_time_year": 0.13129447400569916,
          "start_time_month": 0.1284589320421219,
          "start_time_day": 0.10180719941854477,
          "start_time_hour": 0.17671188712120056,
          "start_time_minute": -0.1138010025024414,
          "register_start_day_distance": -0.1030253916978836
        }
      },
      "3": {
        "bias": 0.16145887970924377,
        "weights": {
          "title": 0.027225522324442863,
          "start_time_year": 0.1818213164806366,
          "start_time_month": 0.16259697079658508,
          "start_time_day": 0.1880291849374771,
          "start_time_hour": -0.021813565865159035,
          "start_time_minute": -0.03225613385438919,
          "register_start_day_distance": 0.14901112020015717
        }
      }
    },
    {
      "0": {
        "bias": 0.0056358687579631805,
        "weights": {
          "0": -0.12820351123809814,
          "1": 0.05349880829453468,
          "2": 0.18849174678325653,
          "3": 0.16163180768489838
        }
      },
      "1": {
        "bias": 0.1741430163383484,
        "weights": {
          "0": 0.187308207154274,
          "1": 0.14386825263500214,
          "2": 0.015107536688446999,
          "3": 0.02760995365679264
        }
      },
      "2": {
        "bias": -0.12876199185848236,
        "weights": {
          "0": -0.1258220076560974,
          "1": 0.10424547642469406,
          "2": 0.05963679403066635,
          "3": -0.16004998981952667
        }
      },
      "3": {
        "bias": 0.04776022955775261,
        "weights": {
          "0": 0.17200250923633575,
          "1": 0.08285526931285858,
          "2": 0.18666280806064606,
          "3": 0.03231775015592575
        }
      },
      "4": {
        "bias": -0.10232049971818924,
        "weights": {
          "0": 0.15462858974933624,
          "1": -0.05856398865580559,
          "2": -0.025983527302742004,
          "3": 0.08628638088703156
        }
      },
      "5": {
        "bias": -0.021466495469212532,
        "weights": {
          "0": 0.122441865503788,
          "1": 0.192042276263237,
          "2": -0.12802495062351227,
          "3": -0.03948332369327545
        }
      },
      "6": {
        "bias": 0.0033795139752328396,
        "weights": {
          "0": -0.19186881184577942,
          "1": 0.16767309606075287,
          "2": 0.09966667741537094,
          "3": 0.144099161028862
        }
      },
      "7": {
        "bias": -0.154884934425354,
        "weights": {
          "0": 0.13827823102474213,
          "1": 0.06974077224731445,
          "2": 0.10738828778266907,
          "3": -0.0787263810634613
        }
      },
      "8": {
        "bias": 0.09473797678947449,
        "weights": {
          "0": -0.10245826840400696,
          "1": 0.12204240262508392,
          "2": -0.191801980137825,
          "3": 0.088441863656044
        }
      },
      "9": {
        "bias": -0.16926966607570648,
        "weights": {
          "0": -0.13537518680095673,
          "1": -0.01453620195388794,
          "2": -0.12583325803279877,
          "3": -0.08825978636741638
        }
      },
      "10": {
        "bias": 0.05447591841220856,
        "weights": {
          "0": 0.09403502941131592,
          "1": -0.11335651576519012,
          "2": 0.10202082991600037,
          "3": 0.10413073748350143
        }
      },
      "11": {
        "bias": -0.1916806399822235,
        "weights": {
          "0": -0.11685756593942642,
          "1": -0.029083017259836197,
          "2": 0.10068395733833313,
          "3": 0.11348244547843933
        }
      },
      "12": {
        "bias": 0.15395675599575043,
        "weights": {
          "0": 0.020222662016749382,
          "1": -0.09171295166015625,
          "2": -0.12332272529602051,
          "3": 0.06731509417295456
        }
      },
      "13": {
        "bias": -0.13818250596523285,
        "weights": {
          "0": 0.08796277642250061,
          "1": 0.14465326070785522,
          "2": -0.15712301433086395,
          "3": -0.05867544561624527
        }
      },
      "14": {
        "bias": 0.17783190310001373,
        "weights": {
          "0": -0.04135097935795784,
          "1": -0.16347436606884003,
          "2": 0.10693472623825073,
          "3": 0.05649599805474281
        }
      },
      "15": {
        "bias": -0.013116727583110332,
        "weights": {
          "0": 0.05950649082660675,
          "1": -0.14790081977844238,
          "2": -0.10079225897789001,
          "3": -0.13040083646774292
        }
      },
      "16": {
        "bias": 0.1453317403793335,
        "weights": {
          "0": -0.06200645864009857,
          "1": -0.16218841075897217,
          "2": 0.022938206791877747,
          "3": 0.03444591909646988
        }
      },
      "17": {
        "bias": -0.16062594950199127,
        "weights": {
          "0": 0.1031792089343071,
          "1": -0.1686808466911316,
          "2": -0.150386244058609,
          "3": -0.03243906423449516
        }
      },
      "18": {
        "bias": 0.10946021974086761,
        "weights": {
          "0": 0.10862220078706741,
          "1": 0.09802189469337463,
          "2": 0.0025023845955729485,
          "3": 0.09456155449151993
        }
      },
      "19": {
        "bias": -0.018689392134547234,
        "weights": {
          "0": 0.12766563892364502,
          "1": 0.11071310192346573,
          "2": -0.04087771847844124,
          "3": -0.16837212443351746
        }
      }
    },
    {
      "0": {
        "bias": -0.19892944395542145,
        "weights": {
          "0": 0.04826105758547783,
          "1": 0.01779770664870739,
          "2": -0.19275140762329102,
          "3": -0.15911394357681274,
          "4": 0.05390574410557747,
          "5": -0.19869495928287506,
          "6": 0.12002865225076675,
          "7": -0.08532574772834778,
          "8": 0.022609416395425797,
          "9": 0.17410895228385925,
          "10": -0.001444063731469214,
          "11": 0.1841985136270523,
          "12": 0.026824140921235085,
          "13": -0.05221618339419365,
          "14": 0.039881788194179535,
          "15": -0.0038133657071739435,
          "16": 0.1292129009962082,
          "17": -0.1354411244392395,
          "18": 0.011111728847026825,
          "19": -0.0042598797008395195
        }
      },
      "1": {
        "bias": 0.1098179742693901,
        "weights": {
          "0": -0.09153196215629578,
          "1": 0.1003706306219101,
          "2": 0.14809387922286987,
          "3": -0.10779515653848648,
          "4": 0.017274852842092514,
          "5": 0.03047768957912922,
          "6": 0.06028934568166733,
          "7": 0.09726572781801224,
          "8": -0.06245040521025658,
          "9": -0.035115115344524384,
          "10": 0.04750557616353035,
          "11": 0.005471362732350826,
          "12": 0.19491617381572723,
          "13": -0.03849825635552406,
          "14": 0.07014260441064835,
          "15": -0.17927110195159912,
          "16": 0.1879296451807022,
          "17": 0.18616963922977448,
          "18": -0.0855712816119194,
          "19": 0.060712434351444244
        }
      },
      "2": {
        "bias": -0.08110861480236053,
        "weights": {
          "0": 0.11357162892818451,
          "1": -0.053530603647232056,
          "2": -0.019946839660406113,
          "3": -0.11603295803070068,
          "4": 0.08909101039171219,
          "5": 0.1278001070022583,
          "6": 0.08886954188346863,
          "7": 0.0975990742444992,
          "8": -0.17467713356018066,
          "9": 0.18599465489387512,
          "10": -0.02871374599635601,
          "11": -0.1732618510723114,
          "12": 0.018766677007079124,
          "13": -0.19189447164535522,
          "14": -0.08434959501028061,
          "15": 0.17623668909072876,
          "16": 0.05779796466231346,
          "17": 0.005217428784817457,
          "18": 0.12503625452518463,
          "19": 0.18704095482826233
        }
      },
      "3": {
        "bias": 0.1846763789653778,
        "weights": {
          "0": -0.09068860113620758,
          "1": 0.13730163872241974,
          "2": 0.0048451898619532585,
          "3": -0.18954695761203766,
          "4": 0.17206206917762756,
          "5": -0.12030450999736786,
          "6": 0.04273446276783943,
          "7": -0.0647788867354393,
          "8": -0.021562054753303528,
          "9": -0.04995012283325195,
          "10": 0.17758981883525848,
          "11": 0.015207965858280659,
          "12": -0.07139787077903748,
          "13": 0.07666385173797607,
          "14": -0.15510322153568268,
          "15": -0.09362262487411499,
          "16": -0.10489635169506073,
          "17": 0.005701094400137663,
          "18": 0.08320018649101257,
          "19": -0.1621868908405304
        }
      },
      "4": {
        "bias": 0.006324361078441143,
        "weights": {
          "0": -0.06223829463124275,
          "1": -0.17522382736206055,
          "2": 0.10544169694185257,
          "3": 0.09446728974580765,
          "4": 0.045731641352176666,
          "5": -0.03887510672211647,
          "6": 0.09622076898813248,
          "7": 0.16247525811195374,
          "8": 0.08458123356103897,
          "9": -0.05319599807262421,
          "10": 0.1342427134513855,
          "11": 0.05018270015716553,
          "12": -0.08743457496166229,
          "13": 0.13704195618629456,
          "14": 0.1188902035355568,
          "15": -0.03708255663514137,
          "16": 0.10677722841501236,
          "17": -0.0916740894317627,
          "18": -0.04961015656590462,
          "19": -0.1549072563648224
        }
      },
      "5": {
        "bias": -0.1539769321680069,
        "weights": {
          "0": 0.19564637541770935,
          "1": -0.08520833402872086,
          "2": 0.1362883746623993,
          "3": 0.04591546207666397,
          "4": 0.014020499773323536,
          "5": -0.16630230844020844,
          "6": 0.19139538705348969,
          "7": -0.10719402134418488,
          "8": 0.043580323457717896,
          "9": 0.013480777852237225,
          "10": 0.0011514881625771523,
          "11": 0.14730215072631836,
          "12": -0.06725868582725525,
          "13": -0.08474855870008469,
          "14": -0.04011483117938042,
          "15": 0.024928409606218338,
          "16": 0.17483584582805634,
          "17": -0.030850203707814217,
          "18": 0.19434459507465363,
          "19": 0.1447419822216034
        }
      },
      "6": {
        "bias": -0.14042522013187408,
        "weights": {
          "0": -0.1422412246465683,
          "1": -0.08978240191936493,
          "2": -0.12251438945531845,
          "3": 0.08897862583398819,
          "4": -0.1322094351053238,
          "5": 0.09895091503858566,
          "6": 0.030809246003627777,
          "7": 0.17714960873126984,
          "8": -0.186018168926239,
          "9": -0.14369839429855347,
          "10": 0.06294340640306473,
          "11": 0.14846748113632202,
          "12": -0.002159115858376026,
          "13": 0.09161309152841568,
          "14": 0.17980808019638062,
          "15": 0.03892141208052635,
          "16": 0.05549033358693123,
          "17": 0.1026313304901123,
          "18": 0.031822074204683304,
          "19": 0.05409562960267067
        }
      },
      "7": {
        "bias": -0.13038429617881775,
        "weights": {
          "0": 0.11898020654916763,
          "1": 0.10137608647346497,
          "2": -0.0414569191634655,
          "3": -0.11937697231769562,
          "4": 0.19699159264564514,
          "5": 0.19566108286380768,
          "6": 0.003025051672011614,
          "7": -0.18547897040843964,
          "8": 0.19278687238693237,
          "9": 0.07600031048059464,
          "10": -0.07081611454486847,
          "11": -0.17877277731895447,
          "12": 0.033110011368989944,
          "13": 0.07306491583585739,
          "14": -0.00016965031682047993,
          "15": -0.15757134556770325,
          "16": 0.16676843166351318,
          "17": 0.17376989126205444,
          "18": 0.038952574133872986,
          "19": -0.15528859198093414
        }
      },
      "8": {
        "bias": 0.13250775635242462,
        "weights": {
          "0": 0.18894228339195251,
          "1": -0.09335611015558243,
          "2": -0.12938947975635529,
          "3": -0.1663987636566162,
          "4": -0.18005681037902832,
          "5": -0.19571544229984283,
          "6": -0.1891278475522995,
          "7": -0.09835755079984665,
          "8": 0.1309935748577118,
          "9": 0.0016395979328081012,
          "10": -0.08307471126317978,
          "11": -0.014618519693613052,
          "12": -0.0907554104924202,
          "13": -0.18716560304164886,
          "14": 0.1711953729391098,
          "15": -0.18571218848228455,
          "16": 0.19001564383506775,
          "17": -0.12703493237495422,
          "18": -0.07250479608774185,
          "19": -0.018362125381827354
        }
      },
      "9": {
        "bias": -0.17778386175632477,
        "weights": {
          "0": 0.09866372495889664,
          "1": 0.1508927047252655,
          "2": -0.1617954671382904,
          "3": 0.08681850135326385,
          "4": 0.013839560560882092,
          "5": -0.005814201198518276,
          "6": -0.17101481556892395,
          "7": 0.11502525210380554,
          "8": -0.10663249343633652,
          "9": 0.11417704820632935,
          "10": -0.023292453959584236,
          "11": -0.10722173005342484,
          "12": 0.14170408248901367,
          "13": 0.08445766568183899,
          "14": 0.08769652247428894,
          "15": -0.12385419756174088,
          "16": -0.10753413289785385,
          "17": -0.12046242505311966,
          "18": -0.136876180768013,
          "19": 0.19119533896446228
        }
      },
      "10": {
        "bias": 0.06738770008087158,
        "weights": {
          "0": -0.14074651896953583,
          "1": 0.03306462988257408,
          "2": 0.13535664975643158,
          "3": 0.1317780315876007,
          "4": -0.08275549858808517,
          "5": 0.09718417376279831,
          "6": 0.15194258093833923,
          "7": 0.12413575500249863,
          "8": -0.0077898562885820866,
          "9": 0.022687803953886032,
          "10": 0.11580497026443481,
          "11": 0.13517089188098907,
          "12": -0.19695240259170532,
          "13": 0.14253847301006317,
          "14": 0.14434456825256348,
          "15": 0.18189507722854614,
          "16": -0.19332998991012573,
          "17": -0.09698902815580368,
          "18": -0.0032161667477339506,
          "19": 0.15874934196472168
        }
      },
      "11": {
        "bias": -0.15093612670898438,
        "weights": {
          "0": 0.06813908368349075,
          "1": 0.012102711945772171,
          "2": -0.13661721348762512,
          "3": -0.11454913765192032,
          "4": -0.03785787522792816,
          "5": 0.18055459856987,
          "6": -0.1270831674337387,
          "7": -0.19569343328475952,
          "8": 0.17549726366996765,
          "9": -0.055600300431251526,
          "10": -0.16221441328525543,
          "11": 0.044734202325344086,
          "12": 0.0013493034057319164,
          "13": -0.13653846085071564,
          "14": -0.1415245085954666,
          "15": 0.09364183992147446,
          "16": -0.08633632957935333,
          "17": 0.07622969895601273,
          "18": -0.10979272425174713,
          "19": -0.15213051438331604
        }
      }
    },
    {
      "0": {
        "bias": -0.0468524806201458,
        "weights": {
          "0": -0.18734057247638702,
          "1": -0.04472685232758522,
          "2": -0.1519751399755478,
          "3": -0.06645595282316208,
          "4": 0.16365012526512146,
          "5": 0.04637623578310013,
          "6": -0.1903383880853653,
          "7": -0.11221696436405182,
          "8": -0.031133703887462616,
          "9": -0.09059182554483414,
          "10": 0.19635528326034546,
          "11": 0.1810024529695511
        }
      },
      "1": {
        "bias": -0.14496050775051117,
        "weights": {
          "0": 0.02808893658220768,
          "1": 0.03941069170832634,
          "2": -0.16371728479862213,
          "3": 0.1472008377313614,
          "4": -0.09548301249742508,
          "5": -0.10919731110334396,
          "6": -0.03584536164999008,
          "7": -0.13560999929904938,
          "8": -0.10558018088340759,
          "9": -0.19715535640716553,
          "10": 0.018613778054714203,
          "11": 0.19602112472057343
        }
      },
      "2": {
        "bias": 0.016360467299818993,
        "weights": {
          "0": 0.009487655945122242,
          "1": -0.09085609763860703,
          "2": -0.19111093878746033,
          "3": 0.10987713932991028,
          "4": -0.17429059743881226,
          "5": -0.18707925081253052,
          "6": 0.1903943568468094,
          "7": 0.08375175297260284,
          "8": -0.0017737423768267035,
          "9": 0.06415774673223495,
          "10": 0.07782168686389923,
          "11": 0.05523226782679558
        }
      },
      "3": {
        "bias": -0.1602974683046341,
        "weights": {
          "0": 0.04914475977420807,
          "1": -0.048278603702783585,
          "2": 0.09422947466373444,
          "3": 0.10008396208286285,
          "4": -0.10648762434720993,
          "5": -0.1863042563199997,
          "6": 0.05319681018590927,
          "7": -0.19302508234977722,
          "8": 0.05528886988759041,
          "9": -0.11820925027132034,
          "10": -0.0698045864701271,
          "11": -0.09940720349550247
        }
      },
      "4": {
        "bias": 0.1727362722158432,
        "weights": {
          "0": 0.14825019240379333,
          "1": -0.14558292925357819,
          "2": 0.1518721580505371,
          "3": 0.10480117052793503,
          "4": -0.13727591931819916,
          "5": -0.16858848929405212,
          "6": 0.1732483059167862,
          "7": 0.1797090619802475,
          "8": -0.1819913536310196,
          "9": 0.024559585377573967,
          "10": -0.18946410715579987,
          "11": -0.17908240854740143
        }
      },
      "5": {
        "bias": -0.11385250091552734,
        "weights": {
          "0": -0.17153726518154144,
          "1": 0.17094172537326813,
          "2": 0.10353066772222519,
          "3": 0.10140811651945114,
          "4": -0.049534622579813004,
          "5": 0.030801570042967796,
          "6": -0.011926625855267048,
          "7": -0.008601821027696133,
          "8": 0.07192429155111313,
          "9": -0.1244220957159996,
          "10": 0.03324040025472641,
          "11": 0.04842579364776611
        }
      },
      "6": {
        "bias": -0.06709452718496323,
        "weights": {
          "0": 0.07682349532842636,
          "1": -0.1916765570640564,
          "2": -0.0357324592769146,
          "3": 0.08282943069934845,
          "4": -0.14263246953487396,
          "5": -0.031483203172683716,
          "6": 0.11681132763624191,
          "7": -0.19931761920452118,
          "8": 0.08425814658403397,
          "9": -0.007961035706102848,
          "10": 0.028613852337002754,
          "11": 0.19265644252300262
        }
      },
      "7": {
        "bias": 0.06816518306732178,
        "weights": {
          "0": 0.1640961617231369,
          "1": -0.11818774789571762,
          "2": -0.060627344995737076,
          "3": 0.1467125415802002,
          "4": -0.06195181980729103,
          "5": -0.022120103240013123,
          "6": -0.15220682322978973,
          "7": -0.08816534280776978,
          "8": -0.1037931740283966,
          "9": 0.16999229788780212,
          "10": -0.05377689003944397,
          "11": -0.19822339713573456
        }
      },
      "8": {
        "bias": -0.1671031415462494,
        "weights": {
          "0": -0.047528840601444244,
          "1": 0.15585193037986755,
          "2": 0.07013514637947083,
          "3": 0.11826804280281067,
          "4": 0.18793581426143646,
          "5": 0.08424641937017441,
          "6": -0.08046669512987137,
          "7": 0.0796860009431839,
          "8": -0.12654970586299896,
          "9": -0.02850126288831234,
          "10": 0.09598039090633392,
          "11": -0.09757771342992783
        }
      },
      "9": {
        "bias": -0.09964802116155624,
        "weights": {
          "0": 0.005981183610856533,
          "1": 0.11996542662382126,
          "2": 0.01371448952704668,
          "3": -0.17919905483722687,
          "4": 0.19930964708328247,
          "5": 0.12607674300670624,
          "6": -0.079556405544281,
          "7": 0.1351938545703888,
          "8": 0.06898434460163116,
          "9": 0.09433875232934952,
          "10": -0.17268069088459015,
          "11": -0.04335050284862518
        }
      },
      "10": {
        "bias": -0.16421490907669067,
        "weights": {
          "0": -0.07102389633655548,
          "1": 0.13975144922733307,
          "2": 0.09310721606016159,
          "3": -0.12271499633789062,
          "4": 0.024920959025621414,
          "5": 0.051020458340644836,
          "6": 0.07664471119642258,
          "7": -0.18072755634784698,
          "8": -0.09758132696151733,
          "9": 0.028050394728779793,
          "10": -0.1827593594789505,
          "11": 0.0990532860159874
        }
      },
      "11": {
        "bias": 0.031157221645116806,
        "weights": {
          "0": -0.07531580328941345,
          "1": 0.15639403462409973,
          "2": -0.08875608444213867,
          "3": 0.171492338180542,
          "4": -0.111000657081604,
          "5": 0.004820461384952068,
          "6": -0.15448060631752014,
          "7": -0.005316378548741341,
          "8": 0.12535610795021057,
          "9": 0.12099988013505936,
          "10": 0.14699210226535797,
          "11": -0.10887514799833298
        }
      },
      "12": {
        "bias": 0.031001731753349304,
        "weights": {
          "0": 0.10904409736394882,
          "1": -0.16386431455612183,
          "2": -0.1413494199514389,
          "3": -0.18434634804725647,
          "4": 0.03602065518498421,
          "5": 0.13943441212177277,
          "6": -0.1404244303703308,
          "7": 0.17989100515842438,
          "8": 0.11038494855165482,
          "9": 0.09568561613559723,
          "10": 0.17027196288108826,
          "11": 0.161190927028656
        }
      },
      "13": {
        "bias": 0.11785609275102615,
        "weights": {
          "0": -0.1382422298192978,
          "1": 0.05915907770395279,
          "2": -0.0830521509051323,
          "3": -0.1915980726480484,
          "4": 0.19625774025917053,
          "5": 0.08589380979537964,
          "6": -0.16584762930870056,
          "7": -0.12795117497444153,
          "8": 0.03151015192270279,
          "9": 0.1409558206796646,
          "10": -0.1608869880437851,
          "11": 0.056614696979522705
        }
      },
      "14": {
        "bias": -0.08508960157632828,
        "weights": {
          "0": 0.10362585633993149,
          "1": 0.03475262597203255,
          "2": 0.19009192287921906,
          "3": -0.05229753628373146,
          "4": 0.02389933541417122,
          "5": 0.11589893698692322,
          "6": -0.03217802941799164,
          "7": 0.015560934320092201,
          "8": -0.11862208694219589,
          "9": 0.14641858637332916,
          "10": -0.11887143552303314,
          "11": -0.06591587513685226
        }
      },
      "15": {
        "bias": -0.16890861093997955,
        "weights": {
          "0": 0.1769431233406067,
          "1": -0.17015810310840607,
          "2": 0.11734355241060257,
          "3": 0.16279025375843048,
          "4": 0.13769301772117615,
          "5": -0.05512150377035141,
          "6": -0.0466516837477684,
          "7": -0.04329913854598999,
          "8": -0.07531215250492096,
          "9": 0.07642364501953125,
          "10": 0.18482209742069244,
          "11": 0.0666324719786644
        }
      },
      "16": {
        "bias": -0.1647523045539856,
        "weights": {
          "0": -0.03180409222841263,
          "1": -0.09018980711698532,
          "2": -0.1869017332792282,
          "3": 0.018527748063206673,
          "4": 0.014277243055403233,
          "5": 0.047521501779556274,
          "6": -0.1722797453403473,
          "7": -0.11890890449285507,
          "8": -0.023541584610939026,
          "9": -0.18785586953163147,
          "10": 0.09794394671916962,
          "11": 0.1700829416513443
        }
      },
      "17": {
        "bias": -0.13460873067378998,
        "weights": {
          "0": -0.027825120836496353,
          "1": -0.004878923762589693,
          "2": -0.06737867742776871,
          "3": -0.12880945205688477,
          "4": -0.1204281747341156,
          "5": -0.16706743836402893,
          "6": 0.11383728682994843,
          "7": -0.009863401763141155,
          "8": 0.009243734180927277,
          "9": -0.1344997137784958,
          "10": -0.033159289509058,
          "11": 0.03231138736009598
        }
      },
      "18": {
        "bias": -0.09374114125967026,
        "weights": {
          "0": 0.1021142527461052,
          "1": -0.17911654710769653,
          "2": 0.08902990072965622,
          "3": 0.04284587502479553,
          "4": -0.1940736025571823,
          "5": -0.14459164440631866,
          "6": 0.047872092574834824,
          "7": -0.11470965296030045,
          "8": 0.08389278501272202,
          "9": 0.1728188544511795,
          "10": -0.06569109112024307,
          "11": 0.10253293067216873
        }
      },
      "19": {
        "bias": -0.07550368458032608,
        "weights": {
          "0": 0.003524830797687173,
          "1": -0.16855888068675995,
          "2": 0.06637043505907059,
          "3": 0.19395525753498077,
          "4": 0.07968675345182419,
          "5": 0.10978418588638306,
          "6": 0.1747175008058548,
          "7": -0.07052581757307053,
          "8": 0.03619233891367912,
          "9": 0.025262432172894478,
          "10": 0.19445732235908508,
          "11": 0.17093756794929504
        }
      },
      "20": {
        "bias": -0.042344313114881516,
        "weights": {
          "0": 0.08902435749769211,
          "1": 0.14248599112033844,
          "2": -0.14849753677845,
          "3": -0.0969536304473877,
          "4": 0.0956762433052063,
          "5": 0.14706145226955414,
          "6": 0.1801641285419464,
          "7": -0.13211311399936676,
          "8": 0.07871758192777634,
          "9": -0.14602422714233398,
          "10": -0.018930861726403236,
          "11": -0.10871048271656036
        }
      },
      "21": {
        "bias": 0.0711682066321373,
        "weights": {
          "0": 0.1270858347415924,
          "1": -0.024497976526618004,
          "2": -0.14778806269168854,
          "3": -0.06420095264911652,
          "4": 0.019519858062267303,
          "5": -0.08201555907726288,
          "6": 0.11211837083101273,
          "7": 0.18089604377746582,
          "8": -0.1206069141626358,
          "9": -0.08866916596889496,
          "10": -0.14862006902694702,
          "11": 0.020338714122772217
        }
      },
      "22": {
        "bias": -0.013940508477389812,
        "weights": {
          "0": -0.07240814715623856,
          "1": -0.11862001568078995,
          "2": 0.1265341192483902,
          "3": 0.036022577434778214,
          "4": 0.13997229933738708,
          "5": 0.19830326735973358,
          "6": -0.13981732726097107,
          "7": -0.19202858209609985,
          "8": -0.09517048299312592,
          "9": 0.07118016481399536,
          "10": -0.13388954102993011,
          "11": 0.14286606013774872
        }
      },
      "23": {
        "bias": -0.03958163782954216,
        "weights": {
          "0": -0.08724506199359894,
          "1": 0.03203904256224632,
          "2": 0.003684474155306816,
          "3": 0.17181169986724854,
          "4": 0.003612158354371786,
          "5": 0.16114380955696106,
          "6": 0.08481797575950623,
          "7": -0.15668444335460663,
          "8": -0.15074540674686432,
          "9": -0.09083899855613708,
          "10": -0.17972369492053986,
          "11": 0.009432904422283173
        }
      },
      "24": {
        "bias": -0.0077314218506217,
        "weights": {
          "0": 0.042326293885707855,
          "1": 0.18565155565738678,
          "2": 0.16577138006687164,
          "3": -0.15191809833049774,
          "4": -0.1745780110359192,
          "5": 0.08278326690196991,
          "6": 0.17852163314819336,
          "7": 0.036142222583293915,
          "8": -0.0512545220553875,
          "9": 0.16642504930496216,
          "10": -0.028412088751792908,
          "11": 0.0648525282740593
        }
      },
      "25": {
        "bias": 0.11935802549123764,
        "weights": {
          "0": -0.14911121129989624,
          "1": 0.07492695748806,
          "2": -0.17666427791118622,
          "3": -0.07185717672109604,
          "4": -0.0061479778960347176,
          "5": 0.07593287527561188,
          "6": 0.1723247915506363,
          "7": 0.12794649600982666,
          "8": -0.03197767958045006,
          "9": -0.045271873474121094,
          "10": -0.05792901664972305,
          "11": 0.11250540614128113
        }
      },
      "26": {
        "bias": 0.17722149193286896,
        "weights": {
          "0": -0.16098874807357788,
          "1": 0.0040481481701135635,
          "2": -0.14085133373737335,
          "3": -0.05230152979493141,
          "4": -0.0020275129936635494,
          "5": 0.17773057520389557,
          "6": -0.11200888454914093,
          "7": -0.004734675865620375,
          "8": -0.14189554750919342,
          "9": -0.05408915504813194,
          "10": 0.14436395466327667,
          "11": 0.12802860140800476
        }
      },
      "27": {
        "bias": -0.13066083192825317,
        "weights": {
          "0": 0.045365747064352036,
          "1": 0.18941564857959747,
          "2": 0.039908986538648605,
          "3": 0.13539767265319824,
          "4": -0.1153145506978035,
          "5": -0.1162652000784874,
          "6": -0.01122293435037136,
          "7": -0.01471036858856678,
          "8": -0.1955917626619339,
          "9": 0.13521935045719147,
          "10": -0.020245647057890892,
          "11": -0.11758433282375336
        }
      },
      "28": {
        "bias": 0.02736576646566391,
        "weights": {
          "0": 0.12818194925785065,
          "1": 0.0957571268081665,
          "2": 0.09696328639984131,
          "3": 0.007909320294857025,
          "4": -0.12033379822969437,
          "5": -0.057003527879714966,
          "6": -0.016109071671962738,
          "7": -0.1786634624004364,
          "8": -0.014933180063962936,
          "9": -0.19369325041770935,
          "10": 0.1910625398159027,
          "11": 0.02330939844250679
        }
      },
      "29": {
        "bias": 0.05156495422124863,
        "weights": {
          "0": -0.1541578471660614,
          "1": -0.010184125043451786,
          "2": 0.03247356042265892,
          "3": -0.1372741162776947,
          "4": 0.03062189556658268,
          "5": 0.1702185571193695,
          "6": -0.161033034324646,
          "7": -0.14347057044506073,
          "8": -0.10913340002298355,
          "9": 0.05628259479999542,
          "10": 0.15218676626682281,
          "11": -0.005652697756886482
        }
      }
    },
    {
      "0": {
        "bias": -0.061632391065359116,
        "weights": {
          "0": -0.04527054354548454,
          "1": 0.050985898822546005,
          "2": -0.0376039519906044,
          "3": 0.16688218712806702,
          "4": -0.1319914162158966,
          "5": 0.13832682371139526,
          "6": 0.018334543332457542,
          "7": -0.12637731432914734,
          "8": -0.16958053410053253,
          "9": -0.03980250656604767,
          "10": -0.04698155075311661,
          "11": -0.10426027327775955,
          "12": 0.06899196654558182,
          "13": 0.1834620088338852,
          "14": 0.043035734444856644,
          "15": 0.0994635745882988,
          "16": -0.12830521166324615,
          "17": -0.15731212496757507,
          "18": 0.02852437272667885,
          "19": 0.08317311108112335,
          "20": 0.19123932719230652,
          "21": 0.0711992084980011,
          "22": -0.06392215937376022,
          "23": 0.002626156434416771,
          "24": 0.036886438727378845,
          "25": -0.016746798530220985,
          "26": -0.10602676868438721,
          "27": -0.034078534692525864,
          "28": -0.07124596834182739,
          "29": 0.048027873039245605
        }
      },
      "1": {
        "bias": -0.10909581184387207,
        "weights": {
          "0": -0.1909199059009552,
          "1": 0.12156990170478821,
          "2": -0.12408137321472168,
          "3": 0.03379856050014496,
          "4": 0.08581048250198364,
          "5": -0.06168496981263161,
          "6": -0.00686199776828289,
          "7": -0.05345490202307701,
          "8": 0.07268958538770676,
          "9": 0.11013643443584442,
          "10": -0.11135369539260864,
          "11": 0.0100230248644948,
          "12": 0.1332949548959732,
          "13": 0.11617839336395264,
          "14": 0.061120565980672836,
          "15": 0.0009088101796805859,
          "16": 0.09191761910915375,
          "17": 0.04157770052552223,
          "18": -0.11698406934738159,
          "19": 0.1748162806034088,
          "20": 0.1124381348490715,
          "21": -0.015403592959046364,
          "22": 0.1525362879037857,
          "23": -0.03210527077317238,
          "24": 0.17164337635040283,
          "25": -0.017429357394576073,
          "26": -0.10634832084178925,
          "27": -0.010059243999421597,
          "28": 0.1489381045103073,
          "29": 0.17912894487380981
        }
      },
      "2": {
        "bias": -0.1351814717054367,
        "weights": {
          "0": 0.028786223381757736,
          "1": -0.14961394667625427,
          "2": -0.056587401777505875,
          "3": -0.06969166547060013,
          "4": -0.1182519868016243,
          "5": 0.14555436372756958,
          "6": -0.022572746500372887,
          "7": 0.009356465190649033,
          "8": 0.12381568551063538,
          "9": -0.055737175047397614,
          "10": 0.09503065794706345,
          "11": -0.10609304904937744,
          "12": -0.08913397789001465,
          "13": 0.1969262957572937,
          "14": 0.16195586323738098,
          "15": -0.018065929412841797,
          "16": 0.1183638870716095,
          "17": 0.1449088454246521,
          "18": -0.09015629440546036,
          "19": 0.0800810381770134,
          "20": 0.07925643026828766,
          "21": 0.0012178831966593862,
          "22": -0.020570553839206696,
          "23": 0.059143997728824615,
          "24": -0.005138796754181385,
          "25": -0.1892995536327362,
          "26": -0.024930518120527267,
          "27": 0.12121181190013885,
          "28": 0.06574590504169464,
          "29": 0.08045899122953415
        }
      },
      "3": {
        "bias": 0.026302291080355644,
        "weights": {
          "0": 0.16312280297279358,
          "1": -0.14913950860500336,
          "2": -0.03538579121232033,
          "3": 0.02464262954890728,
          "4": 0.08727874606847763,
          "5": -0.018708068877458572,
          "6": -0.10569417476654053,
          "7": -0.0929296612739563,
          "8": 0.033013682812452316,
          "9": -0.09752225875854492,
          "10": -0.10300767421722412,
          "11": -0.008594280108809471,
          "12": 0.1553049236536026,
          "13": -0.1481480598449707,
          "14": 0.1388239860534668,
          "15": 0.026388514786958694,
          "16": 0.13466958701610565,
          "17": 0.1781696230173111,
          "18": 0.1013106107711792,
          "19": 0.03034893050789833,
          "20": -0.07658733427524567,
          "21": 0.1268855482339859,
          "22": -0.19243429601192474,
          "23": -0.12195692211389542,
          "24": -0.19207194447517395,
          "25": 0.1929529756307602,
          "26": 0.1251918375492096,
          "27": 0.17547374963760376,
          "28": 0.015249514952301979,
          "29": 0.19195717573165894
        }
      },
      "4": {
        "bias": 0.16363827884197235,
        "weights": {
          "0": -0.0962885320186615,
          "1": 0.16655413806438446,
          "2": 0.13224227726459503,
          "3": 0.08295391499996185,
          "4": 0.1672203540802002,
          "5": -0.03229927271604538,
          "6": -0.19386057555675507,
          "7": 0.1344156414270401,
          "8": -0.16045884788036346,
          "9": 0.01167021319270134,
          "10": 0.07646899670362473,
          "11": -0.148020938038826,
          "12": 0.0466032512485981,
          "13": -0.058155566453933716,
          "14": -0.09674227982759476,
          "15": 0.19989413022994995,
          "16": 0.027479324489831924,
          "17": 0.19071687757968903,
          "18": -0.046673234552145004,
          "19": -0.07565870136022568,
          "20": -0.18016327917575836,
          "21": 0.14590078592300415,
          "22": 0.014234235510230064,
          "23": 0.030105264857411385,
          "24": -0.12404227256774902,
          "25": -0.17975355684757233,
          "26": -0.05668455734848976,
          "27": -0.17667576670646667,
          "28": 0.02999981865286827,
          "29": -0.05561351776123047
        }
      },
      "5": {
        "bias": -0.006590398959815502,
        "weights": {
          "0": -0.15152569115161896,
          "1": 0.01316036656498909,
          "2": 0.05322224646806717,
          "3": -0.18488653004169464,
          "4": -0.09721392393112183,
          "5": -0.11911839246749878,
          "6": 0.19647552073001862,
          "7": -0.004666415508836508,
          "8": -0.02539086528122425,
          "9": 0.1320260465145111,
          "10": -0.085489422082901,
          "11": -0.07378046214580536,
          "12": 0.10852672159671783,
          "13": -0.14990605413913727,
          "14": 0.00855195615440607,
          "15": -0.034683648496866226,
          "16": 0.13450968265533447,
          "17": 0.14492423832416534,
          "18": -0.04682900756597519,
          "19": 0.13835936784744263,
          "20": -0.13600747287273407,
          "21": -0.11512216925621033,
          "22": 0.14044375717639923,
          "23": -0.021871453151106834,
          "24": -0.007773710414767265,
          "25": -0.10814599692821503,
          "26": 0.003551608882844448,
          "27": 0.19335231184959412,
          "28": -0.11320232599973679,
          "29": 0.15029293298721313
        }
      },
      "6": {
        "bias": 0.05321986600756645,
        "weights": {
          "0": -0.07553138583898544,
          "1": 0.1384606659412384,
          "2": -0.08343378454446793,
          "3": 0.08778033405542374,
          "4": 0.08020105212926865,
          "5": -0.10972985625267029,
          "6": 0.049193717539310455,
          "7": 0.0304374061524868,
          "8": -0.06354771554470062,
          "9": 0.1910792887210846,
          "10": 0.19287852942943573,
          "11": -0.1611482799053192,
          "12": -0.18356962502002716,
          "13": 0.06247303634881973,
          "14": -0.08268002420663834,
          "15": 0.13968788087368011,
          "16": -0.05656282603740692,
          "17": -0.10746733099222183,
          "18": 0.030065041035413742,
          "19": 0.1962728649377823,
          "20": 0.10129039734601974,
          "21": 0.016908684745430946,
          "22": -0.051545821130275726,
          "23": 0.09906139969825745,
          "24": -0.08783581107854843,
          "25": 0.13429801166057587,
          "26": 0.16326667368412018,
          "27": 0.10560154914855957,
          "28": -0.19974929094314575,
          "29": -0.09018326550722122
        }
      },
      "7": {
        "bias": -0.05498979613184929,
        "weights": {
          "0": 0.08057349920272827,
          "1": 0.12233695387840271,
          "2": 0.12534993886947632,
          "3": -0.15924476087093353,
          "4": -0.04003532603383064,
          "5": 0.19805584847927094,
          "6": 0.13599666953086853,
          "7": 0.027393436059355736,
          "8": -0.07962552458047867,
          "9": -0.003799841506406665,
          "10": -0.057342756539583206,
          "11": -0.1047290489077568,
          "12": -0.031290724873542786,
          "13": -0.15086351335048676,
          "14": -0.03275171294808388,
          "15": 0.09409601986408234,
          "16": 0.16709624230861664,
          "17": -0.07358516752719879,
          "18": -0.005597214214503765,
          "19": -0.05007600039243698,
          "20": -0.16244249045848846,
          "21": 0.15250329673290253,
          "22": 0.06415770947933197,
          "23": -0.19809596240520477,
          "24": 0.11573478579521179,
          "25": 0.044369786977767944,
          "26": -0.11885711550712585,
          "27": 0.010330472141504288,
          "28": 0.07807686179876328,
          "29": 0.11530989408493042
        }
      },
      "8": {
        "bias": -0.1658838838338852,
        "weights": {
          "0": -0.0710025504231453,
          "1": 0.021800456568598747,
          "2": 0.03963653743267059,
          "3": 0.11849913746118546,
          "4": 0.10186905413866043,
          "5": -0.04512237012386322,
          "6": 0.025515757501125336,
          "7": -0.10700778663158417,
          "8": -0.027262961491942406,
          "9": -0.0023697558790445328,
          "10": -0.0504952110350132,
          "11": -0.014180708676576614,
          "12": 0.16801755130290985,
          "13": -0.04689158499240875,
          "14": 0.08426309376955032,
          "15": 0.031551193445920944,
          "16": -0.10558722168207169,
          "17": -0.10649839043617249,
          "18": -0.049144595861434937,
          "19": -0.09060623496770859,
          "20": 0.19759148359298706,
          "21": 0.03742736950516701,
          "22": 0.0475919209420681,
          "23": -0.05321058630943298,
          "24": 0.05667346715927124,
          "25": 0.07707254588603973,
          "26": 0.11353819817304611,
          "27": -0.13576389849185944,
          "28": 0.037189483642578125,
          "29": -0.10395953059196472
        }
      },
      "9": {
        "bias": 0.17675550282001495,
        "weights": {
          "0": 0.0504477433860302,
          "1": 0.10504234582185745,
          "2": -0.07836492359638214,
          "3": 0.12332421541213989,
          "4": -0.173298180103302,
          "5": 0.045086897909641266,
          "6": 0.030702147632837296,
          "7": -0.1170743852853775,
          "8": -0.0013879145262762904,
          "9": 0.009992832317948341,
          "10": 0.1719571352005005,
          "11": -0.05967061594128609,
          "12": 0.1342657059431076,
          "13": -0.16997690498828888,
          "14": 0.10087542980909348,
          "15": 0.16251984238624573,
          "16": -0.17394129931926727,
          "17": -0.0867486223578453,
          "18": 0.18684469163417816,
          "19": -0.0627346932888031,
          "20": 0.1573559045791626,
          "21": 0.1635476052761078,
          "22": -0.1767544150352478,
          "23": -0.07405535131692886,
          "24": 0.10001302510499954,
          "25": 0.08165542036294937,
          "26": -0.1097184345126152,
          "27": 0.012059183791279793,
          "28": 0.025908062234520912,
          "29": 0.10935795307159424
        }
      },
      "10": {
        "bias": 0.1668669432401657,
        "weights": {
          "0": 0.07504145056009293,
          "1": -0.03824732080101967,
          "2": 0.06963000446557999,
          "3": -0.15570367872714996,
          "4": 0.02842111699283123,
          "5": -0.03479914739727974,
          "6": -0.03020138293504715,
          "7": 0.18514636158943176,
          "8": 0.07559747248888016,
          "9": 0.19733166694641113,
          "10": 0.03676869347691536,
          "11": 0.06432224810123444,
          "12": 0.02991415560245514,
          "13": -0.18786853551864624,
          "14": -0.18975400924682617,
          "15": 0.11228496581315994,
          "16": 0.06843489408493042,
          "17": 0.12044534087181091,
          "18": -0.1511322557926178,
          "19": 0.15273213386535645,
          "20": -0.14002510905265808,
          "21": 0.1355663686990738,
          "22": 0.14457690715789795,
          "23": 0.12434331327676773,
          "24": 0.17622441053390503,
          "25": 0.1968621164560318,
          "26": 0.11904033273458481,
          "27": 0.10462692379951477,
          "28": -0.18845243752002716,
          "29": -0.00806114636361599
        }
      },
      "11": {
        "bias": -0.034626349806785583,
        "weights": {
          "0": 0.18717946112155914,
          "1": -0.012802932411432266,
          "2": 0.10857793688774109,
          "3": -0.06546711921691895,
          "4": -0.1532747447490692,
          "5": 0.13036032021045685,
          "6": -0.024458250030875206,
          "7": 0.04509579390287399,
          "8": -0.16926684975624084,
          "9": -0.12312787771224976,
          "10": 0.1994026005268097,
          "11": -0.07415129244327545,
          "12": 0.1051051989197731,
          "13": 0.1927528828382492,
          "14": -0.11928006261587143,
          "15": -0.17425978183746338,
          "16": -0.15974105894565582,
          "17": 0.11284711211919785,
          "18": -0.1886831820011139,
          "19": -0.02830885536968708,
          "20": 0.0697486624121666,
          "21": 0.1471499353647232,
          "22": 0.15873630344867706,
          "23": -0.04436243698000908,
          "24": 0.07252462953329086,
          "25": -0.08637656271457672,
          "26": -0.06667499244213104,
          "27": -0.09678184241056442,
          "28": 0.08581888675689697,
          "29": 0.09987509250640869
        }
      },
      "12": {
        "bias": 0.0828334242105484,
        "weights": {
          "0": 0.0182558111846447,
          "1": 0.03342648968100548,
          "2": 0.19503134489059448,
          "3": 0.0939568355679512,
          "4": 0.19915717840194702,
          "5": -0.1060522198677063,
          "6": -0.000693371519446373,
          "7": 0.08039677888154984,
          "8": 0.12793512642383575,
          "9": 0.12522129714488983,
          "10": 0.03588587045669556,
          "11": -0.05947823077440262,
          "12": 0.07228150218725204,
          "13": 0.11787091940641403,
          "14": -0.1268395036458969,
          "15": -0.04209864139556885,
          "16": 0.05589825659990311,
          "17": 0.1599276065826416,
          "18": -0.18441146612167358,
          "19": -0.023800211027264595,
          "20": -0.007978739216923714,
          "21": -0.16634172201156616,
          "22": -0.05956988409161568,
          "23": -0.02201271615922451,
          "24": -0.18590013682842255,
          "25": -0.08142180740833282,
          "26": 0.09467504173517227,
          "27": 0.03877269849181175,
          "28": -0.13341131806373596,
          "29": -0.010021776892244816
        }
      },
      "13": {
        "bias": -0.13220037519931793,
        "weights": {
          "0": -0.0577150359749794,
          "1": 0.14886806905269623,
          "2": 0.07295875251293182,
          "3": -0.017084287479519844,
          "4": -0.19219093024730682,
          "5": -0.1060589849948883,
          "6": -0.07963559776544571,
          "7": 0.00441470742225647,
          "8": -0.16076940298080444,
          "9": 0.049261126667261124,
          "10": -0.07040318101644516,
          "11": -0.07040075212717056,
          "12": -0.0813668742775917,
          "13": -0.10085999220609665,
          "14": -0.035113029181957245,
          "15": 0.1411186307668686,
          "16": 0.11537913233041763,
          "17": 0.17375120520591736,
          "18": 0.07492606341838837,
          "19": 0.09118367731571198,
          "20": 0.02262932062149048,
          "21": 0.19680900871753693,
          "22": -0.09068666398525238,
          "23": -0.09687545895576477,
          "24": -0.0885845348238945,
          "25": 0.14047104120254517,
          "26": -0.1474456787109375,
          "27": -0.08490514010190964,
          "28": 0.06176106631755829,
          "29": -0.04591960832476616
        }
      },
      "14": {
        "bias": 0.14787065982818604,
        "weights": {
          "0": 0.0016869037644937634,
          "1": 0.05257975310087204,
          "2": -0.034450095146894455,
          "3": -0.10913754254579544,
          "4": 0.07402708381414413,
          "5": 0.1509508490562439,
          "6": -0.011606703512370586,
          "7": 0.07604671269655228,
          "8": -0.1679987907409668,
          "9": 0.1456405371427536,
          "10": -0.017440227791666985,
          "11": -0.07753484696149826,
          "12": -0.04002773016691208,
          "13": -0.17232593894004822,
          "14": -0.14287281036376953,
          "15": 0.06823016703128815,
          "16": 0.12952673435211182,
          "17": -0.12745103240013123,
          "18": -0.14129745960235596,
          "19": 0.1315104365348816,
          "20": 0.09744928032159805,
          "21": 0.0575704462826252,
          "22": 0.1776238977909088,
          "23": 0.18820518255233765,
          "24": -0.12215475738048553,
          "25": 0.013438474386930466,
          "26": -0.10901940613985062,
          "27": -0.08597914129495621,
          "28": 0.013217251747846603,
          "29": -0.014830805361270905
        }
      },
      "15": {
        "bias": -0.1850736290216446,
        "weights": {
          "0": -0.1461765319108963,
          "1": 0.07638996094465256,
          "2": -0.10498196631669998,
          "3": -0.06011378765106201,
          "4": 0.018642166629433632,
          "5": -0.15819703042507172,
          "6": -0.14823618531227112,
          "7": 0.10272637009620667,
          "8": 0.11017230898141861,
          "9": 0.10323553532361984,
          "10": 0.08568815141916275,
          "11": -0.18151304125785828,
          "12": 0.0897950753569603,
          "13": 0.08473539352416992,
          "14": 0.029159419238567352,
          "15": -0.0899398922920227,
          "16": -0.032691746950149536,
          "17": -0.09155162423849106,
          "18": -0.0017527403542771935,
          "19": -0.06873227655887604,
          "20": -0.07726671546697617,
          "21": -0.14685434103012085,
          "22": -0.018207035958766937,
          "23": -0.058253075927495956,
          "24": -0.12291854619979858,
          "25": 0.1337365210056305,
          "26": 0.07893986254930496,
          "27": -0.05779580771923065,
          "28": -0.12731066346168518,
          "29": -0.09128972887992859
        }
      },
      "16": {
        "bias": 0.08026306331157684,
        "weights": {
          "0": 0.034685321152210236,
          "1": 0.16563105583190918,
          "2": 0.08580899983644485,
          "3": -0.11624272912740707,
          "4": 0.13629218935966492,
          "5": 0.008147484622895718,
          "6": -0.1959414929151535,
          "7": -0.15400195121765137,
          "8": 0.16054168343544006,
          "9": -0.05562856048345566,
          "10": 0.11147063970565796,
          "11": -0.05571295693516731,
          "12": -0.15156015753746033,
          "13": -0.16385304927825928,
          "14": -0.17148526012897491,
          "15": -0.10100329667329788,
          "16": 0.12500059604644775,
          "17": 0.09217073023319244,
          "18": -0.19812555611133575,
          "19": 0.16733604669570923,
          "20": -0.07840604335069656,
          "21": 0.1322130560874939,
          "22": 0.06284020841121674,
          "23": -0.10507386922836304,
          "24": -0.1674880087375641,
          "25": 0.07578214257955551,
          "26": 0.13452009856700897,
          "27": 0.18416596949100494,
          "28": 0.14213202893733978,
          "29": 0.15142682194709778
        }
      },
      "17": {
        "bias": -0.03750172257423401,
        "weights": {
          "0": 0.0086295111104846,
          "1": 0.138585165143013,
          "2": -0.10350203514099121,
          "3": 0.03911536931991577,
          "4": 0.003113772952929139,
          "5": 0.15854761004447937,
          "6": -0.17846660315990448,
          "7": -0.03778944909572601,
          "8": 0.13136647641658783,
          "9": -0.14233487844467163,
          "10": 0.13613885641098022,
          "11": 0.062283728271722794,
          "12": -0.000007001748144830344,
          "13": -0.027466148138046265,
          "14": 0.1461438536643982,
          "15": -0.18917454779148102,
          "16": 0.09822317212820053,
          "17": 0.015251228585839272,
          "18": 0.02998059242963791,
          "19": -0.014112653210759163,
          "20": -0.09341523796319962,
          "21": -0.1635051667690277,
          "22": 0.07691086828708649,
          "23": 0.054144393652677536,
          "24": 0.15649284422397614,
          "25": 0.0604938268661499,
          "26": 0.10084716975688934,
          "27": 0.14690950512886047,
          "28": -0.18063297867774963,
          "29": -0.10336392372846603
        }
      },
      "18": {
        "bias": -0.17223061621189117,
        "weights": {
          "0": -0.07672499120235443,
          "1": 0.16806653141975403,
          "2": 0.06406418234109879,
          "3": 0.016608959063887596,
          "4": -0.012611111626029015,
          "5": -0.00986159685999155,
          "6": 0.15726958215236664,
          "7": 0.09040360897779465,
          "8": 0.15647435188293457,
          "9": 0.10634512454271317,
          "10": -0.0054895575158298016,
          "11": -0.1972452998161316,
          "12": 0.041441451758146286,
          "13": 0.13748177886009216,
          "14": 0.010368474759161472,
          "15": 0.19579525291919708,
          "16": -0.09495831280946732,
          "17": -0.1372867226600647,
          "18": -0.07893136888742447,
          "19": -0.1717020571231842,
          "20": -0.180327370762825,
          "21": 0.12997880578041077,
          "22": 0.1922225058078766,
          "23": -0.038316577672958374,
          "24": 0.11918488144874573,
          "25": 0.15191520750522614,
          "26": 0.17224185168743134,
          "27": -0.09606326371431351,
          "28": 0.12626858055591583,
          "29": -0.14428237080574036
        }
      },
      "19": {
        "bias": 0.08319281786680222,
        "weights": {
          "0": 0.0860150083899498,
          "1": -0.07602228224277496,
          "2": 0.14386579394340515,
          "3": 0.03486741706728935,
          "4": 0.1397474855184555,
          "5": 0.0820797011256218,
          "6": 0.044109199196100235,
          "7": -0.09727893024682999,
          "8": 0.050773199647665024,
          "9": 0.06183414161205292,
          "10": -0.11925487965345383,
          "11": -0.022696321830153465,
          "12": -0.1258641481399536,
          "13": 0.13578861951828003,
          "14": -0.1105056181550026,
          "15": 0.15336492657661438,
          "16": -0.04638584703207016,
          "17": -0.03317626565694809,
          "18": 0.1003018170595169,
          "19": -0.1943303942680359,
          "20": 0.07603348046541214,
          "21": 0.18998490273952484,
          "22": -0.12515513598918915,
          "23": -0.1398455798625946,
          "24": 0.08181234449148178,
          "25": -0.14212220907211304,
          "26": 0.15330342948436737,
          "27": 0.03746955841779709,
          "28": -0.06452997773885727,
          "29": 0.02647281624376774
        }
      },
      "20": {
        "bias": -0.18126244843006134,
        "weights": {
          "0": 0.17242717742919922,
          "1": 0.04372146725654602,
          "2": 0.12824751436710358,
          "3": 0.09485834836959839,
          "4": 0.029861899092793465,
          "5": 0.11065984517335892,
          "6": -0.01489949319511652,
          "7": 0.1658388376235962,
          "8": -0.08924973756074905,
          "9": 0.12346526235342026,
          "10": 0.08195491880178452,
          "11": 0.17522099614143372,
          "12": 0.17984741926193237,
          "13": 0.19153818488121033,
          "14": -0.048547543585300446,
          "15": 0.11356845498085022,
          "16": 0.1580684632062912,
          "17": -0.05641145259141922,
          "18": 0.11593244969844818,
          "19": 0.05911421775817871,
          "20": 0.03381531313061714,
          "21": 0.05466384440660477,
          "22": 0.022208550944924355,
          "23": -0.11746754497289658,
          "24": 0.031147021800279617,
          "25": -0.17264209687709808,
          "26": 0.060282252728939056,
          "27": -0.1738746166229248,
          "28": 0.10687682032585144,
          "29": 0.08669470250606537
        }
      },
      "21": {
        "bias": -0.05653468519449234,
        "weights": {
          "0": 0.04731644690036774,
          "1": -0.11116071790456772,
          "2": -0.17080792784690857,
          "3": 0.06898890435695648,
          "4": -0.06720681488513947,
          "5": 0.13158179819583893,
          "6": 0.06778562068939209,
          "7": -0.13014812767505646,
          "8": -0.13885001838207245,
          "9": 0.09152498841285706,
          "10": 0.05336787551641464,
          "11": -0.010215804912149906,
          "12": -0.00025382815510965884,
          "13": 0.003587196348235011,
          "14": -0.07743631303310394,
          "15": -0.0962933674454689,
          "16": -0.06130531430244446,
          "17": -0.05446624755859375,
          "18": -0.06703424453735352,
          "19": -0.18147999048233032,
          "20": 0.08737621456384659,
          "21": -0.1209166944026947,
          "22": 0.14572753012180328,
          "23": 0.19275261461734772,
          "24": 0.1500050276517868,
          "25": -0.08878245204687119,
          "26": -0.14624501764774323,
          "27": 0.13702942430973053,
          "28": -0.12925611436367035,
          "29": -0.03224719315767288
        }
      },
      "22": {
        "bias": 0.17702260613441467,
        "weights": {
          "0": 0.14046870172023773,
          "1": -0.1346447914838791,
          "2": 0.08303215354681015,
          "3": -0.013735704123973846,
          "4": -0.17334356904029846,
          "5": -0.04360727220773697,
          "6": -0.10169018805027008,
          "7": 0.14979282021522522,
          "8": 0.15017281472682953,
          "9": -0.11512890458106995,
          "10": 0.128812775015831,
          "11": 0.1102927029132843,
          "12": 0.1131330206990242,
          "13": -0.020547030493617058,
          "14": -0.03492020443081856,
          "15": 0.2000160813331604,
          "16": 0.1638893187046051,
          "17": -0.07512903213500977,
          "18": 0.09205841273069382,
          "19": 0.13009648025035858,
          "20": 0.031472571194171906,
          "21": 0.03697517514228821,
          "22": -0.05584358423948288,
          "23": -0.14761441946029663,
          "24": 0.01608363725244999,
          "25": -0.13241375982761383,
          "26": -0.18199507892131805,
          "27": 0.008275317959487438,
          "28": 0.09813165664672852,
          "29": -0.19791854918003082
        }
      },
      "23": {
        "bias": 0.047938525676727295,
        "weights": {
          "0": 0.12034052610397339,
          "1": 0.16245053708553314,
          "2": 0.15583500266075134,
          "3": -0.11877022683620453,
          "4": -0.19778954982757568,
          "5": 0.02940404787659645,
          "6": -0.17764002084732056,
          "7": 0.001887095277197659,
          "8": 0.025761688128113747,
          "9": -0.19065041840076447,
          "10": 0.1315300017595291,
          "11": 0.0018430830677971244,
          "12": -0.11942251026630402,
          "13": 0.1715725064277649,
          "14": -0.14780296385288239,
          "15": 0.173733651638031,
          "16": -0.15474307537078857,
          "17": 0.09281588345766068,
          "18": -0.18404214084148407,
          "19": 0.17400221526622772,
          "20": -0.18708853423595428,
          "21": -0.17212478816509247,
          "22": 0.06806392222642899,
          "23": -0.06493902206420898,
          "24": -0.18628129363059998,
          "25": -0.16638581454753876,
          "26": 0.10127180814743042,
          "27": 0.11732097715139389,
          "28": 0.11446358263492584,
          "29": 0.16556406021118164
        }
      }
    },
    {
      "0": {
        "bias": 0.14627386629581451,
        "weights": {
          "0": 0.02804463542997837,
          "1": -0.1695614606142044,
          "2": -0.16705724596977234,
          "3": -0.19512072205543518,
          "4": 0.005812565330415964,
          "5": -0.07965972274541855,
          "6": -0.13917534053325653,
          "7": -0.15561333298683167,
          "8": 0.14245954155921936,
          "9": -0.019894590601325035,
          "10": 0.17332391440868378,
          "11": 0.1487627923488617,
          "12": -0.013454074040055275,
          "13": -0.05141643062233925,
          "14": -0.17892760038375854,
          "15": -0.031305067241191864,
          "16": -0.12781009078025818,
          "17": -0.02769583836197853,
          "18": 0.07228501886129379,
          "19": -0.013144116848707199,
          "20": 0.019845422357320786,
          "21": 0.07235701382160187,
          "22": -0.09077011048793793,
          "23": 0.10996966809034348
        }
      },
      "1": {
        "bias": 0.042932529002428055,
        "weights": {
          "0": 0.1752166748046875,
          "1": 0.16477377712726593,
          "2": 0.1312311291694641,
          "3": 0.1224789246916771,
          "4": 0.035881172865629196,
          "5": -0.13141122460365295,
          "6": 0.16043086349964142,
          "7": 0.04942692443728447,
          "8": -0.1832624077796936,
          "9": -0.14118365943431854,
          "10": -0.09640339016914368,
          "11": 0.12340955436229706,
          "12": -0.16395455598831177,
          "13": 0.08338563144207001,
          "14": -0.1995321661233902,
          "15": 0.13778908550739288,
          "16": -0.035586610436439514,
          "17": -0.19447855651378632,
          "18": 0.1734643429517746,
          "19": -0.15665818750858307,
          "20": 0.1361183375120163,
          "21": 0.19868436455726624,
          "22": -0.17527581751346588,
          "23": -0.09866359084844589
        }
      },
      "2": {
        "bias": 0.0875072032213211,
        "weights": {
          "0": -0.1812344342470169,
          "1": -0.12956370413303375,
          "2": 0.024315593764185905,
          "3": 0.17832201719284058,
          "4": 0.09477782249450684,
          "5": 0.01563461311161518,
          "6": 0.02778809517621994,
          "7": 0.015997620299458504,
          "8": -0.011730372905731201,
          "9": 0.025967922061681747,
          "10": 0.1933153122663498,
          "11": 0.11289669573307037,
          "12": 0.09085086733102798,
          "13": -0.12888303399085999,
          "14": -0.045040905475616455,
          "15": -0.15228700637817383,
          "16": -0.1340300440788269,
          "17": 0.11219549179077148,
          "18": -0.0770612508058548,
          "19": 0.03469698503613472,
          "20": -0.17306773364543915,
          "21": -0.051736049354076385,
          "22": -0.04691428691148758,
          "23": 0.135935977101326
        }
      },
      "3": {
        "bias": 0.10693371295928955,
        "weights": {
          "0": 0.14003784954547882,
          "1": 0.043939970433712006,
          "2": 0.009571550413966179,
          "3": -0.13418471813201904,
          "4": 0.1807614415884018,
          "5": -0.020674727857112885,
          "6": -0.07138507068157196,
          "7": 0.06571269035339355,
          "8": -0.09872078895568848,
          "9": 0.0027781003154814243,
          "10": 0.09185256063938141,
          "11": -0.016627538949251175,
          "12": 0.1841151863336563,
          "13": -0.06677048653364182,
          "14": -0.17598621547222137,
          "15": -0.11083683371543884,
          "16": -0.08756005018949509,
          "17": -0.12091567367315292,
          "18": 0.03745262697339058,
          "19": -0.12811484932899475,
          "20": 0.07553024590015411,
          "21": -0.06750146299600601,
          "22": 0.00199262541718781,
          "23": 0.20004376769065857
        }
      },
      "4": {
        "bias": -0.15929697453975677,
        "weights": {
          "0": 0.10625185072422028,
          "1": -0.05149030685424805,
          "2": 0.05105873569846153,
          "3": 0.06778229027986526,
          "4": 0.05912229046225548,
          "5": 0.1656457483768463,
          "6": 0.028061052784323692,
          "7": 0.115525983273983,
          "8": 0.08326838165521622,
          "9": -0.14587274193763733,
          "10": 0.00917880143970251,
          "11": 0.015286712907254696,
          "12": -0.01885908469557762,
          "13": 0.06417355686426163,
          "14": -0.0027383272536098957,
          "15": -0.19015662372112274,
          "16": -0.02197963558137417,
          "17": -0.023053476586937904,
          "18": 0.120064876973629,
          "19": -0.009935646317899227,
          "20": 0.025986025109887123,
          "21": 0.07620455324649811,
          "22": 0.18845327198505402,
          "23": -0.09458932280540466
        }
      },
      "5": {
        "bias": -0.19373366236686707,
        "weights": {
          "0": 0.13392169773578644,
          "1": 0.185228630900383,
          "2": 0.027231721207499504,
          "3": -0.1004604771733284,
          "4": -0.12887707352638245,
          "5": 0.1993497759103775,
          "6": 0.14084884524345398,
          "7": 0.021402541548013687,
          "8": -0.18507954478263855,
          "9": -0.05015556141734123,
          "10": 0.13704854249954224,
          "11": -0.022446488961577415,
          "12": 0.012949315831065178,
          "13": 0.15602721273899078,
          "14": -0.0035925048869103193,
          "15": 0.08386538177728653,
          "16": 0.1445261538028717,
          "17": 0.10374094545841217,
          "18": -0.12581199407577515,
          "19": 0.0038860319182276726,
          "20": 0.010924703441560268,
          "21": -0.053742945194244385,
          "22": -0.18799160420894623,
          "23": 0.0379466637969017
        }
      },
      "6": {
        "bias": 0.18564055860042572,
        "weights": {
          "0": 0.0030687793623656034,
          "1": -0.023033516481518745,
          "2": 0.008475248701870441,
          "3": -0.1694626659154892,
          "4": 0.08810526877641678,
          "5": -0.07704610377550125,
          "6": 0.07108687609434128,
          "7": 0.00892383512109518,
          "8": 0.08864007145166397,
          "9": -0.08549799025058746,
          "10": 0.16824756562709808,
          "11": -0.16166789829730988,
          "12": 0.06869331002235413,
          "13": 0.1600441187620163,
          "14": 0.03994610533118248,
          "15": 0.05527864769101143,
          "16": 0.025689661502838135,
          "17": 0.009802534244954586,
          "18": -0.08626312017440796,
          "19": 0.19748526811599731,
          "20": 0.1536635309457779,
          "21": -0.020068291574716568,
          "22": 0.08155050128698349,
          "23": 0.06273447722196579
        }
      },
      "7": {
        "bias": -0.1564631313085556,
        "weights": {
          "0": -0.14074459671974182,
          "1": -0.058935392647981644,
          "2": 0.08500713109970093,
          "3": -0.17714709043502808,
          "4": 0.0033282304648309946,
          "5": -0.12315735965967178,
          "6": -0.01169929001480341,
          "7": -0.12406746298074722,
          "8": 0.1514349728822708,
          "9": -0.1206599771976471,
          "10": -0.02370556630194187,
          "11": -0.0003865797189064324,
          "12": -0.1783435046672821,
          "13": 0.18358714878559113,
          "14": -0.1072019413113594,
          "15": 0.10523651540279388,
          "16": -0.026784425601363182,
          "17": -0.03779971972107887,
          "18": -0.03304065763950348,
          "19": -0.18723079562187195,
          "20": -0.172828808426857,
          "21": -0.10588421672582626,
          "22": 0.16058972477912903,
          "23": -0.15863201022148132
        }
      },
      "8": {
        "bias": 0.11796311289072037,
        "weights": {
          "0": 0.04776382818818092,
          "1": -0.05405815690755844,
          "2": -0.1601995974779129,
          "3": -0.18314872682094574,
          "4": -0.057916365563869476,
          "5": 0.132998526096344,
          "6": -0.15716873109340668,
          "7": 0.0861809104681015,
          "8": -0.11961255967617035,
          "9": -0.044946834444999695,
          "10": -0.17474371194839478,
          "11": 0.189235657453537,
          "12": 0.12155277281999588,
          "13": -0.1991068571805954,
          "14": -0.1569841355085373,
          "15": 0.14163801074028015,
          "16": -0.11267489939928055,
          "17": 0.08525048196315765,
          "18": -0.14063860476016998,
          "19": -0.04093119129538536,
          "20": 0.04089440032839775,
          "21": 0.04140269756317139,
          "22": -0.08385049551725388,
          "23": -0.1750546246767044
        }
      },
      "9": {
        "bias": -0.12362009286880493,
        "weights": {
          "0": -0.07326396554708481,
          "1": 0.11003201454877853,
          "2": 0.1535016894340515,
          "3": 0.19221748411655426,
          "4": 0.1718718558549881,
          "5": 0.14112479984760284,
          "6": 0.14644329249858856,
          "7": 0.0017794349696487188,
          "8": 0.03941676765680313,
          "9": -0.07751210778951645,
          "10": -0.1491701602935791,
          "11": 0.12195727974176407,
          "12": 0.11770375072956085,
          "13": 0.03439325839281082,
          "14": 0.05064147710800171,
          "15": -0.06164386868476868,
          "16": 0.1731613725423813,
          "17": 0.17136985063552856,
          "18": -0.1088888943195343,
          "19": -0.08798138052225113,
          "20": 0.1785096377134323,
          "21": 0.1065545529127121,
          "22": -0.19711901247501373,
          "23": -0.0801747664809227
        }
      },
      "10": {
        "bias": -0.15949277579784393,
        "weights": {
          "0": -0.1128833144903183,
          "1": 0.005904678720980883,
          "2": 0.16301022469997406,
          "3": 0.043227668851614,
          "4": 0.0006686939741484821,
          "5": 0.04648894444108009,
          "6": -0.18641036748886108,
          "7": 0.006503892131149769,
          "8": 0.12610945105552673,
          "9": -0.0674983412027359,
          "10": 0.17530390620231628,
          "11": -0.090058334171772,
          "12": 0.15236888825893402,
          "13": 0.1535266488790512,
          "14": 0.06779514998197556,
          "15": -0.02398558333516121,
          "16": 0.11762658506631851,
          "17": 0.12224394828081131,
          "18": 0.014997527934610844,
          "19": 0.04098672419786453,
          "20": -0.003951857332140207,
          "21": -0.01774476282298565,
          "22": 0.12177300453186035,
          "23": -0.1952126920223236
        }
      },
      "11": {
        "bias": 0.16979524493217468,
        "weights": {
          "0": 0.10110709816217422,
          "1": 0.13713325560092926,
          "2": -0.06969042122364044,
          "3": 0.01025082916021347,
          "4": 0.04512125253677368,
          "5": -0.029197121039032936,
          "6": 0.07109088450670242,
          "7": -0.05172446742653847,
          "8": -0.10557861626148224,
          "9": -0.040706999599933624,
          "10": -0.020563561469316483,
          "11": -0.10404543578624725,
          "12": -0.10861314088106155,
          "13": -0.12267296761274338,
          "14": -0.14136438071727753,
          "15": 0.10398973524570465,
          "16": -0.07098541408777237,
          "17": -0.11919678747653961,
          "18": 0.16367650032043457,
          "19": -0.0020750490948557854,
          "20": 0.01528075709939003,
          "21": -0.0517239049077034,
          "22": -0.09012974053621292,
          "23": -0.19219009578227997
        }
      },
      "12": {
        "bias": -0.15534430742263794,
        "weights": {
          "0": 0.16624674201011658,
          "1": -0.09401092678308487,
          "2": -0.05825068801641464,
          "3": -0.09213200211524963,
          "4": -0.1444142609834671,
          "5": -0.18934880197048187,
          "6": 0.03283870965242386,
          "7": 0.02625853382050991,
          "8": -0.12092305719852448,
          "9": -0.11743611842393875,
          "10": -0.148332878947258,
          "11": 0.040893469005823135,
          "12": -0.19947130978107452,
          "13": -0.13246877491474152,
          "14": -0.007047093939036131,
          "15": -0.11800401657819748,
          "16": -0.14180466532707214,
          "17": 0.12942442297935486,
          "18": -0.13964080810546875,
          "19": -0.05081404000520706,
          "20": 0.1644575148820877,
          "21": -0.09520827233791351,
          "22": 0.16712148487567902,
          "23": 0.0820140615105629
        }
      },
      "13": {
        "bias": -0.1709204912185669,
        "weights": {
          "0": 0.013745316304266453,
          "1": -0.1896308809518814,
          "2": 0.15261486172676086,
          "3": 0.1915006786584854,
          "4": -0.13887350261211395,
          "5": 0.13179349899291992,
          "6": -0.044168904423713684,
          "7": -0.053930703550577164,
          "8": 0.19779740273952484,
          "9": -0.11664316058158875,
          "10": -0.019334113225340843,
          "11": -0.0728735476732254,
          "12": -0.11934346705675125,
          "13": -0.18825195729732513,
          "14": -0.12754040956497192,
          "15": -0.08201569318771362,
          "16": -0.10970701277256012,
          "17": -0.09408370405435562,
          "18": -0.04293357580900192,
          "19": -0.03506985306739807,
          "20": 0.05279229208827019,
          "21": -0.00863681361079216,
          "22": -0.01846560463309288,
          "23": -0.08161219209432602
        }
      },
      "14": {
        "bias": -0.10608670860528946,
        "weights": {
          "0": 0.1671535223722458,
          "1": -0.166554793715477,
          "2": -0.06022388115525246,
          "3": -0.12726880609989166,
          "4": 0.13606569170951843,
          "5": -0.15940620005130768,
          "6": 0.1023118793964386,
          "7": 0.031800635159015656,
          "8": -0.01244022510945797,
          "9": 0.19744116067886353,
          "10": -0.17692580819129944,
          "11": 0.06088511273264885,
          "12": 0.07496717572212219,
          "13": -0.1397802084684372,
          "14": -0.1953279674053192,
          "15": 0.08906064182519913,
          "16": 0.09448131918907166,
          "17": -0.00453612208366394,
          "18": 0.0206432081758976,
          "19": 0.07676802575588226,
          "20": -0.16405603289604187,
          "21": -0.1429641842842102,
          "22": 0.02027599886059761,
          "23": -0.0953863337635994
        }
      },
      "15": {
        "bias": 0.03802391141653061,
        "weights": {
          "0": 0.14883513748645782,
          "1": -0.06300009787082672,
          "2": -0.08682908862829208,
          "3": 0.036403998732566833,
          "4": -0.005680719390511513,
          "5": -0.07929863780736923,
          "6": -0.18043452501296997,
          "7": -0.08361601829528809,
          "8": -0.04517516493797302,
          "9": 0.040070563554763794,
          "10": 0.10561010241508484,
          "11": -0.06266158819198608,
          "12": 0.08363941311836243,
          "13": -0.15664343535900116,
          "14": -0.06924553215503693,
          "15": -0.15891286730766296,
          "16": -0.1736946851015091,
          "17": 0.015862468630075455,
          "18": -0.08709119260311127,
          "19": -0.045097608119249344,
          "20": -0.17969892919063568,
          "21": -0.062272071838378906,
          "22": -0.18960727751255035,
          "23": 0.1908947229385376
        }
      },
      "16": {
        "bias": 0.1121160164475441,
        "weights": {
          "0": 0.0015631616115570068,
          "1": 0.03503134846687317,
          "2": 0.17913159728050232,
          "3": -0.09494835883378983,
          "4": -0.06744706630706787,
          "5": -0.011630040593445301,
          "6": 0.07185187935829163,
          "7": 0.06236124038696289,
          "8": 0.03950541839003563,
          "9": -0.08099812269210815,
          "10": 0.1800251305103302,
          "11": -0.01198757067322731,
          "12": -0.1259850710630417,
          "13": -0.08900151401758194,
          "14": -0.14123836159706116,
          "15": 0.10994254797697067,
          "16": -0.037456970661878586,
          "17": -0.04328526556491852,
          "18": 0.07565566897392273,
          "19": -0.12787789106369019,
          "20": -0.13794806599617004,
          "21": 0.026921940967440605,
          "22": 0.0348576195538044,
          "23": -0.06646914780139923
        }
      },
      "17": {
        "bias": 0.1431332677602768,
        "weights": {
          "0": 0.09236834198236465,
          "1": 0.02844230830669403,
          "2": -0.054204560816287994,
          "3": 0.0487171895802021,
          "4": 0.034316860139369965,
          "5": 0.10937120765447617,
          "6": 0.17024044692516327,
          "7": -0.12869133055210114,
          "8": -0.09010808169841766,
          "9": 0.1769099086523056,
          "10": -0.1379309445619583,
          "11": -0.1533789336681366,
          "12": 0.02142716385424137,
          "13": -0.19357509911060333,
          "14": -0.07865774631500244,
          "15": 0.11336501687765121,
          "16": 0.09549786895513535,
          "17": 0.14729517698287964,
          "18": -0.03088359907269478,
          "19": 0.10516563057899475,
          "20": -0.1800905168056488,
          "21": -0.023372650146484375,
          "22": 0.08055637031793594,
          "23": -0.15896105766296387
        }
      },
      "18": {
        "bias": -0.18661430478096008,
        "weights": {
          "0": 0.07201707363128662,
          "1": 0.03155430778861046,
          "2": 0.02121809683740139,
          "3": 0.052941758185625076,
          "4": -0.054442960768938065,
          "5": 0.12206321954727173,
          "6": -0.144313782453537,
          "7": 0.13251300156116486,
          "8": -0.17638498544692993,
          "9": -0.014609075151383877,
          "10": -0.1358436942100525,
          "11": -0.020983219146728516,
          "12": 0.15790142118930817,
          "13": 0.08839643001556396,
          "14": -0.19132667779922485,
          "15": 0.15569187700748444,
          "16": -0.03274746239185333,
          "17": -0.08014746010303497,
          "18": 0.049699392169713974,
          "19": 0.12653282284736633,
          "20": 0.002651728456839919,
          "21": -0.10283412784337997,
          "22": -0.12537173926830292,
          "23": 0.011632468551397324
        }
      },
      "19": {
        "bias": -0.10711318999528885,
        "weights": {
          "0": 0.0685587078332901,
          "1": -0.10758501291275024,
          "2": -0.12767770886421204,
          "3": -0.02985030971467495,
          "4": 0.05580625310540199,
          "5": -0.06316224485635757,
          "6": -0.08149898797273636,
          "7": -0.10868831723928452,
          "8": 0.05496281385421753,
          "9": -0.19456997513771057,
          "10": 0.160186767578125,
          "11": -0.011808088980615139,
          "12": 0.16274890303611755,
          "13": 0.07659244537353516,
          "14": 0.1749987006187439,
          "15": -0.08328728377819061,
          "16": 0.09649113565683365,
          "17": -0.02289731800556183,
          "18": -0.05312413349747658,
          "19": -0.1176728904247284,
          "20": 0.09718374162912369,
          "21": -0.02145671844482422,
          "22": 0.11460896581411362,
          "23": 0.09381968528032303
        }
      },
      "20": {
        "bias": 0.03717188909649849,
        "weights": {
          "0": -0.04558416083455086,
          "1": 0.18832877278327942,
          "2": -0.048671361058950424,
          "3": -0.1821746975183487,
          "4": 0.17035579681396484,
          "5": 0.13183292746543884,
          "6": 0.12237867712974548,
          "7": -0.035314787179231644,
          "8": 0.025744603946805,
          "9": 0.16496150195598602,
          "10": -0.15737444162368774,
          "11": -0.17344418168067932,
          "12": 0.15410718321800232,
          "13": -0.18666326999664307,
          "14": -0.17954134941101074,
          "15": -0.08580457419157028,
          "16": 0.13631342351436615,
          "17": -0.07123404741287231,
          "18": 0.06417275965213776,
          "19": -0.11534352600574493,
          "20": 0.0917305201292038,
          "21": 0.16583490371704102,
          "22": 0.08258100599050522,
          "23": 0.07160884141921997
        }
      },
      "21": {
        "bias": 0.0009171707788482308,
        "weights": {
          "0": -0.015238934196531773,
          "1": 0.15703947842121124,
          "2": -0.03722921013832092,
          "3": 0.005371347535401583,
          "4": 0.14852648973464966,
          "5": -0.19755548238754272,
          "6": -0.13104094564914703,
          "7": 0.14226794242858887,
          "8": -0.1387360394001007,
          "9": -0.19019871950149536,
          "10": 0.1254452019929886,
          "11": -0.01310880109667778,
          "12": 0.19705800712108612,
          "13": 0.05736784636974335,
          "14": 0.16533708572387695,
          "15": 0.053976915776729584,
          "16": 0.025994375348091125,
          "17": 0.15505154430866241,
          "18": -0.02452387474477291,
          "19": 0.06271158158779144,
          "20": -0.011822874657809734,
          "21": -0.18692584335803986,
          "22": -0.16775651276111603,
          "23": 0.07632587850093842
        }
      },
      "22": {
        "bias": -0.11091020703315735,
        "weights": {
          "0": 0.12369346618652344,
          "1": -0.10887538641691208,
          "2": 0.0028334897942841053,
          "3": 0.15131396055221558,
          "4": 0.024234086275100708,
          "5": -0.1732427030801773,
          "6": -0.164255291223526,
          "7": 0.057252321392297745,
          "8": 0.042397160083055496,
          "9": 0.03970387205481529,
          "10": -0.1899147480726242,
          "11": -0.14243309199810028,
          "12": -0.18154247105121613,
          "13": 0.18072284758090973,
          "14": 0.02444016933441162,
          "15": -0.0010622106492519379,
          "16": -0.03179211542010307,
          "17": 0.13227584958076477,
          "18": 0.06474515795707703,
          "19": -0.10025563836097717,
          "20": -0.06291642040014267,
          "21": -0.11386286467313766,
          "22": -0.044870525598526,
          "23": 0.07110031694173813
        }
      },
      "23": {
        "bias": 0.1938876360654831,
        "weights": {
          "0": 0.01996462419629097,
          "1": 0.14675648510456085,
          "2": 0.11326516419649124,
          "3": 0.047241970896720886,
          "4": -0.09215816855430603,
          "5": -0.17033641040325165,
          "6": 0.0568167045712471,
          "7": -0.10170748084783554,
          "8": -0.14703287184238434,
          "9": 0.042850516736507416,
          "10": 0.18591462075710297,
          "11": -0.04596032574772835,
          "12": -0.050432439893484116,
          "13": -0.0821070522069931,
          "14": 0.11456412822008133,
          "15": -0.10918473452329636,
          "16": 0.1530458629131317,
          "17": -0.1791015863418579,
          "18": 0.03452206030488014,
          "19": -0.04830184206366539,
          "20": 0.14763857424259186,
          "21": -0.07305794954299927,
          "22": -0.0929991826415062,
          "23": 0.004028873983770609
        }
      },
      "24": {
        "bias": -0.013151329010725021,
        "weights": {
          "0": -0.1963474154472351,
          "1": 0.10704073309898376,
          "2": -0.08980722725391388,
          "3": -0.07695931941270828,
          "4": -0.18831993639469147,
          "5": -0.10751046240329742,
          "6": -0.06420030444860458,
          "7": 0.06811711937189102,
          "8": 0.016101710498332977,
          "9": -0.11186345666646957,
          "10": -0.15788903832435608,
          "11": -0.09994924813508987,
          "12": -0.0530058927834034,
          "13": -0.13775862753391266,
          "14": 0.16963765025138855,
          "15": -0.08422098308801651,
          "16": 0.1751936376094818,
          "17": 0.09682630002498627,
          "18": -0.0631011575460434,
          "19": -0.030215997248888016,
          "20": 0.0640244111418724,
          "21": 0.005454180296510458,
          "22": 0.12021316587924957,
          "23": 0.08264292031526566
        }
      },
      "25": {
        "bias": -0.1928415298461914,
        "weights": {
          "0": -0.09646715223789215,
          "1": -0.10892953723669052,
          "2": 0.08261324465274811,
          "3": -0.14406710863113403,
          "4": -0.09799935668706894,
          "5": -0.01882733218371868,
          "6": 0.1920895278453827,
          "7": -0.04857412353157997,
          "8": 0.10606523603200912,
          "9": 0.1429697722196579,
          "10": 0.0777493491768837,
          "11": -0.006288845557719469,
          "12": -0.193821519613266,
          "13": -0.0975412130355835,
          "14": 0.10925231128931046,
          "15": 0.05060330405831337,
          "16": 0.12918764352798462,
          "17": 0.07707270979881287,
          "18": -0.05752186104655266,
          "19": -0.09784357994794846,
          "20": -0.007658201269805431,
          "21": 0.19223716855049133,
          "22": 0.015789564698934555,
          "23": -0.08510027080774307
        }
      },
      "26": {
        "bias": -0.029993219301104546,
        "weights": {
          "0": -0.0403759740293026,
          "1": -0.11966406553983688,
          "2": 0.05364243686199188,
          "3": 0.15009647607803345,
          "4": -0.13261756300926208,
          "5": 0.1004122793674469,
          "6": -0.07272886484861374,
          "7": -0.16238215565681458,
          "8": 0.10523198544979095,
          "9": 0.03662201017141342,
          "10": -0.12379827350378036,
          "11": -0.06475760787725449,
          "12": -0.026154784485697746,
          "13": 0.02296101301908493,
          "14": 0.09941329807043076,
          "15": -0.17260238528251648,
          "16": 0.1171545460820198,
          "17": 0.1441047340631485,
          "18": 0.1622513234615326,
          "19": 0.1248263344168663,
          "20": -0.07144220173358917,
          "21": 0.03027060627937317,
          "22": -0.09510499984025955,
          "23": 0.1463755965232849
        }
      },
      "27": {
        "bias": 0.19039365649223328,
        "weights": {
          "0": -0.08337698131799698,
          "1": 0.14883039891719818,
          "2": -0.01860540732741356,
          "3": 0.06501151621341705,
          "4": -0.08518435806035995,
          "5": 0.03372446820139885,
          "6": -0.03722569718956947,
          "7": 0.17285554111003876,
          "8": -0.0903758704662323,
          "9": -0.15727108716964722,
          "10": 0.1180572360754013,
          "11": 0.18282268941402435,
          "12": 0.13743695616722107,
          "13": 0.12562066316604614,
          "14": -0.012010219506919384,
          "15": -0.14214017987251282,
          "16": 0.1466859132051468,
          "17": 0.0711773931980133,
          "18": -0.19658660888671875,
          "19": 0.02415423095226288,
          "20": -0.08025368303060532,
          "21": -0.0014773680595681071,
          "22": 0.043234698474407196,
          "23": -0.12524713575839996
        }
      },
      "28": {
        "bias": -0.1746896654367447,
        "weights": {
          "0": -0.08612489700317383,
          "1": 0.14060209691524506,
          "2": -0.0633770078420639,
          "3": -0.1453913152217865,
          "4": -0.08079683035612106,
          "5": 0.038791581988334656,
          "6": -0.09704310446977615,
          "7": -0.054223328828811646,
          "8": -0.0314839743077755,
          "9": 0.06940639764070511,
          "10": 0.0513228140771389,
          "11": 0.06605187803506851,
          "12": 0.0024941489100456238,
          "13": -0.15733927488327026,
          "14": 0.03570784255862236,
          "15": -0.1367942839860916,
          "16": -0.136725053191185,
          "17": -0.043666765093803406,
          "18": -0.04210638999938965,
          "19": 0.07751927524805069,
          "20": 0.13040240108966827,
          "21": -0.09503454715013504,
          "22": -0.029739968478679657,
          "23": -0.09201503545045853
        }
      },
      "29": {
        "bias": 0.15883207321166992,
        "weights": {
          "0": 0.0851888433098793,
          "1": -0.10001640021800995,
          "2": -0.1981428563594818,
          "3": 0.11645558476448059,
          "4": -0.10249362140893936,
          "5": 0.046935293823480606,
          "6": -0.043124113231897354,
          "7": -0.04145252704620361,
          "8": 0.07943639159202576,
          "9": -0.0653209537267685,
          "10": -0.06040351465344429,
          "11": -0.07516796141862869,
          "12": -0.119684137403965,
          "13": 0.13250082731246948,
          "14": 0.038583189249038696,
          "15": 0.13216152787208557,
          "16": 0.029978366568684578,
          "17": 0.16623003780841827,
          "18": 0.17346501350402832,
          "19": -0.1837339848279953,
          "20": 0.11185231804847717,
          "21": 0.10207413136959076,
          "22": 0.07712221890687943,
          "23": 0.014676496386528015
        }
      },
      "30": {
        "bias": 0.0754181444644928,
        "weights": {
          "0": -0.14333470165729523,
          "1": 0.04459156468510628,
          "2": -0.13627327978610992,
          "3": 0.058579716831445694,
          "4": -0.018987732008099556,
          "5": 0.0738566666841507,
          "6": -0.08795847743749619,
          "7": 0.1423596292734146,
          "8": 0.06625501066446304,
          "9": 0.19078315794467926,
          "10": -0.15828993916511536,
          "11": -0.05084655061364174,
          "12": -0.025910189375281334,
          "13": 0.018903296440839767,
          "14": 0.04496803134679794,
          "15": -0.04319418966770172,
          "16": 0.1660117506980896,
          "17": -0.17087706923484802,
          "18": 0.0057315826416015625,
          "19": 0.03345509618520737,
          "20": -0.16150431334972382,
          "21": 0.15197573602199554,
          "22": -0.023746710270643234,
          "23": 0.07060934603214264
        }
      },
      "31": {
        "bias": 0.0075441645458340645,
        "weights": {
          "0": -0.03099534846842289,
          "1": -0.1631895750761032,
          "2": -0.12653499841690063,
          "3": -0.1546488255262375,
          "4": 0.1207965835928917,
          "5": 0.06001248210668564,
          "6": 0.006502421107143164,
          "7": -0.16324369609355927,
          "8": -0.002324499422684312,
          "9": -0.1331997513771057,
          "10": -0.015900595113635063,
          "11": -0.13241466879844666,
          "12": -0.01693568378686905,
          "13": 0.12650999426841736,
          "14": 0.17961721122264862,
          "15": -0.10748004913330078,
          "16": 0.1875731199979782,
          "17": -0.07321304827928543,
          "18": 0.19781474769115448,
          "19": -0.18082445859909058,
          "20": 0.07224348187446594,
          "21": -0.16765467822551727,
          "22": -0.057832006365060806,
          "23": 0.15736354887485504
        }
      },
      "32": {
        "bias": -0.08884427696466446,
        "weights": {
          "0": 0.06606829166412354,
          "1": 0.033043548464775085,
          "2": 0.04091209918260574,
          "3": 0.11344881355762482,
          "4": -0.09583839029073715,
          "5": 0.14090308547019958,
          "6": 0.029579443857073784,
          "7": -0.10694050788879395,
          "8": 0.11299462616443634,
          "9": -0.1585332751274109,
          "10": -0.07280930876731873,
          "11": -0.059772562235593796,
          "12": 0.004261039663106203,
          "13": -0.03476855531334877,
          "14": -0.017364725470542908,
          "15": 0.17760616540908813,
          "16": 0.044634416699409485,
          "17": -0.013341378420591354,
          "18": 0.007324301637709141,
          "19": 0.009090641513466835,
          "20": 0.0331718847155571,
          "21": 0.1092718318104744,
          "22": 0.03744310885667801,
          "23": -0.14259512722492218
        }
      },
      "33": {
        "bias": 0.006039614323526621,
        "weights": {
          "0": 0.07756444066762924,
          "1": 0.07209142297506332,
          "2": -0.07131674140691757,
          "3": -0.17954406142234802,
          "4": -0.06092596799135208,
          "5": -0.13583512604236603,
          "6": 0.0647597387433052,
          "7": -0.19082660973072052,
          "8": 0.15699869394302368,
          "9": 0.07419378310441971,
          "10": -0.17974446713924408,
          "11": 0.09269996732473373,
          "12": -0.0007401988841593266,
          "13": -0.10712417215108871,
          "14": -0.0584820918738842,
          "15": -0.10941899567842484,
          "16": 0.02001512050628662,
          "17": 0.079583078622818,
          "18": 0.16498823463916779,
          "19": 0.03908398002386093,
          "20": 0.00533712562173605,
          "21": -0.13622185587882996,
          "22": -0.008233537897467613,
          "23": 0.1746523678302765
        }
      },
      "34": {
        "bias": 0.12891359627246857,
        "weights": {
          "0": 0.04459339380264282,
          "1": 0.056727003306150436,
          "2": 0.1433722823858261,
          "3": 0.17651791870594025,
          "4": 0.14283572137355804,
          "5": 0.19619916379451752,
          "6": -0.10144607722759247,
          "7": -0.11742929369211197,
          "8": -0.0630434900522232,
          "9": -0.16539475321769714,
          "10": 0.07634258270263672,
          "11": -0.11983826011419296,
          "12": 0.12665200233459473,
          "13": -0.14239847660064697,
          "14": -0.08677695691585541,
          "15": -0.08058495819568634,
          "16": -0.1341138780117035,
          "17": 0.13197627663612366,
          "18": -0.18355008959770203,
          "19": -0.15530513226985931,
          "20": -0.08478381484746933,
          "21": 0.039410557597875595,
          "22": 0.08430110663175583,
          "23": 0.14641965925693512
        }
      },
      "35": {
        "bias": 0.09505701065063477,
        "weights": {
          "0": -0.1861654669046402,
          "1": -0.17177273333072662,
          "2": 0.10785375535488129,
          "3": -0.0304655022919178,
          "4": 0.1850636601448059,
          "5": -0.07611259818077087,
          "6": 0.19938912987709045,
          "7": 0.10983425378799438,
          "8": -0.07764529436826706,
          "9": 0.02978784777224064,
          "10": 0.07619290053844452,
          "11": -0.10382998734712601,
          "12": 0.16569247841835022,
          "13": -0.12763109803199768,
          "14": -0.04833251237869263,
          "15": -0.18197228014469147,
          "16": 0.11877066642045975,
          "17": 0.02956106700003147,
          "18": -0.13278183341026306,
          "19": -0.16624727845191956,
          "20": -0.17224104702472687,
          "21": 0.15877801179885864,
          "22": 0.06710305064916611,
          "23": 0.006447668187320232
        }
      },
      "36": {
        "bias": 0.08439210802316666,
        "weights": {
          "0": 0.16144248843193054,
          "1": -0.0881953313946724,
          "2": 0.03984794765710831,
          "3": -0.1474115401506424,
          "4": 0.027254756540060043,
          "5": -0.03651167452335358,
          "6": -0.11307869106531143,
          "7": -0.031685132533311844,
          "8": -0.10524188727140427,
          "9": 0.1969599425792694,
          "10": 0.1957903653383255,
          "11": -0.15234632790088654,
          "12": 0.04571831598877907,
          "13": -0.12169604748487473,
          "14": -0.17152182757854462,
          "15": 0.15495432913303375,
          "16": 0.1520075500011444,
          "17": -0.044475287199020386,
          "18": -0.17495067417621613,
          "19": 0.09326466172933578,
          "20": 0.09090562164783478,
          "21": 0.16113974153995514,
          "22": -0.1828017234802246,
          "23": 0.1527082622051239
        }
      },
      "37": {
        "bias": 0.042307719588279724,
        "weights": {
          "0": -0.03554823249578476,
          "1": 0.05741395801305771,
          "2": 0.1996687799692154,
          "3": -0.10202764719724655,
          "4": 0.00967992004007101,
          "5": 0.18969401717185974,
          "6": 0.125442236661911,
          "7": 0.19331026077270508,
          "8": -0.07991286367177963,
          "9": -0.039885781705379486,
          "10": 0.06242550536990166,
          "11": -0.1745585799217224,
          "12": 0.05325265973806381,
          "13": -0.1949593424797058,
          "14": -0.16816774010658264,
          "15": -0.11742806434631348,
          "16": 0.02520260214805603,
          "17": 0.14466087520122528,
          "18": -0.07044486701488495,
          "19": -0.041115324944257736,
          "20": -0.03739771246910095,
          "21": -0.09648848325014114,
          "22": 0.024490104988217354,
          "23": 0.056906286627054214
        }
      },
      "38": {
        "bias": 0.013179467990994453,
        "weights": {
          "0": 0.1792948991060257,
          "1": 0.03439997136592865,
          "2": 0.1681802123785019,
          "3": -0.16881130635738373,
          "4": 0.09047567844390869,
          "5": 0.1286688596010208,
          "6": 0.0014990189811214805,
          "7": -0.08513983339071274,
          "8": 0.17823292315006256,
          "9": -0.17158173024654388,
          "10": -0.17596276104450226,
          "11": -0.1391512155532837,
          "12": 0.1044464036822319,
          "13": 0.1648171842098236,
          "14": 0.14036855101585388,
          "15": -0.19859372079372406,
          "16": 0.1334352046251297,
          "17": -0.14097023010253906,
          "18": -0.09342876076698303,
          "19": -0.02530001290142536,
          "20": -0.07660092413425446,
          "21": -0.12147568166255951,
          "22": 0.0787852481007576,
          "23": 0.13593439757823944
        }
      },
      "39": {
        "bias": 0.1358964741230011,
        "weights": {
          "0": -0.024004660546779633,
          "1": 0.16293206810951233,
