{
  "sizes": [
    5,
    4,
    31,
    24,
    60,
    60,
    7,
    1
  ],
  "layers": [
    {
      "title": {},
      "start_time_day": {},
      "start_time_hour": {},
      "start_time_minute": {},
      "register_start_day_distance": {}
    },
    {
      "0": {
        "bias": -0.12834566831588745,
        "weights": {
          "title": 0.14494895935058594,
          "start_time_day": -0.08718787133693695,
          "start_time_hour": 0.12080541998147964,
          "start_time_minute": -0.15167281031608582,
          "register_start_day_distance": -0.020771950483322144
        }
      },
      "1": {
        "bias": 0.17471428215503693,
        "weights": {
          "title": 0.08330412209033966,
          "start_time_day": -0.15216080844402313,
          "start_time_hour": 0.0709633082151413,
          "start_time_minute": 0.14340665936470032,
          "register_start_day_distance": -0.17330528795719147
        }
      },
      "2": {
        "bias": -0.338986873626709,
        "weights": {
          "title": 0.15153436362743378,
          "start_time_day": -0.4294746220111847,
          "start_time_hour": -0.47103625535964966,
          "start_time_minute": -0.2276170551776886,
          "register_start_day_distance": 0.577025830745697
        }
      },
      "3": {
        "bias": -0.07064629346132278,
        "weights": {
          "title": 0.1429506540298462,
          "start_time_day": -0.044487763196229935,
          "start_time_hour": 0.13037164509296417,
          "start_time_minute": 0.12687857449054718,
          "register_start_day_distance": -0.011879515834152699
        }
      }
    },
    {
      "0": {
        "bias": 0.11457579582929611,
        "weights": {
          "0": 0.03243604674935341,
          "1": 0.19408895075321198,
          "2": -0.024762418121099472,
          "3": -0.0639815554022789
        }
      },
      "1": {
        "bias": -0.06545432657003403,
        "weights": {
          "0": -0.09020091593265533,
          "1": -0.02117016166448593,
          "2": 0.29381364583969116,
          "3": 0.040927328169345856
        }
      },
      "2": {
        "bias": 0.22536280751228333,
        "weights": {
          "0": -0.058237120509147644,
          "1": 0.18707215785980225,
          "2": -0.047226402908563614,
          "3": 0.15107624232769012
        }
      },
      "3": {
        "bias": -0.15853798389434814,
        "weights": {
          "0": 0.11776412278413773,
          "1": -0.05404813587665558,
          "2": 0.01870524138212204,
          "3": 0.1291085183620453
        }
      },
      "4": {
        "bias": -0.1652487963438034,
        "weights": {
          "0": -0.08444228023290634,
          "1": -0.06044955924153328,
          "2": 0.45618945360183716,
          "3": 0.13714061677455902
        }
      },
      "5": {
        "bias": -0.23463015258312225,
        "weights": {
          "0": 0.15558895468711853,
          "1": -0.13054108619689941,
          "2": 0.06762412935495377,
          "3": -0.013461504131555557
        }
      },
      "6": {
        "bias": -0.1935417354106903,
        "weights": {
          "0": 0.1808399260044098,
          "1": -0.14516068994998932,
          "2": -0.14187775552272797,
          "3": -0.1962694227695465
        }
      },
      "7": {
        "bias": -0.025046128779649734,
        "weights": {
          "0": -0.08208077400922775,
          "1": 0.1479252278804779,
          "2": 0.1282743513584137,
          "3": 0.14664331078529358
        }
      },
      "8": {
        "bias": 0.3064839839935303,
        "weights": {
          "0": -0.1118636503815651,
          "1": -0.011767678894102573,
          "2": -0.24881727993488312,
          "3": -0.117648184299469
        }
      },
      "9": {
        "bias": -0.21987125277519226,
        "weights": {
          "0": -0.17620567977428436,
          "1": -0.029885131865739822,
          "2": 0.1519695371389389,
          "3": 0.10099069774150848
        }
      },
      "10": {
        "bias": 0.04756069928407669,
        "weights": {
          "0": 0.16491274535655975,
          "1": -0.17831069231033325,
          "2": 0.04275526851415634,
          "3": 0.13410532474517822
        }
      },
      "11": {
        "bias": 0.22436153888702393,
        "weights": {
          "0": 0.16851156949996948,
          "1": 0.04886018857359886,
          "2": -0.04718809574842453,
          "3": -0.138952374458313
        }
      },
      "12": {
        "bias": -0.08194470405578613,
        "weights": {
          "0": 0.1347682625055313,
          "1": -0.056781306862831116,
          "2": -0.01117577776312828,
          "3": -0.18827776610851288
        }
      },
      "13": {
        "bias": -0.18431751430034637,
        "weights": {
          "0": -0.06989511847496033,
          "1": -0.12925755977630615,
          "2": 0.102867990732193,
          "3": 0.05788704752922058
        }
      },
      "14": {
        "bias": -0.09114222228527069,
        "weights": {
          "0": 0.19365647435188293,
          "1": 0.031616296619176865,
          "2": -0.18859541416168213,
          "3": -0.03664827346801758
        }
      },
      "15": {
        "bias": 0.10389894247055054,
        "weights": {
          "0": -0.14756077527999878,
          "1": -0.016657577827572823,
          "2": 0.0690760686993599,
          "3": 0.14783453941345215
        }
      },
      "16": {
        "bias": -0.1955062597990036,
        "weights": {
          "0": 0.08542470633983612,
          "1": 0.020250506699085236,
          "2": 0.13768452405929565,
          "3": 0.11562811583280563
        }
      },
      "17": {
        "bias": -0.09615494310855865,
        "weights": {
          "0": 0.02605336718261242,
          "1": -0.10904024541378021,
          "2": -0.10982100665569305,
          "3": 0.11345084756612778
        }
      },
      "18": {
        "bias": -0.026408573612570763,
        "weights": {
          "0": 0.11542607098817825,
          "1": 0.0425049364566803,
          "2": -0.14663250744342804,
          "3": -0.12634946405887604
        }
      },
      "19": {
        "bias": -0.13717782497406006,
        "weights": {
          "0": -0.04475272074341774,
          "1": -0.1509576141834259,
          "2": 0.0287677850574255,
          "3": -0.09341297298669815
        }
      },
      "20": {
        "bias": 0.0901402160525322,
        "weights": {
          "0": 0.13910451531410217,
          "1": 0.10387428104877472,
          "2": -0.18292266130447388,
          "3": 0.16139692068099976
        }
      },
      "21": {
        "bias": -0.0475890189409256,
        "weights": {
          "0": 0.06606026738882065,
          "1": -0.13603848218917847,
          "2": -0.0662911981344223,
          "3": 0.10663259774446487
        }
      },
      "22": {
        "bias": -0.1403338462114334,
        "weights": {
          "0": -0.1908545196056366,
          "1": -0.1108555793762207,
          "2": -0.039082128554582596,
          "3": 0.07732328772544861
        }
      },
      "23": {
        "bias": 0.11377735435962677,
        "weights": {
          "0": 0.12857671082019806,
          "1": 0.07219428569078445,
          "2": -0.17553658783435822,
          "3": 0.13304920494556427
        }
      },
      "24": {
        "bias": 0.05748969316482544,
        "weights": {
          "0": -0.13373638689517975,
          "1": -0.17355407774448395,
          "2": -0.12990422546863556,
          "3": 0.16452524065971375
        }
      },
      "25": {
        "bias": 0.16595996916294098,
        "weights": {
          "0": -0.028321757912635803,
          "1": 0.15779590606689453,
          "2": 0.08197733014822006,
          "3": 0.0975869819521904
        }
      },
      "26": {
        "bias": -0.07703927904367447,
        "weights": {
          "0": 0.1136050671339035,
          "1": -0.04349520802497864,
          "2": 0.18120472133159637,
          "3": 0.08952678740024567
        }
      },
      "27": {
        "bias": 0.2210775911808014,
        "weights": {
          "0": -0.17378711700439453,
          "1": 0.01908334530889988,
          "2": -0.04682738706469536,
          "3": 0.09002924710512161
        }
      },
      "28": {
        "bias": -0.04596645385026932,
        "weights": {
          "0": -0.18555469810962677,
          "1": 0.19739121198654175,
          "2": 0.29418477416038513,
          "3": 0.07352077215909958
        }
      },
      "29": {
        "bias": 0.10576742887496948,
        "weights": {
          "0": 0.14352072775363922,
          "1": 0.03562984988093376,
          "2": -0.1632109433412552,
          "3": 0.1480756402015686
        }
      },
      "30": {
        "bias": -0.20024374127388,
        "weights": {
          "0": -0.18215809762477875,
          "1": -0.05706861987709999,
          "2": 0.32497578859329224,
          "3": 0.16515807807445526
        }
      }
    },
    {
      "0": {
        "bias": -0.17110300064086914,
        "weights": {
          "0": 0.14752140641212463,
          "1": -0.07076073437929153,
          "2": -0.10060440748929977,
          "3": 0.1089344322681427,
          "4": 0.16860584914684296,
          "5": 0.1083715409040451,
          "6": 0.18869446218013763,
          "7": -0.15671968460083008,
          "8": -0.11619644612073898,
          "9": 0.09125407040119171,
          "10": -0.17991797626018524,
          "11": -0.016698896884918213,
          "12": 0.15945637226104736,
          "13": -0.0411372184753418,
          "14": 0.003467369358986616,
          "15": -0.19245357811450958,
          "16": 0.04615851119160652,
          "17": -0.08144670724868774,
          "18": 0.002178637543693185,
          "19": -0.04157935827970505,
          "20": 0.12724219262599945,
          "21": -0.0868590846657753,
          "22": 0.13918863236904144,
          "23": -0.018305448815226555,
          "24": 0.18892976641654968,
          "25": -0.0007749581709504128,
          "26": 0.09781114012002945,
          "27": 0.055753108114004135,
          "28": -0.019503047689795494,
          "29": 0.042973343282938004,
          "30": -0.14691811800003052
        }
      },
      "1": {
        "bias": 0.4243216812610626,
        "weights": {
          "0": 0.1789398044347763,
          "1": -0.056884896010160446,
          "2": 0.1993599385023117,
          "3": -0.044542375952005386,
          "4": -0.031098514795303345,
          "5": -0.019794797524809837,
          "6": -0.1657300591468811,
          "7": -0.11765643209218979,
          "8": 0.1986224204301834,
          "9": -0.17544697225093842,
          "10": -0.07609951496124268,
          "11": 0.0850185677409172,
          "12": -0.10666123777627945,
          "13": 0.061770644038915634,
          "14": 0.1254880130290985,
          "15": 0.10387326776981354,
          "16": -0.09132510423660278,
          "17": -0.1131015419960022,
          "18": 0.06594956666231155,
          "19": 0.18700899183750153,
          "20": -0.02940347045660019,
          "21": 0.14931151270866394,
          "22": 0.0773516595363617,
          "23": -0.14933164417743683,
          "24": -0.12056266516447067,
          "25": 0.21833203732967377,
          "26": -0.1477736383676529,
          "27": 0.10964891314506531,
          "28": 0.03519877791404724,
          "29": 0.014089178293943405,
          "30": -0.13829290866851807
        }
      },
      "2": {
        "bias": -0.01896779239177704,
        "weights": {
          "0": 0.00946617778390646,
          "1": -0.041958678513765335,
          "2": -0.06613918393850327,
          "3": 0.028339415788650513,
          "4": -0.0860859602689743,
          "5": -0.019720712676644325,
          "6": 0.07061474770307541,
          "7": 0.17065821588039398,
          "8": 0.15006530284881592,
          "9": 0.035473231226205826,
          "10": 0.006136081647127867,
          "11": -0.1845961958169937,
          "12": 0.14454708993434906,
          "13": 0.058319684118032455,
          "14": -0.032135818153619766,
          "15": 0.10587006062269211,
          "16": -0.19046078622341156,
          "17": -0.05512544512748718,
          "18": 0.11904409527778625,
          "19": -0.19998380541801453,
          "20": 0.09214083850383759,
          "21": -0.026859864592552185,
          "22": -0.06643150001764297,
          "23": -0.05524652451276779,
          "24": -0.04936092346906662,
          "25": -0.19913390278816223,
          "26": 0.09111503511667252,
          "27": -0.030945785343647003,
          "28": -0.006808153353631496,
          "29": 0.0828908234834671,
          "30": 0.1286209225654602
        }
      },
      "3": {
        "bias": -0.020026491954922676,
        "weights": {
          "0": -0.05663732439279556,
          "1": -0.10282617062330246,
          "2": 0.07997352629899979,
          "3": -0.0907723531126976,
          "4": -0.19101762771606445,
          "5": -0.11259577423334122,
          "6": 0.08691656589508057,
          "7": -0.19308800995349884,
          "8": 0.07611705362796783,
          "9": -0.00023122821585275233,
          "10": 0.0962035208940506,
          "11": 0.16130350530147552,
          "12": 0.12093284726142883,
          "13": -0.03728078678250313,
          "14": 0.10125810652971268,
          "15": -0.17437218129634857,
          "16": 0.03584252670407295,
          "17": 0.0929337590932846,
          "18": -0.11300425231456757,
          "19": 0.15434901416301727,
          "20": -0.03845544531941414,
          "21": -0.0690942332148552,
          "22": 0.11342702060937881,
          "23": -0.04245947301387787,
          "24": 0.07257917523384094,
          "25": -0.08674740046262741,
          "26": -0.1646471470594406,
          "27": 0.0827309861779213,
          "28": 0.05797751247882843,
          "29": -0.12679773569107056,
          "30": -0.03081698901951313
        }
      },
      "4": {
        "bias": -0.03855470195412636,
        "weights": {
          "0": -0.19484509527683258,
          "1": -0.07564404606819153,
          "2": -0.04192576929926872,
          "3": -0.05595815181732178,
          "4": -0.07948272675275803,
          "5": -0.08292773365974426,
          "6": 0.007488084491342306,
          "7": -0.10240419209003448,
          "8": -0.1434916853904724,
          "9": 0.12641070783138275,
          "10": 0.18297618627548218,
          "11": 0.1874440312385559,
          "12": 0.015314079821109772,
          "13": -0.08497408777475357,
          "14": 0.015842212364077568,
          "15": 0.18201172351837158,
          "16": -0.08456095308065414,
          "17": -0.09609665721654892,
          "18": 0.10832732915878296,
          "19": -0.05582457408308983,
          "20": 0.08845275640487671,
          "21": 0.07899715006351471,
          "22": -0.11996253579854965,
          "23": 0.017318135127425194,
          "24": 0.006749392952769995,
          "25": 0.09557615220546722,
          "26": -0.11677992343902588,
          "27": 0.13553071022033691,
          "28": -0.04405386373400688,
          "29": -0.020318293944001198,
          "30": -0.14939826726913452
        }
      },
      "5": {
        "bias": 0.14380177855491638,
        "weights": {
          "0": -0.1604795753955841,
          "1": -0.0856541246175766,
          "2": 0.048228420317173004,
          "3": -0.11744862794876099,
          "4": 0.1999283879995346,
          "5": 0.05865410342812538,
          "6": 0.0848173126578331,
          "7": 0.02549159713089466,
          "8": 0.0006867320626042783,
          "9": -0.18412157893180847,
          "10": -0.15997694432735443,
          "11": -0.019548926502466202,
          "12": -0.10599373281002045,
          "13": 0.06094316765666008,
          "14": 0.17628532648086548,
          "15": 0.04124491289258003,
          "16": 0.12949198484420776,
          "17": -0.10189297795295715,
          "18": -0.16524691879749298,
          "19": -0.08308836072683334,
          "20": -0.17584536969661713,
          "21": 0.06654290854930878,
          "22": -0.19111086428165436,
          "23": -0.12034421414136887,
          "24": -0.1288914829492569,
          "25": -0.07942391186952591,
          "26": -0.15881489217281342,
          "27": -0.16768807172775269,
          "28": -0.18279600143432617,
          "29": 0.1947437971830368,
          "30": 0.14992713928222656
        }
      },
      "6": {
        "bias": -0.0876212790608406,
        "weights": {
          "0": 0.20045043528079987,
          "1": 0.02660960517823696,
          "2": -0.04779123142361641,
          "3": 0.1380489021539688,
          "4": 0.16932961344718933,
          "5": 0.025065993890166283,
          "6": 0.12035129219293594,
          "7": 0.14604488015174866,
          "8": 0.10094965249300003,
          "9": -0.104737289249897,
          "10": 0.1776268035173416,
          "11": -0.16169223189353943,
          "12": -0.1289268136024475,
          "13": -0.06636137515306473,
          "14": -0.19676803052425385,
          "15": 0.2035788595676422,
          "16": 0.21448065340518951,
          "17": 0.01765925996005535,
          "18": -0.184063121676445,
          "19": 0.010353545658290386,
          "20": 0.17841368913650513,
          "21": 0.17379339039325714,
          "22": 0.07133439183235168,
          "23": 0.04894357919692993,
          "24": 0.19220556318759918,
          "25": 0.14360670745372772,
          "26": 0.02876112423837185,
          "27": -0.191520556807518,
          "28": 0.18353688716888428,
          "29": 0.13112454116344452,
          "30": -0.012060821056365967
        }
      },
      "7": {
        "bias": 0.2845773696899414,
        "weights": {
          "0": 0.12985341250896454,
          "1": -0.09125043451786041,
          "2": 0.09874842315912247,
          "3": -0.03913293033838272,
          "4": -0.12891355156898499,
          "5": -0.15960104763507843,
          "6": -0.018247826024889946,
          "7": -0.1488509625196457,
          "8": -0.06534894555807114,
          "9": -0.07399792969226837,
          "10": 0.17898286879062653,
          "11": 0.09821095317602158,
          "12": 0.04026278480887413,
          "13": -0.186546191573143,
          "14": -0.1995866447687149,
          "15": 0.21178172528743744,
          "16": -0.17087891697883606,
          "17": 0.004118941258639097,
          "18": 0.14408685266971588,
          "19": -0.048926714807748795,
          "20": 0.02596454694867134,
          "21": -0.0146209467202425,
          "22": 0.17830176651477814,
          "23": -0.07217015326023102,
          "24": -0.14941836893558502,
          "25": 0.07268011569976807,
          "26": 0.16002532839775085,
          "27": -0.12479956448078156,
          "28": 0.13146229088306427,
          "29": 0.1468389481306076,
          "30": -0.0852518156170845
        }
      },
      "8": {
        "bias": 0.009335891343653202,
        "weights": {
          "0": 0.06013651564717293,
          "1": -0.11667224764823914,
          "2": 0.13994862139225006,
          "3": -0.164332777261734,
          "4": -0.015276874415576458,
          "5": 0.12544754147529602,
          "6": 0.18669192492961884,
          "7": -0.05626175180077553,
          "8": -0.1747477948665619,
          "9": 0.15907429158687592,
          "10": 0.11976360529661179,
          "11": -0.023328091949224472,
          "12": -0.15198776125907898,
          "13": 0.10736797749996185,
          "14": -0.1676746904850006,
          "15": -0.12487168610095978,
          "16": 0.047413669526576996,
          "17": 0.10456778854131699,
          "18": -0.05116591230034828,
          "19": 0.01002378948032856,
          "20": -0.10194031149148941,
          "21": -0.06062937527894974,
          "22": 0.17351877689361572,
          "23": 0.10469254851341248,
          "24": 0.1096048504114151,
          "25": 0.1825597733259201,
          "26": -0.15967124700546265,
          "27": -0.0931696891784668,
          "28": -0.180573970079422,
          "29": -0.11521779745817184,
          "30": 0.048569899052381516
        }
      },
      "9": {
        "bias": 0.2099321037530899,
        "weights": {
          "0": 0.19030316174030304,
          "1": -0.17991042137145996,
          "2": 0.17422661185264587,
          "3": -0.19539959728717804,
          "4": -0.1639857441186905,
          "5": 0.024077653884887695,
          "6": -0.10703202337026596,
          "7": 0.008267930708825588,
          "8": 0.286467969417572,
          "9": -0.12672801315784454,
          "10": 0.0870596319437027,
          "11": -0.07423283904790878,
          "12": -0.11979333311319351,
          "13": 0.14273717999458313,
          "14": 0.027564730495214462,
          "15": -0.1026233658194542,
          "16": 0.010155555792152882,
          "17": -0.19897562265396118,
          "18": 0.1908138394355774,
          "19": -0.04862367361783981,
          "20": 0.015723012387752533,
          "21": -0.057676807045936584,
          "22": -0.06521918624639511,
          "23": -0.16609390079975128,
          "24": 0.1777602583169937,
          "25": 0.17216162383556366,
          "26": -0.1253201812505722,
          "27": 0.12635259330272675,
          "28": -0.05004443600773811,
          "29": -0.020429324358701706,
          "30": -0.12525704503059387
        }
      },
      "10": {
        "bias": -0.13569602370262146,
        "weights": {
          "0": -0.01082547102123499,
          "1": 0.028291920199990273,
          "2": 0.03467585891485214,
          "3": 0.0715162605047226,
          "4": 0.003874288871884346,
          "5": 0.14149951934814453,
          "6": -0.020706502720713615,
          "7": -0.08889880776405334,
          "8": 0.10804051905870438,
          "9": 0.17137734591960907,
          "10": -0.08025071769952774,
          "11": -0.15415368974208832,
          "12": -0.1473025530576706,
          "13": -0.1321067363023758,
          "14": 0.10064481943845749,
          "15": 0.057309262454509735,
          "16": -0.007823461666703224,
          "17": -0.12982086837291718,
          "18": 0.16012929379940033,
          "19": -0.16090527176856995,
          "20": -0.16908474266529083,
          "21": -0.16879504919052124,
          "22": -0.1114126592874527,
          "23": 0.17285288870334625,
          "24": -0.12411165982484818,
          "25": -0.10734181851148605,
          "26": -0.18977531790733337,
          "27": -0.13380460441112518,
          "28": 0.07603328675031662,
          "29": -0.18369853496551514,
          "30": -0.09261932224035263
        }
      },
      "11": {
        "bias": -0.0557437427341938,
        "weights": {
          "0": -0.02375277318060398,
          "1": -0.1878252476453781,
          "2": 0.16643817722797394,
          "3": -0.13277259469032288,
          "4": 0.01103516947478056,
          "5": -0.18042322993278503,
          "6": -0.1880026012659073,
          "7": 0.046696022152900696,
          "8": 0.018087437376379967,
          "9": -0.09697149693965912,
          "10": -0.03374263644218445,
          "11": -0.04684842750430107,
          "12": -0.11597193777561188,
          "13": -0.07117490470409393,
          "14": -0.01958412677049637,
          "15": 0.11515282839536667,
          "16": 0.05729671195149422,
          "17": 0.1437351554632187,
          "18": 0.11106866598129272,
          "19": -0.11842011660337448,
          "20": -0.19348359107971191,
          "21": -0.16812032461166382,
          "22": 0.03166935592889786,
          "23": -0.06988836079835892,
          "24": 0.18204103410243988,
          "25": -0.15077315270900726,
          "26": 0.01771480403840542,
          "27": 0.028968431055545807,
          "28": -0.15649238228797913,
          "29": -0.03367000073194504,
          "30": 0.1989985704421997
        }
      },
      "12": {
        "bias": -0.09408187121152878,
        "weights": {
          "0": 0.1140512153506279,
          "1": 0.019315334036946297,
          "2": -0.14248080551624298,
          "3": -0.17835237085819244,
          "4": 0.09678614884614944,
          "5": 0.07224884629249573,
          "6": -0.14821261167526245,
          "7": -0.14914385974407196,
          "8": -0.034227970987558365,
          "9": 0.019844520837068558,
          "10": -0.08579117059707642,
          "11": -0.13720642030239105,
          "12": -0.15992100536823273,
          "13": -0.15052852034568787,
          "14": -0.07127001881599426,
          "15": -0.061813779175281525,
          "16": -0.12164844572544098,
          "17": -0.017755597829818726,
          "18": -0.12058231979608536,
          "19": -0.031321946531534195,
          "20": -0.06261786818504333,
          "21": -0.11007208377122879,
          "22": -0.03076753579080105,
          "23": 0.17724083364009857,
          "24": -0.10516387969255447,
          "25": -0.09668771922588348,
          "26": 0.14352864027023315,
          "27": 0.04051699489355087,
          "28": -0.11729853600263596,
          "29": -0.06100321188569069,
          "30": -0.06854504346847534
        }
      },
      "13": {
        "bias": -0.18699459731578827,
        "weights": {
          "0": -0.052460987120866776,
          "1": 0.20476065576076508,
          "2": -0.15557155013084412,
          "3": 0.011517851613461971,
          "4": 0.2255639135837555,
          "5": 0.16276787221431732,
          "6": -0.13607382774353027,
          "7": 0.1164330467581749,
          "8": -0.16978000104427338,
          "9": 0.20516429841518402,
          "10": 0.0032467676792293787,
          "11": 0.16900213062763214,
          "12": -0.135992169380188,
          "13": 0.204310804605484,
          "14": -0.02119532972574234,
          "15": 0.057826220989227295,
          "16": -0.09679434448480606,
          "17": 0.18821993470191956,
          "18": 0.18574658036231995,
          "19": -0.14090639352798462,
          "20": 0.16443587839603424,
          "21": 0.1704089194536209,
          "22": 0.03835995867848396,
          "23": 0.11633428186178207,
          "24": -0.02987450361251831,
          "25": 0.1340566873550415,
          "26": 0.07544583827257156,
          "27": -0.062018513679504395,
          "28": 0.2311430722475052,
          "29": 0.17553821206092834,
          "30": -0.07945238053798676
        }
      },
      "14": {
        "bias": -0.15019062161445618,
        "weights": {
          "0": -0.042822565883398056,
          "1": 0.046529620885849,
          "2": -0.0254557803273201,
          "3": -0.0006880508735775948,
          "4": 0.038547586649656296,
          "5": 0.11628056317567825,
          "6": -0.057477425783872604,
          "7": -0.05129319056868553,
          "8": 0.10140537470579147,
          "9": 0.14185664057731628,
          "10": -0.06087592616677284,
          "11": 0.039348844438791275,
          "12": -0.03850995749235153,
          "13": 0.09133893251419067,
          "14": 0.018543260172009468,
          "15": 0.046468622982501984,
          "16": 0.04694097116589546,
          "17": 0.0026227240450680256,
          "18": 0.1922784298658371,
          "19": 0.19070188701152802,
          "20": -0.1587778478860855,
          "21": 0.0034796420950442553,
          "22": -0.02755308337509632,
          "23": -0.1474655270576477,
          "24": -0.042291443794965744,
          "25": -0.06880144774913788,
          "26": 0.10404891520738602,
          "27": 0.08575835824012756,
          "28": -0.14692862331867218,
          "29": 0.03132748603820801,
          "30": -0.13689400255680084
        }
      },
      "15": {
        "bias": -0.34779882431030273,
        "weights": {
          "0": 0.04312404245138168,
          "1": 0.12102341651916504,
          "2": -0.03733028471469879,
          "3": 0.12133911997079849,
          "4": 0.19009454548358917,
          "5": 0.1738806962966919,
          "6": 0.1422114372253418,
          "7": 0.14429672062397003,
          "8": 0.04448536038398743,
          "9": -0.06281355023384094,
          "10": -0.15119709074497223,
          "11": -0.183691143989563,
          "12": -0.10784463584423065,
          "13": -0.13699330389499664,
          "14": -0.026189882308244705,
          "15": 0.1610751748085022,
          "16": 0.23065055906772614,
          "17": -0.182254359126091,
          "18": 0.038788482546806335,
          "19": 0.15849289298057556,
          "20": -0.15807612240314484,
          "21": 0.10547815263271332,
          "22": -0.10387258976697922,
          "23": -0.10076943784952164,
          "24": 0.14909180998802185,
          "25": -0.06656064838171005,
          "26": 0.17215830087661743,
          "27": 0.10523827373981476,
          "28": -0.13511647284030914,
          "29": -0.07009340822696686,
          "30": -0.08600544929504395
        }
      },
      "16": {
        "bias": -0.12549597024917603,
        "weights": {
          "0": -0.18536263704299927,
          "1": 0.09241030365228653,
          "2": -0.12508535385131836,
          "3": 0.14531832933425903,
          "4": 0.19739924371242523,
          "5": -0.11704874038696289,
          "6": -0.02936137095093727,
          "7": -0.09679540991783142,
          "8": -0.25536128878593445,
          "9": 0.15889549255371094,
          "10": -0.03311644122004509,
          "11": 0.008885577321052551,
          "12": 0.1685350388288498,
          "13": -0.1309811770915985,
          "14": -0.1614360362291336,
          "15": -0.19365759193897247,
          "16": -0.12062454968690872,
          "17": 0.025338435545563698,
          "18": -0.16595618426799774,
          "19": 0.017007820308208466,
          "20": -0.13834227621555328,
          "21": 0.19535519182682037,
          "22": 0.19742809236049652,
          "23": 0.004618693143129349,
          "24": 0.06487230211496353,
          "25": 0.10303162038326263,
          "26": 0.20317740738391876,
          "27": 0.1351212114095688,
          "28": 0.23738108575344086,
          "29": -0.01898394338786602,
          "30": 0.24987514317035675
        }
      },
      "17": {
        "bias": -0.08607302606105804,
        "weights": {
          "0": -0.08081965893507004,
          "1": -0.06533674895763397,
          "2": -0.1943780779838562,
          "3": -0.10008733719587326,
          "4": 0.01943591609597206,
          "5": -0.05492100864648819,
          "6": 0.10757976025342941,
          "7": 0.1394423097372055,
          "8": 0.07321646809577942,
          "9": -0.01903972588479519,
          "10": 0.1346183866262436,
          "11": -0.14612433314323425,
          "12": -0.08442841470241547,
          "13": 0.03903751075267792,
          "14": -0.18234378099441528,
          "15": -0.03222527727484703,
          "16": 0.1252926141023636,
          "17": 0.11263448745012283,
          "18": -0.12878760695457458,
          "19": -0.07162701338529587,
          "20": 0.13391359150409698,
          "21": -0.08979884535074234,
          "22": 0.07487255334854126,
          "23": 0.10552974790334702,
          "24": -0.1318998634815216,
          "25": 0.19940690696239471,
          "26": 0.05040008947253227,
          "27": -0.06279349327087402,
          "28": -0.1070265844464302,
          "29": -0.002850815188139677,
          "30": -0.1807563602924347
        }
      },
      "18": {
        "bias": -0.11887379735708237,
        "weights": {
          "0": 0.11542104184627533,
          "1": 0.07481109350919724,
          "2": 0.016132112592458725,
          "3": -0.11873359233140945,
          "4": -0.06532974541187286,
          "5": -0.04133176803588867,
          "6": 0.045259032398462296,
          "7": 0.14388394355773926,
          "8": -0.0010575181804597378,
          "9": 0.09463730454444885,
          "10": 0.10015907138586044,
          "11": -0.12596705555915833,
          "12": 0.18361321091651917,
          "13": -0.1626870185136795,
          "14": 0.10935226082801819,
          "15": 0.13165783882141113,
          "16": -0.0890253409743309,
          "17": -0.0860631987452507,
          "18": 0.02342846430838108,
          "19": -0.018646636977791786,
          "20": 0.019809458404779434,
          "21": -0.043582793325185776,
          "22": -0.16331982612609863,
          "23": -0.18580429255962372,
          "24": -0.11202205717563629,
          "25": -0.07852117717266083,
          "26": 0.08720539510250092,
          "27": 0.17426429688930511,
          "28": -0.12734611332416534,
          "29": 0.03073994256556034,
          "30": -0.07749877125024796
        }
      },
      "19": {
        "bias": -0.15291553735733032,
        "weights": {
          "0": 0.11714641004800797,
          "1": 0.20709390938282013,
          "2": 0.08568926155567169,
          "3": 0.19440814852714539,
          "4": 0.14389437437057495,
          "5": 0.18258117139339447,
          "6": -0.06298193335533142,
          "7": 0.017161479219794273,
          "8": 0.04033666104078293,
          "9": 0.05639806017279625,
          "10": -0.030080491676926613,
          "11": -0.09804528951644897,
          "12": -0.07853731513023376,
          "13": -0.04583170264959335,
          "14": -0.19699324667453766,
          "15": 0.13313154876232147,
          "16": 0.0405595637857914,
          "17": 0.008960734121501446,
          "18": 0.06935726851224899,
          "19": 0.1704968363046646,
          "20": 0.03831738233566284,
          "21": 0.19739849865436554,
          "22": 0.10506189614534378,
          "23": 0.0013436384033411741,
          "24": -0.02810448408126831,
          "25": 0.11602330207824707,
          "26": 0.0424632653594017,
          "27": -0.19429759681224823,
          "28": 0.10695201903581619,
          "29": -0.02760413847863674,
          "30": 0.10916031897068024
        }
      },
      "20": {
        "bias": 0.03633018583059311,
        "weights": {
          "0": 0.0999196246266365,
          "1": 0.06269557029008865,
          "2": 0.14455430209636688,
          "3": -0.010704195126891136,
          "4": 0.1906185895204544,
          "5": 0.06254718452692032,
          "6": -0.05584707111120224,
          "7": 0.07171738147735596,
          "8": -0.22863683104515076,
          "9": -0.034042321145534515,
          "10": 0.1901695281267166,
          "11": -0.14934983849525452,
          "12": 0.17555861175060272,
          "13": 0.15629389882087708,
          "14": -0.15364673733711243,
          "15": -0.03246278688311577,
          "16": 0.11993099749088287,
          "17": 0.052109599113464355,
          "18": 0.05420202016830444,
          "19": -0.15487411618232727,
          "20": 0.18733112514019012,
          "21": 0.18089719116687775,
          "22": -0.18161268532276154,
          "23": 0.10104459524154663,
          "24": -0.001581619493663311,
          "25": 0.08236374706029892,
          "26": -0.024330753833055496,
          "27": -0.15889334678649902,
          "28": 0.1739043891429901,
          "29": 0.09627417474985123,
          "30": 0.2518884837627411
        }
      },
      "21": {
        "bias": -0.07040943950414658,
        "weights": {
          "0": -0.10604560375213623,
          "1": -0.0881810411810875,
          "2": 0.12808483839035034,
          "3": -0.1040361076593399,
          "4": -0.007996722124516964,
          "5": -0.15773089230060577,
          "6": 0.07230333238840103,
          "7": -0.09617000073194504,
          "8": 0.19342684745788574,
          "9": 0.05231337994337082,
          "10": 0.16778486967086792,
          "11": 0.07676053047180176,
          "12": -0.02910241112112999,
          "13": -0.035400260239839554,
          "14": 0.1839417964220047,
          "15": -0.13156872987747192,
          "16": -0.18078504502773285,
          "17": 0.18827952444553375,
          "18": -0.08386632055044174,
          "19": -0.14385463297367096,
          "20": -0.04833478853106499,
          "21": 0.06044730544090271,
          "22": -0.06627476215362549,
          "23": -0.12530575692653656,
          "24": -0.006808995734900236,
          "25": 0.018159860745072365,
          "26": -0.03309614211320877,
          "27": -0.10099659860134125,
          "28": 0.009086837992072105,
          "29": 0.13719770312309265,
          "30": 0.12395055592060089
        }
      },
      "22": {
        "bias": 0.05249606445431709,
        "weights": {
          "0": 0.030834518373012543,
          "1": 0.12787479162216187,
          "2": -0.16372062265872955,
          "3": 0.023893218487501144,
          "4": -0.03089950419962406,
          "5": -0.0356091633439064,
          "6": -0.1602688431739807,
          "7": 0.1042875275015831,
          "8": 0.1307285875082016,
          "9": 0.07978932559490204,
          "10": 0.03928966075181961,
          "11": 0.11894186586141586,
          "12": -0.0023674953263252974,
          "13": -0.0702156126499176,
          "14": 0.07745082676410675,
          "15": -0.14180567860603333,
          "16": 0.13809816539287567,
          "17": 0.13048158586025238,
          "18": -0.12812089920043945,
          "19": 0.07872801274061203,
          "20": -0.10167180746793747,
          "21": 0.15305392444133759,
          "22": -0.16116920113563538,
          "23": -0.0054916758090257645,
          "24": 0.07506668567657471,
          "25": -0.06287232041358948,
          "26": 0.05684128776192665,
          "27": -0.10269902646541595,
          "28": 0.01998443715274334,
          "29": -0.09095809608697891,
          "30": -0.03489596024155617
        }
      },
      "23": {
        "bias": -0.08394681662321091,
        "weights": {
          "0": -0.18813182413578033,
          "1": 0.1335945725440979,
          "2": 0.09315340220928192,
          "3": -0.045735739171504974,
          "4": 0.07229340076446533,
          "5": 0.10958743095397949,
          "6": 0.10149434208869934,
          "7": -0.13978323340415955,
          "8": -0.010753410868346691,
          "9": -0.09508924186229706,
          "10": 0.1982921063899994,
          "11": -0.012499677017331123,
          "12": -0.05703354626893997,
          "13": -0.10975951701402664,
          "14": -0.051450956612825394,
          "15": -0.1649606078863144,
          "16": -0.07240953296422958,
          "17": -0.1345921754837036,
          "18": 0.1754862517118454,
          "19": 0.14922618865966797,
          "20": -0.13220778107643127,
          "21": 0.05396687239408493,
          "22": -0.05816980078816414,
          "23": 0.17570161819458008,
          "24": 0.10621582716703415,
          "25": 0.041767388582229614,
          "26": 0.001373856095597148,
          "27": -0.0011551191564649343,
          "28": -0.0372111052274704,
          "29": -0.19339551031589508,
          "30": -0.1678435504436493
        }
      }
    },
    {
      "0": {
        "bias": -0.21046823263168335,
        "weights": {
          "0": -0.19982804358005524,
          "1": -0.21365733444690704,
          "2": -0.09007528424263,
          "3": -0.09882211685180664,
          "4": -0.15510281920433044,
          "5": 0.16827230155467987,
          "6": -0.11856485158205032,
          "7": -0.1386300027370453,
          "8": 0.10078839212656021,
          "9": 0.049814432859420776,
          "10": -0.12561820447444916,
          "11": 0.009278688579797745,
          "12": -0.1945549100637436,
          "13": 0.18760676681995392,
          "14": -0.004575653001666069,
          "15": 0.10569215565919876,
          "16": 0.07993233948945999,
          "17": -0.017546484246850014,
          "18": -0.05540602654218674,
          "19": 0.14999476075172424,
          "20": 0.02710658311843872,
          "21": -0.1794520616531372,
          "22": 0.003764023771509528,
          "23": -0.0660250261425972
        }
      },
      "1": {
        "bias": 0.18561139702796936,
        "weights": {
          "0": -0.1315957009792328,
          "1": 0.11853022128343582,
          "2": 0.1493740677833557,
          "3": -0.04222824051976204,
          "4": 0.08249756693840027,
          "5": -0.0584312342107296,
          "6": -0.23976169526576996,
          "7": 0.19558145105838776,
          "8": -0.03735211864113808,
          "9": 0.26180770993232727,
          "10": -0.008606009185314178,
          "11": -0.16460439562797546,
          "12": -0.057231415063142776,
          "13": -0.052794553339481354,
          "14": -0.1458263099193573,
          "15": 0.06088418886065483,
          "16": -0.23154877126216888,
          "17": -0.1660645604133606,
          "18": -0.12441132962703705,
          "19": -0.220386803150177,
          "20": -0.3053554892539978,
          "21": -0.05217207595705986,
          "22": 0.13742898404598236,
          "23": 0.07984733581542969
        }
      },
      "2": {
        "bias": -0.015932155773043633,
        "weights": {
          "0": -0.06693954020738602,
          "1": -0.10069025307893753,
          "2": -0.148071750998497,
          "3": -0.17336364090442657,
          "4": -0.11038341373205185,
          "5": 0.13549476861953735,
          "6": -0.11316563934087753,
          "7": -0.05142853409051895,
          "8": -0.023769088089466095,
          "9": -0.048234399408102036,
          "10": 0.11041039973497391,
          "11": -0.11321594566106796,
          "12": 0.04021603614091873,
          "13": -0.12132578343153,
          "14": 0.08633103966712952,
          "15": -0.010882804170250893,
          "16": 0.15925681591033936,
          "17": 0.1861114203929901,
          "18": 0.07191680371761322,
          "19": -0.009527210146188736,
          "20": 0.18067675828933716,
          "21": -0.149880051612854,
          "22": -0.02881704829633236,
          "23": -0.17877258360385895
        }
      },
      "3": {
        "bias": -0.041725486516952515,
        "weights": {
          "0": 0.06840141862630844,
          "1": 0.18112696707248688,
          "2": -0.04778159782290459,
          "3": -0.16906554996967316,
          "4": -0.031848400831222534,
          "5": -0.19944706559181213,
          "6": -0.1740550845861435,
          "7": -0.03362025320529938,
          "8": -0.07650589197874069,
          "9": -0.126256063580513,
          "10": 0.027086999267339706,
          "11": -0.18701249361038208,
          "12": -0.04153051599860191,
          "13": -0.17237073183059692,
          "14": -0.05466889590024948,
          "15": -0.02447723224759102,
          "16": -0.022655747830867767,
          "17": 0.17602457106113434,
          "18": 0.12445627897977829,
          "19": -0.10435205698013306,
          "20": 0.07618481665849686,
          "21": 0.03666115179657936,
          "22": -0.14673607051372528,
          "23": -0.13947832584381104
        }
      },
      "4": {
        "bias": 0.047432318329811096,
        "weights": {
          "0": -0.1537831723690033,
          "1": -0.24893800914287567,
          "2": 0.04272334650158882,
          "3": -0.18169629573822021,
          "4": -0.09220348298549652,
          "5": -0.007344783749431372,
          "6": 0.14360098540782928,
          "7": 0.07221557945013046,
          "8": -0.042454030364751816,
          "9": -0.020481819286942482,
          "10": -0.13613274693489075,
          "11": 0.11584112793207169,
          "12": -0.09505044668912888,
          "13": 0.10674616694450378,
          "14": -0.12365370243787766,
          "15": 0.08685360103845596,
          "16": -0.023694656789302826,
          "17": 0.17162905633449554,
          "18": -0.012694170698523521,
          "19": 0.09614655375480652,
          "20": -0.09022399038076401,
          "21": 0.19757230579853058,
          "22": 0.014634335413575172,
          "23": 0.06573418527841568
        }
      },
      "5": {
        "bias": -0.00000420256401412189,
        "weights": {
          "0": -0.1817539632320404,
          "1": 0.033362582325935364,
          "2": 0.02479519695043564,
          "3": 0.053806763142347336,
          "4": 0.06214108690619469,
          "5": 0.0637342780828476,
          "6": 0.13038520514965057,
          "7": -0.07582224160432816,
          "8": 0.06880147010087967,
          "9": 0.21267203986644745,
          "10": 0.12684515118598938,
          "11": -0.0682872086763382,
          "12": 0.13981378078460693,
          "13": -0.10224464535713196,
          "14": 0.19366146624088287,
          "15": -0.03142014890909195,
          "16": 0.08928587287664413,
          "17": 0.1906651109457016,
          "18": 0.01718324050307274,
          "19": 0.14500045776367188,
          "20": -0.10019592940807343,
          "21": 0.09424048662185669,
          "22": -0.19639573991298676,
          "23": 0.07821369171142578
        }
      },
      "6": {
        "bias": 0.03752884268760681,
        "weights": {
          "0": -0.08707451820373535,
          "1": -0.1976548135280609,
          "2": 0.13061508536338806,
          "3": 0.17102771997451782,
          "4": -0.12451037764549255,
          "5": -0.10983014851808548,
          "6": 0.16228188574314117,
          "7": -0.23323383927345276,
          "8": 0.04907247796654701,
          "9": 0.03562208265066147,
          "10": 0.17652034759521484,
          "11": -0.16784827411174774,
          "12": 0.05632869154214859,
          "13": -0.04708201438188553,
          "14": -0.010018324479460716,
          "15": 0.03161057457327843,
          "16": -0.048333778977394104,
          "17": 0.09670821577310562,
          "18": 0.17275606095790863,
          "19": -0.11799068748950958,
          "20": 0.09984316676855087,
          "21": -0.07767750322818756,
          "22": -0.02667795494198799,
          "23": 0.003393589286133647
        }
      },
      "7": {
        "bias": 0.08163190633058548,
        "weights": {
          "0": 0.1945601999759674,
          "1": 0.1751386970281601,
          "2": 0.19751200079917908,
          "3": 0.06666266173124313,
          "4": -0.17242391407489777,
          "5": 0.07125832140445709,
          "6": -0.02983582392334938,
          "7": 0.15729229152202606,
          "8": -0.181758314371109,
          "9": 0.1933014839887619,
          "10": 0.008626866154372692,
          "11": -0.11848510801792145,
          "12": -0.01981421746313572,
          "13": -0.1918129324913025,
          "14": -0.10858472436666489,
          "15": 0.08854791522026062,
          "16": 0.10460009425878525,
          "17": 0.004145171493291855,
          "18": -0.1549902707338333,
          "19": 0.12448347359895706,
          "20": -0.04294930770993233,
          "21": -0.004665574058890343,
          "22": 0.10752303153276443,
          "23": 0.16892783343791962
        }
      },
      "8": {
        "bias": 0.03240324184298515,
        "weights": {
          "0": -0.18351978063583374,
          "1": 0.16337473690509796,
          "2": 0.11329203099012375,
          "3": -0.02044491656124592,
          "4": -0.01407826691865921,
          "5": -0.13419848680496216,
          "6": 0.10825194418430328,
          "7": -0.04555908590555191,
          "8": 0.15219150483608246,
          "9": 0.22777055203914642,
          "10": -0.08747810125350952,
          "11": 0.07367492467164993,
          "12": 0.06522318720817566,
          "13": -0.19059722125530243,
          "14": 0.14753000438213348,
          "15": 0.029875408858060837,
          "16": -0.1997499167919159,
          "17": -0.12216556817293167,
          "18": 0.02551669254899025,
          "19": -0.1076890081167221,
          "20": 0.03276075795292854,
          "21": -0.0635993480682373,
          "22": 0.032661374658346176,
          "23": -0.021935103461146355
        }
      },
      "9": {
        "bias": -0.12656286358833313,
        "weights": {
          "0": 0.14833775162696838,
          "1": -0.13930900394916534,
          "2": 0.06604430079460144,
          "3": 0.11915256083011627,
          "4": -0.0918310135602951,
          "5": -0.06853142380714417,
          "6": 0.09326337277889252,
          "7": 0.12552514672279358,
          "8": 0.06154397875070572,
          "9": -0.111756831407547,
          "10": 0.0873260572552681,
          "11": 0.15046541392803192,
          "12": -0.07648053020238876,
          "13": -0.19970236718654633,
          "14": 0.009805716574192047,
          "15": -0.16576635837554932,
          "16": -0.028387023136019707,
          "17": 0.1841367483139038,
          "18": 0.09290046989917755,
          "19": -0.08206243067979813,
          "20": 0.12812863290309906,
          "21": 0.05362783744931221,
          "22": -0.025614827871322632,
          "23": -0.05625569447875023
        }
      },
      "10": {
        "bias": -0.12690995633602142,
        "weights": {
          "0": 0.029189856722950935,
          "1": 0.0016273511573672295,
          "2": -0.17345647513866425,
          "3": 0.1863795518875122,
          "4": -0.0128271309658885,
          "5": -0.06990578025579453,
          "6": 0.10828856378793716,
          "7": 0.03668934851884842,
          "8": -0.07806219905614853,
          "9": 0.11748285591602325,
          "10": 0.10043460130691528,
          "11": -0.1425747275352478,
          "12": -0.18220829963684082,
          "13": 0.0643841028213501,
          "14": -0.03109627775847912,
          "15": -0.08879053592681885,
          "16": 0.15691116452217102,
          "17": 0.0670538917183876,
          "18": 0.1503717303276062,
          "19": 0.10335861891508102,
          "20": -0.19645872712135315,
          "21": -0.16941052675247192,
          "22": -0.12073846161365509,
          "23": -0.17136768996715546
        }
      },
      "11": {
        "bias": -0.19623661041259766,
        "weights": {
          "0": 0.19384980201721191,
          "1": -0.06612955778837204,
          "2": -0.04303685203194618,
          "3": -0.04062698781490326,
          "4": -0.07766388356685638,
          "5": -0.11643843352794647,
          "6": 0.15362341701984406,
          "7": 0.08885671943426132,
          "8": -0.11543601006269455,
          "9": -0.16209666430950165,
          "10": -0.0744231715798378,
          "11": 0.11360976845026016,
          "12": 0.021789364516735077,
          "13": -0.1528085470199585,
          "14": -0.1391419619321823,
          "15": -0.038354139775037766,
          "16": -0.06354855746030807,
          "17": 0.11940960586071014,
          "18": 0.1455956995487213,
          "19": -0.1559298038482666,
          "20": 0.08655393123626709,
          "21": -0.18037506937980652,
          "22": 0.1254611760377884,
          "23": -0.05045139789581299
        }
      },
      "12": {
        "bias": -0.01255724299699068,
        "weights": {
          "0": -0.16932956874370575,
          "1": -0.14787951111793518,
          "2": -0.04476416856050491,
          "3": 0.11050011962652206,
          "4": -0.13985808193683624,
          "5": -0.1972743570804596,
          "6": 0.19948013126850128,
          "7": 0.11610409617424011,
          "8": 0.011572486720979214,
          "9": 0.09415797144174576,
          "10": -0.1620948314666748,
          "11": 0.043911706656217575,
          "12": 0.0006158360047265887,
          "13": -0.05632922425866127,
          "14": -0.16836534440517426,
          "15": 0.2063387781381607,
          "16": 0.16239391267299652,
          "17": -0.1564582735300064,
          "18": 0.18175473809242249,
          "19": -0.15539614856243134,
          "20": -0.09374693781137466,
          "21": -0.060764770954847336,
          "22": 0.16594012081623077,
          "23": 0.16692306101322174
        }
      },
      "13": {
        "bias": 0.20698979496955872,
        "weights": {
          "0": 0.07799233496189117,
          "1": -0.049047987908124924,
          "2": -0.08193136006593704,
          "3": 0.09896665066480637,
          "4": -0.15900282561779022,
          "5": 0.16095300018787384,
          "6": -0.2142510861158371,
          "7": 0.04613279551267624,
          "8": 0.08238877356052399,
          "9": 0.02061382122337818,
          "10": -0.06345684081315994,
          "11": 0.018337663263082504,
          "12": 0.1322803497314453,
          "13": -0.11273125559091568,
          "14": 0.17428724467754364,
          "15": -0.037348706275224686,
          "16": -0.2192717045545578,
          "17": -0.0522061288356781,
          "18": -0.04133214056491852,
          "19": -0.23049160838127136,
          "20": -0.07214862108230591,
          "21": -0.17156121134757996,
          "22": -0.1086428090929985,
          "23": -0.1838361620903015
        }
      },
      "14": {
        "bias": 0.16838553547859192,
        "weights": {
          "0": -0.015712296590209007,
          "1": 0.1827271431684494,
          "2": 0.06464604288339615,
          "3": -0.07454575598239899,
          "4": 0.042109597474336624,
          "5": -0.025203218683600426,
          "6": -0.10068423300981522,
          "7": 0.19565357267856598,
          "8": 0.09141316264867783,
          "9": 0.055550623685121536,
          "10": -0.0007943971431814134,
          "11": 0.1732330322265625,
          "12": 0.04453163221478462,
          "13": 0.0353674553334713,
          "14": -0.09881170094013214,
          "15": -0.10444923490285873,
          "16": 0.021535295993089676,
          "17": 0.1809772551059723,
          "18": -0.053264323621988297,
          "19": 0.038773566484451294,
          "20": -0.12612827122211456,
          "21": -0.04676072672009468,
          "22": -0.002664949744939804,
          "23": -0.089671291410923
        }
      },
      "15": {
        "bias": -0.09589219838380814,
        "weights": {
          "0": -0.19404326379299164,
          "1": -0.062046587467193604,
          "2": -0.0928395688533783,
          "3": -0.01772187277674675,
          "4": 0.006917367223650217,
          "5": 0.015186674892902374,
          "6": 0.14540277421474457,
          "7": -0.08488202095031738,
          "8": 0.15155884623527527,
          "9": -0.00688198721036315,
          "10": 0.16125448048114777,
          "11": -0.014104894362390041,
          "12": -0.035724833607673645,
          "13": 0.07708754390478134,
          "14": 0.0852198377251625,
          "15": 0.04218776896595955,
          "16": 0.18173466622829437,
          "17": 0.07551640272140503,
          "18": 0.10218465328216553,
          "19": 0.14213785529136658,
          "20": 0.03267139568924904,
          "21": -0.0810401439666748,
          "22": 0.05433233454823494,
          "23": 0.14889098703861237
        }
      },
      "16": {
        "bias": 0.14031124114990234,
        "weights": {
          "0": 0.10843838006258011,
          "1": -0.043894894421100616,
          "2": -0.15344716608524323,
          "3": -0.18679779767990112,
          "4": 0.07468079775571823,
          "5": 0.09539217501878738,
          "6": 0.0702437311410904,
          "7": -0.006656826473772526,
          "8": -0.08904880285263062,
          "9": 0.1228351816534996,
          "10": -0.11838061362504959,
          "11": 0.15559105575084686,
          "12": 0.1252964437007904,
          "13": -0.12502476572990417,
          "14": -0.057826291769742966,
          "15": 0.11392152309417725,
          "16": 0.1122579574584961,
          "17": -0.0813497006893158,
          "18": 0.12015177309513092,
          "19": 0.17933636903762817,
          "20": -0.16134801506996155,
          "21": 0.1906992495059967,
          "22": 0.04503903537988663,
          "23": -0.1267077773809433
        }
      },
      "17": {
        "bias": 0.0770038440823555,
        "weights": {
          "0": 0.023369036614894867,
          "1": 0.19379034638404846,
          "2": -0.06156768649816513,
          "3": 0.1830155998468399,
          "4": -0.04532814025878906,
          "5": 0.018550554290413857,
          "6": -0.2182299792766571,
          "7": 0.1333356350660324,
          "8": 0.11531691998243332,
          "9": 0.060792647302150726,
          "10": 0.19778607785701752,
          "11": 0.06306909769773483,
          "12": 0.158807173371315,
          "13": -0.0034720657858997583,
          "14": -0.1397768259048462,
          "15": -0.10542809218168259,
          "16": -0.09893748909235,
          "17": -0.1944715827703476,
          "18": 0.147540882229805,
          "19": -0.22267131507396698,
          "20": -0.19972176849842072,
          "21": 0.19541534781455994,
          "22": 0.016042767092585564,
          "23": 0.12657617032527924
        }
      },
      "18": {
        "bias": 0.07808586210012436,
        "weights": {
          "0": -0.15175989270210266,
          "1": -0.1861056685447693,
          "2": -0.1965019255876541,
          "3": 0.086842380464077,
          "4": 0.12678425014019012,
          "5": -0.11303400248289108,
          "6": 0.05864715576171875,
          "7": 0.11925818026065826,
          "8": -0.19204753637313843,
          "9": -0.1975959837436676,
          "10": -0.06937802582979202,
          "11": -0.19129303097724915,
          "12": -0.03585575893521309,
          "13": 0.013577106408774853,
          "14": -0.13348083198070526,
          "15": 0.12513266503810883,
          "16": 0.11188376694917679,
          "17": -0.07708524912595749,
          "18": -0.12411485612392426,
          "19": 0.10438185185194016,
          "20": 0.1486097276210785,
          "21": 0.17520944774150848,
          "22": -0.1702108532190323,
          "23": 0.11872554570436478
        }
      },
      "19": {
        "bias": -0.06328529864549637,
        "weights": {
          "0": 0.15546733140945435,
          "1": 0.003624121192842722,
          "2": 0.044148825109004974,
          "3": 0.04399731010198593,
          "4": 0.15130209922790527,
          "5": 0.13803483545780182,
          "6": -0.18325550854206085,
          "7": 0.1358465999364853,
          "8": 0.02803613431751728,
          "9": 0.13408860564231873,
          "10": 0.1140948161482811,
          "11": 0.19525760412216187,
          "12": -0.07936789840459824,
          "13": -0.06057057902216911,
          "14": -0.08227498829364777,
          "15": -0.19977669417858124,
          "16": 0.11243555694818497,
          "17": -0.1584773063659668,
          "18": 0.04217487573623657,
          "19": 0.030088715255260468,
          "20": -0.05346593260765076,
          "21": 0.16574116051197052,
          "22": -0.11107441782951355,
          "23": -0.09558703750371933
        }
      },
      "20": {
        "bias": -0.0267854705452919,
        "weights": {
          "0": -0.07074984908103943,
          "1": -0.19334225356578827,
          "2": 0.03834199160337448,
          "3": -0.08178316056728363,
          "4": -0.10710373520851135,
          "5": -0.09984168410301208,
          "6": 0.0010390273528173566,
          "7": 0.08887970447540283,
          "8": 0.07264039665460587,
          "9": 0.09361442178487778,
          "10": -0.029077984392642975,
          "11": -0.17613425850868225,
          "12": -0.13339856266975403,
          "13": -0.1101309210062027,
          "14": -0.12163538485765457,
          "15": -0.08581656217575073,
          "16": -0.17368696630001068,
          "17": 0.11924389004707336,
          "18": -0.1271689385175705,
          "19": 0.05397921800613403,
          "20": -0.12388940900564194,
          "21": -0.03926453739404678,
          "22": 0.14622043073177338,
          "23": -0.09251294285058975
        }
      },
      "21": {
        "bias": -0.01427079364657402,
        "weights": {
          "0": 0.06601596623659134,
          "1": 0.191679447889328,
          "2": 0.04151510074734688,
          "3": 0.006847729906439781,
          "4": -0.0973118469119072,
          "5": -0.04218384996056557,
          "6": -0.17294560372829437,
          "7": -0.09210540354251862,
          "8": 0.029533332213759422,
          "9": -0.12988685071468353,
          "10": 0.0009710905142128468,
          "11": -0.1703222393989563,
          "12": 0.023403316736221313,
          "13": 0.016604142263531685,
          "14": -0.168989896774292,
          "15": -0.1896304339170456,
          "16": 0.07468503713607788,
          "17": 0.1785885989665985,
          "18": -0.06081032752990723,
          "19": -0.12439148128032684,
          "20": -0.19790519773960114,
          "21": 0.15586332976818085,
          "22": -0.000021563844711636193,
          "23": 0.049703218042850494
        }
      },
      "22": {
        "bias": -0.0951843112707138,
        "weights": {
          "0": 0.10224448144435883,
          "1": -0.10361860692501068,
          "2": -0.0707181841135025,
          "3": -0.04600987210869789,
          "4": 0.18280304968357086,
          "5": -0.0078883683308959,
          "6": -0.1929088830947876,
          "7": 0.19567778706550598,
          "8": 0.1884215772151947,
          "9": 0.044562846422195435,
          "10": 0.18363721668720245,
          "11": -0.15124070644378662,
          "12": -0.10223308205604553,
          "13": -0.07077238708734512,
          "14": 0.08622846007347107,
          "15": -0.07789871096611023,
          "16": -0.18230710923671722,
          "17": -0.01168359536677599,
          "18": 0.12148980051279068,
          "19": -0.10838677734136581,
          "20": 0.18927602469921112,
          "21": -0.07525913417339325,
          "22": 0.06698732823133469,
          "23": -0.05543557554483414
        }
      },
      "23": {
        "bias": 0.08187737315893173,
        "weights": {
          "0": -0.09685565531253815,
          "1": 0.17121721804141998,
          "2": 0.01891203783452511,
          "3": -0.12219318747520447,
          "4": -0.15814736485481262,
          "5": -0.06518249213695526,
          "6": 0.15505416691303253,
          "7": -0.1732015162706375,
          "8": 0.07499885559082031,
          "9": -0.040632281452417374,
          "10": 0.030928293243050575,
          "11": -0.18187284469604492,
          "12": 0.14318595826625824,
          "13": 0.13436982035636902,
          "14": 0.1658051460981369,
          "15": -0.160305917263031,
          "16": 0.029359497129917145,
          "17": 0.024225331842899323,
          "18": 0.03274043649435043,
          "19": 0.10052810609340668,
          "20": -0.15530610084533691,
          "21": -0.02775075100362301,
          "22": -0.15000246465206146,
          "23": -0.0955989807844162
        }
      },
      "24": {
        "bias": 0.08584083616733551,
        "weights": {
          "0": 0.025448225438594818,
          "1": 0.033125635236501694,
          "2": 0.16709040105342865,
          "3": 0.12644515931606293,
          "4": -0.1285029500722885,
          "5": -0.024891674518585205,
          "6": -0.1288377046585083,
          "7": -0.026612186804413795,
          "8": -0.0940256267786026,
          "9": 0.05031554028391838,
          "10": 0.19193735718727112,
          "11": 0.06896839290857315,
          "12": -0.1737069934606552,
          "13": 0.15887166559696198,
          "14": -0.0681685209274292,
          "15": 0.20079956948757172,
          "16": 0.10728107392787933,
          "17": -0.10099154710769653,
          "18": 0.061108916997909546,
          "19": 0.06249593198299408,
          "20": -0.14817586541175842,
          "21": -0.03631329908967018,
          "22": 0.18957556784152985,
          "23": -0.02438364364206791
        }
      },
      "25": {
        "bias": -0.17918072640895844,
        "weights": {
          "0": 0.12345945090055466,
          "1": -0.10093063861131668,
          "2": -0.19866743683815002,
          "3": -0.049298934638500214,
          "4": 0.03563547134399414,
          "5": -0.017728721722960472,
          "6": -0.1026051789522171,
          "7": -0.04228353127837181,
          "8": 0.06829514354467392,
          "9": -0.07270915061235428,
          "10": -0.11959024518728256,
          "11": -0.15880945324897766,
          "12": 0.1611289381980896,
          "13": 0.17998312413692474,
          "14": 0.11630291491746902,
          "15": -0.06925035268068314,
          "16": -0.006275436840951443,
          "17": 0.19268682599067688,
          "18": 0.006988145876675844,
          "19": -0.051211629062891006,
          "20": 0.1373271942138672,
          "21": 0.11976829916238785,
          "22": -0.0002517462125979364,
          "23": 0.040469128638505936
        }
      },
      "26": {
        "bias": 0.2765854597091675,
        "weights": {
          "0": 0.10244137048721313,
          "1": -0.1014595702290535,
          "2": -0.08998747915029526,
          "3": -0.11529003083705902,
          "4": -0.17292509973049164,
          "5": 0.016493700444698334,
          "6": -0.12414377182722092,
          "7": 0.028000127524137497,
          "8": 0.0818580687046051,
          "9": -0.07551868259906769,
          "10": 0.09638277441263199,
          "11": -0.10523057729005814,
          "12": 0.15136854350566864,
          "13": 0.015698861330747604,
          "14": 0.1068357303738594,
          "15": -0.26040220260620117,
          "16": 0.0005820489022880793,
          "17": 0.15718363225460052,
          "18": 0.013253116980195045,
          "19": 0.015591324307024479,
          "20": 0.03917856886982918,
          "21": -0.05339253693819046,
          "22": -0.15650545060634613,
          "23": -0.030081549659371376
        }
      },
      "27": {
        "bias": 0.07795973867177963,
        "weights": {
          "0": -0.0450127087533474,
          "1": -0.05809905752539635,
          "2": -0.00009081445023184642,
          "3": -0.10426740348339081,
          "4": -0.15979903936386108,
          "5": -0.12592090666294098,
          "6": -0.16925829648971558,
          "7": -0.08354934304952621,
          "8": -0.13046081364154816,
          "9": 0.006666901987046003,
          "10": 0.08372624218463898,
          "11": -0.14146852493286133,
          "12": 0.06279627233743668,
          "13": 0.19795246422290802,
          "14": -0.1867251694202423,
          "15": -0.05141044408082962,
          "16": 0.1817355901002884,
          "17": 0.12341281771659851,
          "18": 0.16185283660888672,
          "19": -0.05773598700761795,
          "20": -0.006502210162580013,
          "21": -0.00279386923648417,
          "22": 0.035692546516656876,
          "23": -0.0693092942237854
        }
      },
      "28": {
        "bias": -0.024459270760416985,
        "weights": {
          "0": -0.1959581971168518,
          "1": 0.11883392930030823,
          "2": -0.02557183988392353,
          "3": -0.171340674161911,
          "4": -0.14699754118919373,
          "5": 0.19579078257083893,
          "6": -0.04771712049841881,
          "7": -0.12299355864524841,
          "8": 0.1043480634689331,
          "9": -0.015386445447802544,
          "10": -0.15629594027996063,
          "11": -0.08565863966941833,
          "12": -0.006959287449717522,
          "13": 0.016088424250483513,
          "14": 0.15085597336292267,
          "15": -0.03057374805212021,
          "16": -0.10497202724218369,
          "17": 0.0771201103925705,
          "18": 0.0009405160672031343,
          "19": -0.08763492107391357,
          "20": -0.10567885637283325,
          "21": -0.11678102612495422,
          "22": 0.1488296091556549,
          "23": 0.08051826059818268
        }
      },
      "29": {
        "bias": 0.05776723101735115,
        "weights": {
          "0": -0.08261465281248093,
          "1": 0.026613105088472366,
          "2": -0.18427735567092896,
          "3": 0.17810770869255066,
          "4": 0.14729809761047363,
          "5": 0.1226663589477539,
          "6": -0.05781104788184166,
          "7": -0.15878480672836304,
          "8": 0.04397914558649063,
          "9": 0.18822626769542694,
          "10": 0.16129891574382782,
          "11": 0.14880241453647614,
          "12": -0.16354678571224213,
          "13": 0.14117926359176636,
          "14": 0.0450294204056263,
          "15": -0.15271717309951782,
          "16": -0.02406410314142704,
          "17": 0.17251546680927277,
          "18": 0.1774396151304245,
          "19": -0.017966240644454956,
          "20": -0.0577685721218586,
          "21": 0.10098924487829208,
          "22": 0.1581975221633911,
          "23": 0.1961115300655365
        }
      },
      "30": {
        "bias": -0.15201470255851746,
        "weights": {
          "0": -0.007671337574720383,
          "1": -0.19578443467617035,
          "2": 0.016515212133526802,
          "3": 0.030068449676036835,
          "4": 0.04338724538683891,
          "5": 0.0020325439982116222,
          "6": -0.12018770724534988,
          "7": -0.18320046365261078,
          "8": -0.043395500630140305,
          "9": 0.0418180450797081,
          "10": 0.07078930735588074,
          "11": -0.13993453979492188,
          "12": -0.09795504808425903,
          "13": 0.11413777619600296,
          "14": -0.13694851100444794,
          "15": 0.14334312081336975,
          "16": -0.06998569518327713,
          "17": 0.06950011849403381,
          "18": -0.17907600104808807,
          "19": 0.14629265666007996,
          "20": -0.0965384691953659,
          "21": 0.015338949859142303,
          "22": 0.056075211614370346,
          "23": 0.08970840275287628
        }
      },
      "31": {
        "bias": -0.13099907338619232,
        "weights": {
          "0": 0.05483625829219818,
          "1": -0.013333786278963089,
          "2": -0.19982929527759552,
          "3": 0.11022738367319107,
          "4": 0.1824631243944168,
          "5": 0.09520316123962402,
          "6": 0.0391128845512867,
          "7": 0.17017732560634613,
          "8": -0.0955938771367073,
          "9": -0.10014993697404861,
          "10": 0.18075492978096008,
          "11": 0.0944964587688446,
          "12": 0.016848696395754814,
          "13": 0.012326016090810299,
          "14": -0.005312560126185417,
          "15": 0.06533589959144592,
          "16": 0.19257698953151703,
          "17": -0.05188541114330292,
          "18": 0.13668206334114075,
          "19": -0.0070196278393268585,
          "20": -0.0684800073504448,
          "21": -0.18466705083847046,
          "22": -0.0710601657629013,
          "23": -0.07861503958702087
        }
      },
      "32": {
        "bias": 0.08444779366254807,
        "weights": {
          "0": 0.06651395559310913,
          "1": -0.14417189359664917,
          "2": 0.08897367119789124,
          "3": -0.1319137066602707,
          "4": -0.031743280589580536,
          "5": 0.13208967447280884,
          "6": 0.13732761144638062,
          "7": 0.1817377805709839,
          "8": 0.11233508586883545,
          "9": -0.1507454812526703,
          "10": -0.07109281420707703,
          "11": -0.02473435178399086,
          "12": -0.18995289504528046,
          "13": 0.1514865607023239,
          "14": -0.17396922409534454,
          "15": 0.20536570250988007,
          "16": 0.06302794069051743,
          "17": 0.07333272695541382,
          "18": 0.1500796526670456,
          "19": -0.1320711374282837,
          "20": 0.14536070823669434,
          "21": -0.10550246387720108,
          "22": -0.054413411766290665,
          "23": -0.055122993886470795
        }
      },
      "33": {
        "bias": 0.11440803110599518,
        "weights": {
          "0": 0.13585743308067322,
          "1": -0.03783907741308212,
          "2": -0.10189682990312576,
          "3": 0.18513499200344086,
          "4": 0.10074891895055771,
          "5": -0.06125586852431297,
          "6": 0.17317405343055725,
          "7": -0.0122437858954072,
          "8": -0.1060328409075737,
          "9": -0.003731881268322468,
          "10": 0.18040883541107178,
          "11": -0.1943991780281067,
          "12": 0.1777966469526291,
          "13": -0.017649829387664795,
          "14": -0.10285855829715729,
          "15": -0.16149260103702545,
          "16": -0.15536513924598694,
          "17": 0.05753381550312042,
          "18": -0.18127533793449402,
          "19": -0.15957890450954437,
          "20": 0.17845246195793152,
          "21": -0.15383945405483246,
          "22": -0.10066312551498413,
          "23": -0.14632420241832733
        }
      },
      "34": {
        "bias": -0.10009219497442245,
        "weights": {
          "0": -0.027063587680459023,
          "1": 0.10295663774013519,
          "2": 0.15318819880485535,
          "3": -0.19649623334407806,
          "4": 0.08085004985332489,
          "5": 0.09069249778985977,
          "6": 0.044745225459337234,
          "7": 0.13853894174098969,
          "8": -0.10243947803974152,
          "9": 0.00047931770677678287,
          "10": -0.1366576850414276,
          "11": -0.14954812824726105,
          "12": -0.025576524436473846,
          "13": 0.11991515755653381,
          "14": -0.02148938924074173,
          "15": 0.07342529296875,
          "16": 0.09917503595352173,
          "17": -0.18576006591320038,
          "18": 0.032611995935440063,
          "19": -0.005883446428924799,
          "20": -0.04751485586166382,
          "21": -0.014962323009967804,
          "22": -0.10719214379787445,
          "23": -0.19903162121772766
        }
      },
      "35": {
        "bias": 0.0903908982872963,
        "weights": {
          "0": -0.08194363117218018,
          "1": -0.013228826224803925,
          "2": -0.10450530797243118,
          "3": 0.13207128643989563,
          "4": -0.027439745143055916,
          "5": 0.18866606056690216,
          "6": 0.08811628073453903,
          "7": -0.06860772520303726,
          "8": 0.025448406115174294,
          "9": -0.1027909368276596,
          "10": 0.06788512319326401,
          "11": 0.0939638763666153,
          "12": 0.05583838000893593,
          "13": 0.07427842170000076,
          "14": 0.18496784567832947,
          "15": -0.19920791685581207,
          "16": 0.16047102212905884,
          "17": 0.030679766088724136,
          "18": 0.012643135152757168,
          "19": -0.13680408895015717,
          "20": 0.11340577900409698,
          "21": -0.15337148308753967,
          "22": 0.04550360143184662,
          "23": 0.09300404042005539
        }
      },
      "36": {
        "bias": -0.1272837370634079,
        "weights": {
          "0": -0.017189672216773033,
          "1": -0.010488666594028473,
          "2": -0.1179090365767479,
          "3": 0.1470581740140915,
          "4": -0.16506986320018768,
          "5": -0.11922883987426758,
          "6": 0.0802159383893013,
          "7": -0.194097638130188,
          "8": -0.08152494579553604,
          "9": -0.15017512440681458,
          "10": -0.1090598851442337,
          "11": -0.13947582244873047,
          "12": 0.12219871580600739,
          "13": 0.12302637100219727,
          "14": -0.16237425804138184,
          "15": -0.03368451073765755,
          "16": -0.009160565212368965,
          "17": -0.10793710500001907,
          "18": -0.14007803797721863,
          "19": 0.06391077488660812,
          "20": -0.153628408908844,
          "21": 0.06567679345607758,
          "22": 0.0795571431517601,
          "23": 0.05227750167250633
        }
      },
      "37": {
        "bias": 0.14722256362438202,
        "weights": {
          "0": 0.039545606821775436,
          "1": 0.07053692638874054,
          "2": -0.022423969581723213,
          "3": 0.0867767482995987,
          "4": -0.028976280242204666,
          "5": 0.10382691025733948,
          "6": -0.027921807020902634,
          "7": -0.11122380197048187,
          "8": 0.0887880027294159,
          "9": 0.18283116817474365,
          "10": -0.016855327412486076,
          "11": -0.08014121651649475,
          "12": -0.06644546985626221,
          "13": 0.036684345453977585,
          "14": 0.1622026562690735,
          "15": -0.11770719289779663,
          "16": -0.03392111882567406,
          "17": -0.17349447309970856,
          "18": -0.14343975484371185,
          "19": -0.14613640308380127,
          "20": -0.014272875152528286,
          "21": 0.13905976712703705,
          "22": 0.1867544949054718,
          "23": -0.029293619096279144
        }
      },
      "38": {
        "bias": -0.03392261266708374,
        "weights": {
          "0": -0.19801923632621765,
          "1": -0.14835354685783386,
          "2": 0.17670132219791412,
          "3": -0.14070363342761993,
          "4": -0.14948301017284393,
          "5": 0.0342814065515995,
          "6": 0.23140884935855865,
          "7": -0.02549390308558941,
          "8": 0.17807061970233917,
          "9": -0.011601078324019909,
          "10": -0.15626733005046844,
          "11": -0.0289638489484787,
          "12": -0.054925672709941864,
          "13": 0.016782332211732864,
          "14": -0.09397833794355392,
          "15": 0.23792557418346405,
          "16": -0.12281681597232819,
          "17": -0.017846791073679924,
          "18": -0.12671545147895813,
          "19": -0.12882745265960693,
          "20": 0.2058386504650116,
          "21": -0.07814022898674011,
          "22": 0.2040977030992508,
          "23": 0.15025927126407623
        }
      },
      "39": {
        "bias": -0.15984386205673218,
        "weights": {
          "0": 0.13970178365707397,
          "1": 0.12210869789123535,
          "2": 0.0600336417555809,
          "3": 0.06504243612289429,
          "4": -0.07832206785678864,
          "5": -0.14165334403514862,
          "6": 0.17695647478103638,
          "7": 0.03750235214829445,
          "8": -0.13775882124900818,
          "9": 0.14194543659687042,
          "10": -0.12149754166603088,
          "11": -0.015261286869645119,
          "12": -0.002279795240610838,
          "13": 0.07072484493255615,
          "14": 0.14301319420337677,
          "15": -0.048829130828380585,
          "16": 0.02622297778725624,
          "17": -0.0003654228348750621,
          "18": 0.05405560880899429,
          "19": -0.19541969895362854,
          "20": 0.022464483976364136,
          "21": 0.1575356274843216,
          "22": 0.0593378022313118,
          "23": -0.11023085564374924
        }
      },
      "40": {
        "bias": -0.187204971909523,
        "weights": {
          "0": -0.07130638509988785,
          "1": 0.029975173994898796,
          "2": -0.026894917711615562,
          "3": 0.17340651154518127,
          "4": -0.03007989376783371,
          "5": -0.1543368101119995,
          "6": 0.18275229632854462,
          "7": -0.17472124099731445,
          "8": -0.16875319182872772,
          "9": -0.06322911381721497,
          "10": -0.06331939250230789,
          "11": -0.19662165641784668,
          "12": 0.010479060932993889,
          "13": -0.16627924144268036,
          "14": -0.16064532101154327,
          "15": -0.18835677206516266,
          "16": 0.0924515575170517,
          "17": 0.035374365746974945,
          "18": -0.021241240203380585,
          "19": -0.13160033524036407,
          "20": -0.19769909977912903,
          "21": 0.03301042318344116,
          "22": 0.11930925399065018,
          "23": 0.18304069340229034
        }
      },
      "41": {
        "bias": -0.156140998005867,
        "weights": {
          "0": -0.053914863616228104,
          "1": -0.01561904139816761,
          "2": -0.014125841669738293,
          "3": -0.008651183918118477,
          "4": -0.08400849252939224,
          "5": 0.05806084722280502,
          "6": 0.14682230353355408,
          "7": -0.02025795541703701,
          "8": -0.06508650630712509,
          "9": 0.17078538239002228,
          "10": -0.033945806324481964,
          "11": -0.1419173926115036,
          "12": -0.17465637624263763,
          "13": 0.10388500243425369,
          "14": 0.16024614870548248,
          "15": 0.09247369319200516,
          "16": 0.18734388053417206,
          "17": -0.17985036969184875,
          "18": 0.012975713238120079,
          "19": 0.20196497440338135,
          "20": 0.07027272135019302,
          "21": -0.1812993288040161,
          "22": -0.18783962726593018,
          "23": -0.0642755776643753
        }
      },
      "42": {
        "bias": 0.11759704351425171,
        "weights": {
          "0": -0.09756836295127869,
          "1": -0.0981096550822258,
          "2": -0.02787354588508606,
          "3": -0.0631791204214096,
          "4": 0.19723229110240936,
          "5": 0.11390888690948486,
          "6": -0.1720106452703476,
          "7": 0.06691905111074448,
          "8": -0.14896175265312195,
          "9": -0.012582985684275627,
          "10": -0.19276583194732666,
          "11": -0.08766456693410873,
          "12": 0.005419385619461536,
          "13": 0.07715045660734177,
          "14": -0.13399524986743927,
          "15": 0.11904203146696091,
          "16": 0.007548660505563021,
          "17": -0.02126518078148365,
          "18": -0.04057310149073601,
          "19": -0.18332237005233765,
          "20": 0.0021681671496480703,
          "21": 0.033600181341171265,
          "22": 0.1935313194990158,
          "23": -0.1715058535337448
        }
      },
      "43": {
        "bias": -0.14036819338798523,
        "weights": {
          "0": 0.11050072312355042,
          "1": -0.10484834015369415,
          "2": 0.09160853922367096,
          "3": 0.11549054831266403,
          "4": -0.05094875395298004,
          "5": 0.19012510776519775,
          "6": -0.1325927972793579,
          "7": 0.031143486499786377,
          "8": 0.032169733196496964,
          "9": 0.16515041887760162,
          "10": -0.07373255491256714,
          "11": -0.02145153097808361,
          "12": 0.011380131356418133,
          "13": 0.0746530219912529,
          "14": -0.06373856216669083,
          "15": 0.13157802820205688,
          "16": -0.16549956798553467,
          "17": 0.1276751607656479,
          "18": -0.08354227244853973,
          "19": 0.18567879498004913,
          "20": -0.18746744096279144,
          "21": 0.018680594861507416,
          "22": 0.197579026222229,
          "23": -0.045393940061330795
        }
      },
      "44": {
        "bias": -0.09705282747745514,
        "weights": {
          "0": 0.13938938081264496,
          "1": 0.011877738870680332,
          "2": -0.0490567572414875,
          "3": -0.03792984411120415,
          "4": -0.0738215297460556,
          "5": 0.1067541092634201,
          "6": 0.005186895839869976,
          "7": -0.11181128025054932,
          "8": -0.07966013252735138,
          "9": -0.01174382958561182,
          "10": 0.07356255501508713,
          "11": 0.1539129763841629,
          "12": 0.10273497551679611,
          "13": 0.007092888467013836,
          "14": -0.06717666983604431,
          "15": -0.12381859123706818,
          "16": 0.038176488131284714,
          "17": 0.04634438455104828,
          "18": -0.010743689723312855,
          "19": 0.02845132164657116,
          "20": -0.11278782784938812,
          "21": -0.037838660180568695,
          "22": -0.034822024405002594,
          "23": -0.12025059759616852
        }
      },
      "45": {
        "bias": 0.2720585763454437,
        "weights": {
          "0": 0.06723341345787048,
          "1": 0.09110140800476074,
          "2": -0.0023816367611289024,
          "3": -0.15739743411540985,
          "4": -0.0652911365032196,
          "5": 0.0331059992313385,
          "6": -0.003446318209171295,
          "7": 0.1985986977815628,
          "8": 0.010994892567396164,
          "9": 0.1329008936882019,
          "10": 0.07720568031072617,
          "11": -0.12432030588388443,
          "12": -0.12723304331302643,
          "13": -0.044153518974781036,
          "14": 0.1483999490737915,
          "15": -0.11034339666366577,
          "16": -0.026889760047197342,
          "17": 0.06336825340986252,
          "18": -0.13948631286621094,
          "19": -0.0452953539788723,
          "20": -0.14481449127197266,
          "21": -0.16631148755550385,
          "22": 0.13008245825767517,
          "23": 0.06607362627983093
        }
      },
      "46": {
        "bias": -0.08273929357528687,
        "weights": {
          "0": -0.1987103670835495,
          "1": -0.2018485814332962,
          "2": 0.11845700442790985,
          "3": 0.008605445735156536,
          "4": -0.15498508512973785,
          "5": 0.009436475113034248,
          "6": 0.06734271347522736,
          "7": -0.08535308390855789,
          "8": 0.17844147980213165,
          "9": -0.19273780286312103,
          "10": -0.02733566239476204,
          "11": 0.03912510722875595,
          "12": -0.1400315910577774,
          "13": 0.21571822464466095,
          "14": -0.12738080322742462,
          "15": 0.12185593694448471,
          "16": 0.09063661098480225,
          "17": 0.12973369657993317,
          "18": 0.012641187757253647,
          "19": 0.1252291202545166,
          "20": 0.2006174623966217,
          "21": 0.06114201247692108,
          "22": -0.04595205932855606,
          "23": 0.18330474197864532
        }
      },
      "47": {
        "bias": -0.07809033989906311,
        "weights": {
          "0": -0.12459346652030945,
          "1": -0.12346291542053223,
          "2": 0.1378728747367859,
          "3": 0.12950602173805237,
          "4": -0.046712808310985565,
          "5": 0.11110446602106094,
          "6": 0.031485043466091156,
          "7": -0.09868240356445312,
          "8": 0.04250923544168472,
          "9": -0.11580291390419006,
          "10": 0.044860612601041794,
          "11": 0.060482122004032135,
          "12": -0.10781464725732803,
          "13": -0.04606618732213974,
          "14": 0.17239554226398468,
          "15": 0.03678193688392639,
          "16": -0.14739631116390228,
          "17": -0.1131909117102623,
          "18": 0.10157322138547897,
          "19": 0.0298321433365345,
          "20": -0.19948019087314606,
          "21": 0.18879210948944092,
          "22": 0.18302159011363983,
          "23": 0.033663779497146606
        }
      },
      "48": {
        "bias": -0.02805679850280285,
        "weights": {
          "0": 0.0057410188019275665,
          "1": -0.1406461000442505,
          "2": 0.03014913573861122,
          "3": -0.0037811382208019495,
          "4": 0.12049508839845657,
          "5": -0.1564505696296692,
          "6": -0.02272440493106842,
          "7": 0.019009467214345932,
          "8": -0.012530539184808731,
          "9": 0.18519830703735352,
          "10": -0.01896553300321102,
          "11": 0.1953068971633911,
          "12": -0.031060175970196724,
          "13": -0.19921842217445374,
          "14": -0.0021085706539452076,
          "15": -0.0535271018743515,
          "16": 0.009061738848686218,
          "17": -0.10477001965045929,
          "18": -0.12405034899711609,
          "19": -0.1267397701740265,
          "20": 0.1964419186115265,
          "21": -0.06559779495000839,
          "22": 0.030976802110671997,
          "23": 0.08245227485895157
        }
      },
      "49": {
        "bias": -0.16751641035079956,
        "weights": {
          "0": 0.004314357414841652,
          "1": -0.02125023491680622,
          "2": -0.020421098917722702,
          "3": -0.04477866366505623,
          "4": 0.14911632239818573,
          "5": 0.0017472858307883143,
          "6": -0.02502564527094364,
          "7": -0.07495070993900299,
          "8": -0.05483849719166756,
          "9": 0.09591611474752426,
          "10": -0.09157463908195496,
          "11": -0.1197662428021431,
          "12": -0.15965726971626282,
          "13": -0.16805757582187653,
          "14": -0.07753480970859528,
          "15": 0.15375588834285736,
          "16": -0.1365671455860138,
          "17": 0.0349588580429554,
          "18": -0.11017148196697235,
          "19": 0.062401629984378815,
          "20": 0.05017668008804321,
          "21": -0.09646986424922943,
          "22": 0.06148339435458183,
          "23": -0.14280535280704498
        }
      },
      "50": {
        "bias": 0.0954018235206604,
        "weights": {
          "0": 0.05587692931294441,
          "1": -0.00003740689135156572,
          "2": 0.04347618296742439,
          "3": 0.050206512212753296,
          "4": -0.1487933248281479,
          "5": -0.04361638054251671,
          "6": 0.031506821513175964,
          "7": -0.21778027713298798,
          "8": 0.16236566007137299,
          "9": 0.19510507583618164,
          "10": -0.1452709138393402,
          "11": 0.022706858813762665,
          "12": 0.1569388508796692,
          "13": -0.1203388124704361,
          "14": 0.04746581241488457,
          "15": 0.1754761040210724,
          "16": 0.12704214453697205,
          "17": 0.18247412145137787,
          "18": -0.021958380937576294,
          "19": -0.12852910161018372,
          "20": 0.1083424836397171,
          "21": 0.04675080627202988,
          "22": 0.13731464743614197,
          "23": 0.11364997178316116
        }
      },
      "51": {
        "bias": -0.1031285896897316,
        "weights": {
          "0": 0.10228380560874939,
          "1": 0.05355680733919144,
          "2": 0.1369054615497589,
          "3": -0.11683076620101929,
          "4": -0.005216139834374189,
          "5": -0.07347698509693146,
          "6": 0.13263019919395447,
          "7": -0.16981875896453857,
          "8": 0.06240226328372955,
          "9": -0.041081346571445465,
          "10": 0.10487376153469086,
          "11": 0.184271439909935,
          "12": -0.042678769677877426,
          "13": -0.1639847457408905,
          "14": 0.16531918942928314,
          "15": 0.1906612664461136,
          "16": -0.13270848989486694,
          "17": -0.1336788684129715,
          "18": 0.037465501576662064,
          "19": 0.12832127511501312,
          "20": 0.10766562074422836,
          "21": 0.05464089661836624,
          "22": -0.14742538332939148,
          "23": -0.0017094152281060815
        }
      },
      "52": {
        "bias": -0.16131892800331116,
        "weights": {
          "0": 0.19188784062862396,
          "1": 0.18550659716129303,
          "2": -0.053278956562280655,
          "3": -0.05088505893945694,
          "4": -0.09196675568819046,
          "5": 0.08816421777009964,
          "6": 0.0007374996785074472,
          "7": -0.030493196099996567,
          "8": -0.04906141385436058,
          "9": 0.09625127911567688,
          "10": -0.14051508903503418,
          "11": 0.18462683260440826,
          "12": 0.006757513619959354,
          "13": -0.08455242216587067,
          "14": 0.13615894317626953,
          "15": 0.04900169372558594,
          "16": -0.0036276241298764944,
          "17": -0.07508422434329987,
          "18": 0.09106995910406113,
          "19": -0.09754859656095505,
          "20": 0.18917107582092285,
          "21": 0.11621682345867157,
          "22": 0.03902476653456688,
          "23": 0.10544255375862122
        }
      },
      "53": {
        "bias": -0.06959524005651474,
        "weights": {
          "0": 0.021171990782022476,
          "1": 0.08383216708898544,
          "2": 0.082354336977005,
          "3": -0.17498287558555603,
          "4": 0.1891811490058899,
          "5": 0.13665014505386353,
          "6": -0.15213455259799957,
          "7": -0.15366822481155396,
          "8": -0.13618753850460052,
          "9": -0.18897132575511932,
          "10": 0.028516661375761032,
          "11": 0.06296183168888092,
          "12": 0.1872626692056656,
          "13": -0.18802021443843842,
          "14": 0.11153489351272583,
          "15": -0.1333402693271637,
          "16": 0.05515266954898834,
          "17": -0.15220367908477783,
          "18": 0.08960843086242676,
          "19": 0.12060339003801346,
          "20": 0.08915833383798599,
          "21": -0.04399790242314339,
          "22": 0.05985376611351967,
          "23": -0.15328069031238556
        }
      },
      "54": {
        "bias": 0.07657080888748169,
        "weights": {
          "0": 0.050652891397476196,
          "1": -0.2250773161649704,
          "2": -0.15449436008930206,
          "3": -0.07887771725654602,
          "4": 0.06574033945798874,
          "5": -0.04346725344657898,
          "6": 0.0885649248957634,
          "7": -0.2174873948097229,
          "8": -0.0699094831943512,
          "9": 0.091792531311512,
          "10": 0.14493007957935333,
          "11": 0.14981701970100403,
          "12": -0.0579180084168911,
          "13": 0.07799166440963745,
          "14": -0.1391480565071106,
          "15": -0.11326580494642258,
          "16": 0.10206981003284454,
          "17": -0.0013583850814029574,
          "18": -0.05284433811903,
          "19": 0.018244903534650803,
          "20": 0.03838261589407921,
          "21": 0.08228248357772827,
          "22": 0.03203076869249344,
          "23": 0.1309063881635666
        }
      },
      "55": {
        "bias": 0.1357131004333496,
        "weights": {
          "0": 0.17370131611824036,
          "1": -0.13139349222183228,
          "2": -0.12291963398456573,
          "3": 0.028236834332346916,
          "4": -0.1867973357439041,
          "5": 0.1568303406238556,
          "6": 0.06246457248926163,
          "7": 0.11621984839439392,
          "8": -0.15979959070682526,
          "9": -0.16766172647476196,
          "10": 0.13380703330039978,
          "11": 0.14616690576076508,
          "12": -0.17501716315746307,
          "13": -0.10789556056261063,
          "14": -0.030421286821365356,
          "15": 0.19124174118041992,
          "16": 0.1208968535065651,
          "17": 0.14644946157932281,
          "18": -0.052552539855241776,
          "19": 0.1721828728914261,
          "20": 0.06452863663434982,
          "21": 0.05708703398704529,
          "22": -0.005345141049474478,
          "23": 0.011300628073513508
        }
      },
      "56": {
        "bias": 0.05310339853167534,
        "weights": {
          "0": -0.11278525739908218,
          "1": -0.15814529359340668,
          "2": 0.1988539695739746,
          "3": -0.02403002604842186,
          "4": 0.10023762285709381,
          "5": 0.04673539102077484,
          "6": 0.007811065763235092,
          "7": -0.14265795052051544,
          "8": 0.14289085566997528,
          "9": 0.20339064300060272,
          "10": 0.1915520578622818,
          "11": -0.0693764016032219,
          "12": 0.01346321776509285,
          "13": 0.07785739004611969,
          "14": 0.17515791952610016,
          "15": -0.05825931206345558,
          "16": 0.06728436797857285,
          "17": -0.0951579287648201,
          "18": 0.16958622634410858,
          "19": 0.15596814453601837,
          "20": 0.1747104674577713,
          "21": 0.06559550762176514,
          "22": 0.1308765858411789,
          "23": -0.12583507597446442
        }
      },
      "57": {
        "bias": -0.08745072782039642,
        "weights": {
          "0": -0.008258508518338203,
          "1": 0.0119134820997715,
          "2": -0.12472745031118393,
          "3": 0.1509668529033661,
          "4": -0.11586380749940872,
          "5": -0.019985979422926903,
          "6": 0.12363159656524658,
          "7": -0.05726070702075958,
          "8": -0.15613509714603424,
          "9": -0.07557272911071777,
          "10": 0.003138199681416154,
          "11": 0.08187687397003174,
          "12": 0.10756177455186844,
          "13": 0.0020666574127972126,
          "14": 0.06420235335826874,
          "15": -0.12723879516124725,
          "16": 0.08242088556289673,
          "17": -0.0962776243686676,
          "18": -0.10421077162027359,
          "19": -0.1680600941181183,
          "20": -0.19624151289463043,
          "21": -0.008377531543374062,
          "22": 0.1073693186044693,
          "23": 0.1896134912967682
        }
      },
      "58": {
        "bias": 0.049489885568618774,
        "weights": {
          "0": 0.13066606223583221,
          "1": -0.15620149672031403,
          "2": -0.14711008965969086,
          "3": -0.18151621520519257,
          "4": 0.006762060336768627,
          "5": 0.02804613672196865,
          "6": 0.03381197527050972,
          "7": 0.01916077360510826,
          "8": 0.046339251101017,
          "9": -0.05466664955019951,
          "10": -0.10020279884338379,
          "11": 0.10192964971065521,
          "12": 0.10936681181192398,
          "13": -0.029829101637005806,
          "14": 0.0643543228507042,
          "15": -0.12415075302124023,
          "16": -0.07934466004371643,
          "17": -0.15867097675800323,
          "18": -0.040707577019929886,
          "19": -0.06968988478183746,
          "20": -0.12880238890647888,
          "21": -0.033164069056510925,
          "22": -0.13001640141010284,
          "23": -0.15450961887836456
        }
      },
      "59": {
        "bias": 0.022175848484039307,
        "weights": {
          "0": 0.04321764409542084,
          "1": -0.13116885721683502,
          "2": -0.04486146569252014,
          "3": 0.12622158229351044,
          "4": 0.17023734748363495,
          "5": -0.043523866683244705,
          "6": -0.1377507448196411,
          "7": 0.11372537165880203,
          "8": 0.02414991520345211,
          "9": 0.1905011683702469,
          "10": 0.10702203214168549,
          "11": 0.13848237693309784,
          "12": 0.1321694701910019,
          "13": 0.010833297856152058,
          "14": 0.09534592181444168,
          "15": 0.07859168946743011,
          "16": 0.10618195682764053,
          "17": -0.024353928864002228,
          "18": 0.13131706416606903,
          "19": -0.01853184401988983,
          "20": 0.01132925134152174,
          "21": 0.1162453219294548,
          "22": 0.08208011090755463,
          "23": -0.1413986086845398
        }
      }
    },
    {
      "0": {
        "bias": -0.019430037587881088,
        "weights": {
          "0": -0.07058951258659363,
          "1": 0.05627008527517319,
          "2": -0.13150666654109955,
          "3": -0.02235981822013855,
          "4": -0.12602481245994568,
          "5": 0.18497230112552643,
          "6": -0.09904507547616959,
          "7": -0.16321878135204315,
          "8": 0.07533495128154755,
          "9": 0.06416063755750656,
          "10": 0.10148471593856812,
          "11": -0.03704266622662544,
          "12": -0.17028425633907318,
          "13": -0.054945580661296844,
          "14": -0.10275981575250626,
          "15": -0.10564467310905457,
          "16": 0.09648484736680984,
          "17": -0.16666379570960999,
          "18": 0.15643253922462463,
          "19": 0.09224051982164383,
          "20": -0.16706450283527374,
          "21": 0.04757433384656906,
          "22": -0.1910429745912552,
          "23": 0.17802011966705322,
          "24": 0.12532362341880798,
          "25": 0.14971543848514557,
          "26": 0.19712203741073608,
          "27": -0.13215237855911255,
          "28": -0.03372611477971077,
          "29": -0.03907451406121254,
          "30": 0.07367561757564545,
          "31": -0.14822259545326233,
          "32": -0.02688685804605484,
          "33": 0.1268243044614792,
          "34": 0.18061493337154388,
          "35": 0.18836042284965515,
          "36": 0.020267419517040253,
          "37": 0.11984553933143616,
          "38": 0.06352178752422333,
          "39": -0.023156356066465378,
          "40": 0.13569346070289612,
          "41": 0.004443752579391003,
          "42": 0.16201205551624298,
          "43": 0.07491549849510193,
          "44": 0.06372451782226562,
          "45": 0.1722756028175354,
          "46": -0.0508364662528038,
          "47": 0.10052644461393356,
          "48": 0.132955402135849,
          "49": -0.10281214118003845,
          "50": -0.02987624518573284,
          "51": 0.031987082213163376,
          "52": 0.022650549188256264,
          "53": 0.10282084345817566,
          "54": -0.06431210786104202,
          "55": -0.04359975457191467,
          "56": -0.0726080983877182,
          "57": -0.10699619352817535,
          "58": -0.04795398190617561,
          "59": 0.04366661608219147
        }
      },
      "1": {
