{
  "sizes": [
    5,
    4,
    31,
    24,
    60,
    60,
    7,
    1
  ],
  "layers": [
    {
      "title": {},
      "start_time_day": {},
      "start_time_hour": {},
      "start_time_minute": {},
      "register_start_day_distance": {}
    },
    {
      "0": {
        "bias": -0.3326617181301117,
        "weights": {
          "title": 0.17391519248485565,
          "start_time_day": -1.050567388534546,
          "start_time_hour": -1.0102944374084473,
          "start_time_minute": -0.19767896831035614,
          "register_start_day_distance": 0.35123249888420105
        }
      },
      "1": {
        "bias": 0.14398640394210815,
        "weights": {
          "title": 0.19731411337852478,
          "start_time_day": 0.09681391716003418,
          "start_time_hour": -0.1161913052201271,
          "start_time_minute": 0.13338488340377808,
          "register_start_day_distance": -0.09220518171787262
        }
      },
      "2": {
        "bias": 0.2387145459651947,
        "weights": {
          "title": 0.148307666182518,
          "start_time_day": 0.37800684571266174,
          "start_time_hour": 0.22141030430793762,
          "start_time_minute": -0.09277214854955673,
          "register_start_day_distance": -0.06014962121844292
        }
      },
      "3": {
        "bias": 0.10686978697776794,
        "weights": {
          "title": 0.019413549453020096,
          "start_time_day": -0.03405292332172394,
          "start_time_hour": 0.1539497971534729,
          "start_time_minute": -0.08443594723939896,
          "register_start_day_distance": -0.07354900985956192
        }
      }
    },
    {
      "0": {
        "bias": -0.13817891478538513,
        "weights": {
          "0": 0.04512554779648781,
          "1": 0.05701495707035065,
          "2": 0.19299717247486115,
          "3": 0.03267587721347809
        }
      },
      "1": {
        "bias": 0.055854782462120056,
        "weights": {
          "0": -0.10159863531589508,
          "1": 0.03200266882777214,
          "2": -0.015285386703908443,
          "3": 0.1912628710269928
        }
      },
      "2": {
        "bias": -0.0021185707300901413,
        "weights": {
          "0": 0.21512030065059662,
          "1": -0.0717770978808403,
          "2": -0.04838503524661064,
          "3": -0.023432552814483643
        }
      },
      "3": {
        "bias": -0.15784244239330292,
        "weights": {
          "0": -0.026302795857191086,
          "1": 0.015099982731044292,
          "2": -0.1587790995836258,
          "3": -0.19194109737873077
        }
      },
      "4": {
        "bias": -0.062420859932899475,
        "weights": {
          "0": 0.21904154121875763,
          "1": -0.19249336421489716,
          "2": -0.1301230788230896,
          "3": -0.09329083561897278
        }
      },
      "5": {
        "bias": -0.10795705765485764,
        "weights": {
          "0": -0.030691031366586685,
          "1": -0.13266372680664062,
          "2": 0.1289118081331253,
          "3": -0.04901969060301781
        }
      },
      "6": {
        "bias": -0.18782366812229156,
        "weights": {
          "0": 0.012525473721325397,
          "1": 0.09836513549089432,
          "2": -0.1257319450378418,
          "3": 0.05901389941573143
        }
      },
      "7": {
        "bias": 0.3539075553417206,
        "weights": {
          "0": -0.37542784214019775,
          "1": 0.195262148976326,
          "2": 0.04380335658788681,
          "3": -0.19561047852039337
        }
      },
      "8": {
        "bias": 0.1356981247663498,
        "weights": {
          "0": -0.22113828361034393,
          "1": 0.1095619797706604,
          "2": -0.1252385824918747,
          "3": 0.11834118515253067
        }
      },
      "9": {
        "bias": -0.026724698022007942,
        "weights": {
          "0": -0.11894794553518295,
          "1": -0.15892702341079712,
          "2": 0.1583523154258728,
          "3": -0.15055619180202484
        }
      },
      "10": {
        "bias": -0.027604714035987854,
        "weights": {
          "0": -0.13185179233551025,
          "1": 0.08724633604288101,
          "2": 0.08810091018676758,
          "3": -0.06127358600497246
        }
      },
      "11": {
        "bias": 0.14400120079517365,
        "weights": {
          "0": -0.06016477197408676,
          "1": 0.12368538975715637,
          "2": 0.21582217514514923,
          "3": 0.11776717752218246
        }
      },
      "12": {
        "bias": -0.19664990901947021,
        "weights": {
          "0": -0.11005654186010361,
          "1": -0.0644577220082283,
          "2": -0.031112289056181908,
          "3": 0.03975852206349373
        }
      },
      "13": {
        "bias": -0.08269030600786209,
        "weights": {
          "0": 0.12368346750736237,
          "1": 0.0753098726272583,
          "2": 0.1886853128671646,
          "3": -0.05893549695611
        }
      },
      "14": {
        "bias": -0.39041444659233093,
        "weights": {
          "0": 0.21027380228042603,
          "1": -0.015082363039255142,
          "2": -0.09053397178649902,
          "3": -0.15874718129634857
        }
      },
      "15": {
        "bias": -0.13972480595111847,
        "weights": {
          "0": -0.06052407994866371,
          "1": 0.14261430501937866,
          "2": -0.1810324341058731,
          "3": -0.140573650598526
        }
      },
      "16": {
        "bias": 0.0024585858918726444,
        "weights": {
          "0": 0.2012530267238617,
          "1": 0.187033548951149,
          "2": -0.23758821189403534,
          "3": -0.0691322311758995
        }
      },
      "17": {
        "bias": -0.13023652136325836,
        "weights": {
          "0": 0.4080444872379303,
          "1": 0.11610984057188034,
          "2": -0.15257775783538818,
          "3": 0.07757898420095444
        }
      },
      "18": {
        "bias": 0.14324422180652618,
        "weights": {
          "0": -0.03410599008202553,
          "1": -0.032682985067367554,
          "2": -0.05790198594331741,
          "3": -0.0836862325668335
        }
      },
      "19": {
        "bias": -0.15399396419525146,
        "weights": {
          "0": 0.4148472249507904,
          "1": -0.031646858900785446,
          "2": -0.03511340171098709,
          "3": -0.03982822969555855
        }
      },
      "20": {
        "bias": 0.06059904024004936,
        "weights": {
          "0": 0.16314350068569183,
          "1": -0.05657908320426941,
          "2": -0.0660673975944519,
          "3": 0.17644822597503662
        }
      },
      "21": {
        "bias": 0.043142665177583694,
        "weights": {
          "0": 0.23407623171806335,
          "1": 0.19364798069000244,
          "2": 0.14784450829029083,
          "3": -0.10380777716636658
        }
      },
      "22": {
        "bias": -0.14376066625118256,
        "weights": {
          "0": -0.10860057175159454,
          "1": -0.035642459988594055,
          "2": 0.08389639109373093,
          "3": -0.034417785704135895
        }
      },
      "23": {
        "bias": -0.027384012937545776,
        "weights": {
          "0": 0.13832582533359528,
          "1": 0.02987653948366642,
          "2": -0.1919303834438324,
          "3": -0.13336092233657837
        }
      },
      "24": {
        "bias": 0.024060247465968132,
        "weights": {
          "0": 0.11842707544565201,
          "1": 0.026657219976186752,
          "2": 0.011147442273795605,
          "3": -0.010665489360690117
        }
      },
      "25": {
        "bias": -0.07802800089120865,
        "weights": {
          "0": -0.108490951359272,
          "1": 0.17936962842941284,
          "2": -0.18539033830165863,
          "3": -0.15523619949817657
        }
      },
      "26": {
        "bias": 0.023767458274960518,
        "weights": {
          "0": -0.0038189662154763937,
          "1": 0.0372801199555397,
          "2": 0.03779663145542145,
          "3": 0.02266068384051323
        }
      },
      "27": {
        "bias": -0.09514907002449036,
        "weights": {
          "0": -0.17255963385105133,
          "1": 0.06064072623848915,
          "2": -0.15890175104141235,
          "3": -0.029598817229270935
        }
      },
      "28": {
        "bias": -0.1040826365351677,
        "weights": {
          "0": 0.41031765937805176,
          "1": 0.1603125035762787,
          "2": -0.0708356723189354,
          "3": 0.03546877205371857
        }
      },
      "29": {
        "bias": 0.03578874096274376,
        "weights": {
          "0": -0.09951639175415039,
          "1": 0.10311912000179291,
          "2": -0.1833532750606537,
          "3": -0.06440535932779312
        }
      },
      "30": {
        "bias": -0.0677250549197197,
        "weights": {
          "0": -0.11862676590681076,
          "1": 0.02592286840081215,
          "2": 0.06490249931812286,
          "3": 0.1784561574459076
        }
      }
    },
    {
      "0": {
        "bias": -0.068852998316288,
        "weights": {
          "0": -0.1561736762523651,
          "1": 0.19874270260334015,
          "2": 0.041800472885370255,
          "3": -0.08118490129709244,
          "4": -0.055236075073480606,
          "5": -0.02190569043159485,
          "6": -0.1530579924583435,
          "7": -0.018249839544296265,
          "8": 0.1534520834684372,
          "9": 0.14970232546329498,
          "10": -0.019476493820548058,
          "11": 0.04274960607290268,
          "12": -0.10391541570425034,
          "13": 0.17534281313419342,
          "14": -0.16796937584877014,
          "15": -0.15396709740161896,
          "16": -0.17456068098545074,
          "17": 0.04932835325598717,
          "18": 0.03702588379383087,
          "19": 0.10637030005455017,
          "20": -0.12660734355449677,
          "21": -0.16599854826927185,
          "22": 0.1861315667629242,
          "23": -0.15279798209667206,
          "24": -0.13256540894508362,
          "25": -0.17388634383678436,
          "26": -0.12335634231567383,
          "27": -0.19649066030979156,
          "28": -0.0741237923502922,
          "29": -0.14205367863178253,
          "30": -0.07249721884727478
        }
      },
      "1": {
        "bias": 0.014466223306953907,
        "weights": {
          "0": 0.0781189352273941,
          "1": -0.0018074900144711137,
          "2": -0.15876755118370056,
          "3": 0.1557862013578415,
          "4": -0.016244443133473396,
          "5": -0.0627562627196312,
          "6": 0.1821468323469162,
          "7": 0.1636267900466919,
          "8": 0.05705978721380234,
          "9": -0.061074063181877136,
          "10": -0.07278697937726974,
          "11": -0.16724230349063873,
          "12": 0.08870606124401093,
          "13": 0.14206154644489288,
          "14": 0.052423179149627686,
          "15": -0.07362999022006989,
          "16": 0.1898404359817505,
          "17": -0.1789209544658661,
          "18": 0.07303780317306519,
          "19": -0.014070614241063595,
          "20": -0.13072603940963745,
          "21": -0.09127593040466309,
          "22": 0.01946920156478882,
          "23": 0.0034974361769855022,
          "24": -0.17861366271972656,
          "25": 0.14256201684474945,
          "26": -0.1565568447113037,
          "27": 0.08532564342021942,
          "28": -0.1380871683359146,
          "29": -0.021176300942897797,
          "30": -0.12555643916130066
        }
      },
      "2": {
        "bias": 0.013906764797866344,
        "weights": {
          "0": 0.0856449082493782,
          "1": -0.016462238505482674,
          "2": 0.13235358893871307,
          "3": 0.11838929355144501,
          "4": -0.12513430416584015,
          "5": 0.17902103066444397,
          "6": 0.0026120326947420835,
          "7": 0.1351158767938614,
          "8": -0.1337311565876007,
          "9": -0.023346252739429474,
          "10": -0.025169627740979195,
          "11": 0.12386666983366013,
          "12": 0.1545739322900772,
          "13": -0.07148503512144089,
          "14": 0.08695898205041885,
          "15": 0.016577405855059624,
          "16": -0.12306898087263107,
          "17": -0.1148555800318718,
          "18": 0.17101801931858063,
          "19": -0.10120280832052231,
          "20": 0.02099223993718624,
          "21": -0.07336072623729706,
          "22": 0.14108633995056152,
          "23": 0.10360480844974518,
          "24": -0.18111705780029297,
          "25": 0.018307270482182503,
          "26": 0.04625554382801056,
          "27": -0.1917881965637207,
          "28": 0.1059361919760704,
          "29": -0.08269893378019333,
          "30": -0.006994396448135376
        }
      },
      "3": {
        "bias": -0.1285160630941391,
        "weights": {
          "0": 0.02616766095161438,
          "1": 0.08643004298210144,
          "2": -0.005779440049082041,
          "3": 0.11378622055053711,
          "4": -0.11487505584955215,
          "5": -0.02029869332909584,
          "6": 0.07469577342271805,
          "7": 0.01940709725022316,
          "8": 0.1769985556602478,
          "9": 0.15693318843841553,
          "10": -0.03865659609436989,
          "11": 0.053371913731098175,
          "12": 0.046648234128952026,
          "13": 0.10365734249353409,
          "14": 0.1436402052640915,
          "15": 0.06549972295761108,
          "16": -0.11606753617525101,
          "17": -0.06152855232357979,
          "18": -0.03112049028277397,
          "19": -0.19994430243968964,
          "20": 0.16280290484428406,
          "21": 0.1355282962322235,
          "22": 0.04197758063673973,
          "23": -0.14364540576934814,
          "24": 0.019847316667437553,
          "25": -0.001982740592211485,
          "26": -0.0690009742975235,
          "27": -0.09265368431806564,
          "28": -0.09795563668012619,
          "29": -0.009189629927277565,
          "30": 0.18641790747642517
        }
      },
      "4": {
        "bias": -0.0743388682603836,
        "weights": {
          "0": -0.02927359566092491,
          "1": 0.1694289892911911,
          "2": 0.2249906361103058,
          "3": 0.022734858095645905,
          "4": 0.07373395562171936,
          "5": 0.07700880616903305,
          "6": 0.07636073231697083,
          "7": 0.0848555639386177,
          "8": -0.1633899211883545,
          "9": 0.18948255479335785,
          "10": 0.05050118640065193,
          "11": -0.030966781079769135,
          "12": 0.027502454817295074,
          "13": -0.14573898911476135,
          "14": 0.19466480612754822,
          "15": -0.10685653984546661,
          "16": 0.17907007038593292,
          "17": 0.10699521750211716,
          "18": -0.10537714511156082,
          "19": 0.23515371978282928,
          "20": -0.007166682742536068,
          "21": 0.21664008498191833,
          "22": 0.03385791927576065,
          "23": 0.1683112233877182,
          "24": 0.18750709295272827,
          "25": -0.11031908541917801,
          "26": -0.1454916000366211,
          "27": 0.11285757273435593,
          "28": 0.2336990386247635,
          "29": -0.13442401587963104,
          "30": 0.13745513558387756
        }
      },
      "5": {
        "bias": -0.02874814160168171,
        "weights": {
          "0": -0.14825744926929474,
          "1": -0.03248092532157898,
          "2": -0.07686495780944824,
          "3": -0.044093310832977295,
          "4": -0.023119671270251274,
          "5": -0.054638467729091644,
          "6": 0.14435967803001404,
          "7": 0.17675372958183289,
          "8": 0.006213268265128136,
          "9": 0.04340190440416336,
          "10": -0.18616771697998047,
          "11": -0.19385048747062683,
          "12": -0.015030551701784134,
          "13": -0.1716284602880478,
          "14": -0.08189600706100464,
          "15": 0.03176335245370865,
          "16": 0.06593625247478485,
          "17": -0.08420012146234512,
          "18": -0.03676292672753334,
          "19": 0.09918935596942902,
          "20": -0.18575316667556763,
          "21": -0.044358737766742706,
          "22": -0.14305002987384796,
          "23": -0.14925825595855713,
          "24": -0.09131358563899994,
          "25": -0.021439500153064728,
          "26": 0.13302645087242126,
          "27": -0.09518899768590927,
          "28": 0.19670279324054718,
          "29": 0.0864994078874588,
          "30": 0.07783269882202148
        }
      },
      "6": {
        "bias": 0.5373552441596985,
        "weights": {
          "0": 0.16210705041885376,
          "1": 0.06403958052396774,
          "2": 0.048081669956445694,
          "3": -0.06955765187740326,
          "4": -0.11939743906259537,
          "5": 0.0524984709918499,
          "6": 0.03605625405907631,
          "7": 0.26289665699005127,
          "8": 0.17376329004764557,
          "9": -0.15919603407382965,
          "10": -0.05935817211866379,
          "11": 0.08300616592168808,
          "12": 0.08719655871391296,
          "13": -0.19220681488513947,
          "14": -0.2386106550693512,
          "15": -0.17091159522533417,
          "16": -0.08072963356971741,
          "17": -0.1341669112443924,
          "18": -0.023409118875861168,
          "19": -0.1953340768814087,
          "20": -0.0712457150220871,
          "21": 0.04218316078186035,
          "22": 0.0021300402004271746,
          "23": -0.18677698075771332,
          "24": 0.037817299365997314,
          "25": -0.07020369172096252,
          "26": 0.08748634159564972,
          "27": -0.16429312527179718,
          "28": -0.06038246303796768,
          "29": 0.029296401888132095,
          "30": 0.08627311885356903
        }
      },
      "7": {
        "bias": 0.24735179543495178,
        "weights": {
          "0": 0.10620922595262527,
          "1": 0.06641176342964172,
          "2": 0.035771410912275314,
          "3": 0.002379545010626316,
          "4": 0.010230551473796368,
          "5": -0.02323777787387371,
          "6": 0.04283568635582924,
          "7": 0.0038870936259627342,
          "8": -0.026646889746189117,
          "9": 0.12915433943271637,
          "10": 0.07731197774410248,
          "11": 0.038658879697322845,
          "12": 0.1761298030614853,
          "13": 0.010162265971302986,
          "14": -0.1820434182882309,
          "15": 0.060274887830019,
          "16": -0.1463889479637146,
          "17": -0.1393367350101471,
          "18": 0.025727717205882072,
          "19": -0.01906019076704979,
          "20": 0.11170334368944168,
          "21": 0.21086187660694122,
          "22": -0.03523363173007965,
          "23": -0.09284799546003342,
          "24": -0.13505783677101135,
          "25": -0.13520601391792297,
          "26": 0.17310069501399994,
          "27": -0.16145135462284088,
          "28": -0.17377969622612,
          "29": -0.14123138785362244,
          "30": 0.11718224734067917
        }
      },
      "8": {
        "bias": 0.13612377643585205,
        "weights": {
          "0": 0.16816723346710205,
          "1": -0.06146733835339546,
          "2": -0.010944074019789696,
          "3": 0.167489156126976,
          "4": -0.15105794370174408,
          "5": -0.1990984082221985,
          "6": 0.08445000648498535,
          "7": 0.24454547464847565,
          "8": -0.061007048934698105,
          "9": 0.06680528819561005,
          "10": 0.01944817416369915,
          "11": 0.19147810339927673,
          "12": 0.0056961034424602985,
          "13": 0.15206393599510193,
          "14": -0.11888174712657928,
          "15": -0.19308429956436157,
          "16": 0.1069059893488884,
          "17": 0.022419974207878113,
          "18": -0.03228427842259407,
          "19": -0.22842524945735931,
          "20": -0.21257463097572327,
          "21": -0.09350964426994324,
          "22": -0.007165621966123581,
          "23": 0.10931435227394104,
          "24": 0.004190873354673386,
          "25": 0.014856851659715176,
          "26": 0.12111463397741318,
          "27": -0.18928296864032745,
          "28": -0.26796436309814453,
          "29": 0.18209536373615265,
          "30": 0.06869641691446304
        }
      },
      "9": {
        "bias": -0.33524468541145325,
        "weights": {
          "0": -0.1666058599948883,
          "1": 0.07516699284315109,
          "2": 0.14567366242408752,
          "3": -0.05219674110412598,
          "4": 0.02908232808113098,
          "5": -0.1380625218153,
          "6": -0.06606460362672806,
          "7": 0.17580553889274597,
          "8": -0.19370882213115692,
          "9": -0.184966042637825,
          "10": -0.1527477204799652,
          "11": 0.0515265017747879,
          "12": 0.013777261599898338,
          "13": -0.07432887703180313,
          "14": 0.17178331315517426,
          "15": 0.18875762820243835,
          "16": 0.10963086783885956,
          "17": 0.1803177297115326,
          "18": -0.14008834958076477,
          "19": -0.0461614653468132,
          "20": 0.022771015763282776,
          "21": 0.05509764328598976,
          "22": -0.19612392783164978,
          "23": 0.025919290259480476,
          "24": -0.09447471052408218,
          "25": -0.008332649245858192,
          "26": 0.03331512212753296,
          "27": -0.1586078703403473,
          "28": 0.012979981489479542,
          "29": 0.02653666026890278,
          "30": 0.06470217555761337
        }
      },
      "10": {
        "bias": 0.009305557236075401,
        "weights": {
          "0": -0.1929551661014557,
          "1": -0.03171474114060402,
          "2": 0.06281045079231262,
          "3": 0.08334952592849731,
          "4": 0.04655877873301506,
          "5": -0.13903255760669708,
          "6": -0.11393464356660843,
          "7": -0.29970523715019226,
          "8": -0.06263238191604614,
          "9": 0.0947108268737793,
          "10": 0.12758131325244904,
          "11": -0.019791128113865852,
          "12": 0.03714066743850708,
          "13": 0.10949377715587616,
          "14": -0.17974920570850372,
          "15": 0.1907971054315567,
          "16": 0.20852799713611603,
          "17": 0.28333812952041626,
          "18": 0.05053813382983208,
          "19": 0.008595472201704979,
          "20": 0.13757598400115967,
          "21": 0.13151109218597412,
          "22": -0.06889494508504868,
          "23": -0.12367907166481018,
          "24": -0.07344328612089157,
          "25": -0.1367320716381073,
          "26": 0.06973286718130112,
          "27": -0.09511647373437881,
          "28": 0.2922983169555664,
          "29": 0.19454394280910492,
          "30": -0.1085754781961441
        }
      },
      "11": {
        "bias": 0.10758182406425476,
        "weights": {
          "0": 0.1461459994316101,
          "1": 0.12764683365821838,
          "2": -0.18814057111740112,
          "3": 0.020746910944581032,
          "4": 0.043083224445581436,
          "5": 0.1650858372449875,
          "6": -0.054206982254981995,
          "7": 0.17615008354187012,
          "8": -0.050118282437324524,
          "9": -0.04343700781464577,
          "10": -0.010040375404059887,
          "11": 0.03906898573040962,
          "12": -0.07560183852910995,
          "13": 0.21651425957679749,
          "14": 0.24041053652763367,
          "15": -0.14670738577842712,
          "16": 0.13309858739376068,
          "17": 0.0728379487991333,
          "18": -0.17636972665786743,
          "19": 0.14491403102874756,
          "20": -0.10133490711450577,
          "21": 0.13785308599472046,
          "22": 0.05607821047306061,
          "23": 0.12630775570869446,
          "24": -0.02193598262965679,
          "25": -0.1719016283750534,
          "26": 0.17533449828624725,
          "27": -0.07205354422330856,
          "28": 0.16266560554504395,
          "29": -0.0351388156414032,
          "30": -0.03649440407752991
        }
      },
      "12": {
        "bias": 0.022894497960805893,
        "weights": {
          "0": 0.046961069107055664,
          "1": -0.10019522160291672,
          "2": 0.20290392637252808,
          "3": 0.05098196119070053,
          "4": -0.03048468381166458,
          "5": 0.1154702752828598,
          "6": -0.03417792543768883,
          "7": -0.21798409521579742,
          "8": -0.023960484191775322,
          "9": 0.1615232676267624,
          "10": -0.01824178360402584,
          "11": 0.0033905422315001488,
          "12": 0.07373236119747162,
          "13": -0.10072160512208939,
          "14": 0.23702901601791382,
          "15": 0.0073342956602573395,
          "16": 0.11407877504825592,
          "17": 0.1911783069372177,
          "18": -0.1266535520553589,
          "19": 0.19263307750225067,
          "20": -0.08024167269468307,
          "21": 0.14072273671627045,
          "22": 0.15953762829303741,
          "23": -0.00030612616683356464,
          "24": 0.052581045776605606,
          "25": -0.07617302983999252,
          "26": 0.05365438014268875,
          "27": -0.030162204056978226,
          "28": 0.12632714211940765,
          "29": 0.03319994732737541,
          "30": 0.15796427428722382
        }
      },
      "13": {
        "bias": -0.07460923492908478,
        "weights": {
          "0": -0.19646409153938293,
          "1": 0.17262248694896698,
          "2": 0.05146748200058937,
          "3": 0.12848785519599915,
          "4": -0.07502426207065582,
          "5": -0.04355793073773384,
          "6": -0.13023844361305237,
          "7": -0.140541672706604,
          "8": 0.15203461050987244,
          "9": 0.13059453666210175,
          "10": -0.1514488160610199,
          "11": -0.13157349824905396,
          "12": 0.11401519924402237,
          "13": 0.04442327097058296,
          "14": 0.1557803452014923,
          "15": 0.1712823212146759,
          "16": 0.086184062063694,
          "17": -0.14343425631523132,
          "18": 0.059109460562467575,
          "19": 0.1434960961341858,
          "20": -0.029624314978718758,
          "21": 0.04425531253218651,
          "22": -0.16156844794750214,
          "23": -0.022073937579989433,
          "24": -0.19735395908355713,
          "25": -0.12514761090278625,
          "26": 0.08173778653144836,
          "27": 0.08163577318191528,
          "28": -0.152238130569458,
          "29": -0.129905104637146,
          "30": 0.0010766362538561225
        }
      },
      "14": {
        "bias": 0.2299121469259262,
        "weights": {
          "0": 0.009298719465732574,
          "1": -0.031863268464803696,
          "2": -0.21310235559940338,
          "3": 0.13543669879436493,
          "4": 0.054176460951566696,
          "5": 0.023610729724168777,
          "6": 0.036729175597429276,
          "7": 0.08722539991140366,
          "8": -0.1096360981464386,
          "9": -0.17756883800029755,
          "10": -0.023622561246156693,
          "11": -0.13326749205589294,
          "12": -0.05301513522863388,
          "13": -0.16939440369606018,
          "14": -0.2149093747138977,
          "15": -0.03349507972598076,
          "16": 0.018849676474928856,
          "17": -0.004381781443953514,
          "18": -0.055444665253162384,
          "19": -0.008778109215199947,
          "20": -0.1210765540599823,
          "21": 0.1645495891571045,
          "22": 0.1274878978729248,
          "23": -0.057177696377038956,
          "24": -0.1953061819076538,
          "25": 0.10697153210639954,
          "26": -0.03413793817162514,
          "27": -0.13397742807865143,
          "28": -0.03815791755914688,
          "29": 0.1948539763689041,
          "30": 0.007848216220736504
        }
      },
      "15": {
        "bias": -0.06574533134698868,
        "weights": {
          "0": 0.022560225799679756,
          "1": -0.004745556972920895,
          "2": 0.09220894426107407,
          "3": -0.18476779758930206,
          "4": 0.015370397828519344,
          "5": 0.15563780069351196,
          "6": 0.16997292637825012,
          "7": 0.04102468490600586,
          "8": -0.04556138440966606,
          "9": -0.19977666437625885,
          "10": 0.03277958929538727,
          "11": -0.1390189379453659,
          "12": 0.19753657281398773,
          "13": -0.20174436271190643,
          "14": 0.019872097298502922,
          "15": 0.12087361514568329,
          "16": 0.13868863880634308,
          "17": 0.1569863259792328,
          "18": 0.18950475752353668,
          "19": -0.01691257953643799,
          "20": 0.14733287692070007,
          "21": 0.08451367169618607,
          "22": 0.12367143481969833,
          "23": 0.0991094782948494,
          "24": 0.028260722756385803,
          "25": -0.04866236448287964,
          "26": -0.1814785599708557,
          "27": 0.15340927243232727,
          "28": 0.17963619530200958,
          "29": -0.04813705384731293,
          "30": -0.028591014444828033
        }
      },
      "16": {
        "bias": -0.03169503062963486,
        "weights": {
          "0": 0.07855301350355148,
          "1": -0.11200984567403793,
          "2": -0.06754067540168762,
          "3": -0.06720823049545288,
          "4": 0.07280334085226059,
          "5": -0.07202969491481781,
          "6": -0.043541569262742996,
          "7": 0.03295889496803284,
          "8": 0.11307255178689957,
          "9": 0.11262787133455276,
          "10": -0.05514596775174141,
          "11": -0.07645357400178909,
          "12": -0.1105157807469368,
          "13": -0.15616117417812347,
          "14": 0.17969626188278198,
          "15": -0.051120053976774216,
          "16": 0.06444817036390305,
          "17": 0.1774015724658966,
          "18": -0.17980091273784637,
          "19": 0.011916461400687695,
          "20": 0.14754518866539001,
          "21": 0.19576767086982727,
          "22": 0.10966300964355469,
          "23": 0.08347464352846146,
          "24": 0.14789323508739471,
          "25": -0.0019100640201941133,
          "26": 0.12204168736934662,
          "27": -0.029887396842241287,
          "28": 0.052958790212869644,
          "29": -0.004280847497284412,
          "30": 0.0887429416179657
        }
      },
      "17": {
        "bias": -0.17297105491161346,
        "weights": {
          "0": 0.033032480627298355,
          "1": 0.09791868180036545,
          "2": -0.15667375922203064,
          "3": 0.011719757691025734,
          "4": 0.1248081848025322,
          "5": 0.07415942847728729,
          "6": -0.014707561582326889,
          "7": 0.07421791553497314,
          "8": 0.09037511050701141,
          "9": -0.14366215467453003,
          "10": -0.15974171459674835,
          "11": 0.12336878478527069,
          "12": 0.18667203187942505,
          "13": -0.180838480591774,
          "14": -0.08446213603019714,
          "15": -0.04415692389011383,
          "16": -0.13335104286670685,
          "17": 0.15723346173763275,
          "18": -0.12333011627197266,
          "19": 0.09271208941936493,
          "20": 0.12033802270889282,
          "21": -0.14479787647724152,
          "22": -0.08100444823503494,
          "23": -0.07487300783395767,
          "24": -0.06551478803157806,
          "25": -0.07380001991987228,
          "26": 0.052833396941423416,
          "27": -0.056897085160017014,
          "28": -0.12470994889736176,
          "29": 0.17847532033920288,
          "30": -0.16454854607582092
        }
      },
      "18": {
        "bias": -0.0499020516872406,
        "weights": {
          "0": -0.11449876427650452,
          "1": -0.08825505524873734,
          "2": -0.03459448367357254,
          "3": 0.18580998480319977,
          "4": -0.11358019709587097,
          "5": 0.10483565181493759,
          "6": -0.07573391497135162,
          "7": -0.15106220543384552,
          "8": -0.0003022494202014059,
          "9": 0.08541382849216461,
          "10": -0.12852716445922852,
          "11": -0.1011846736073494,
          "12": -0.17784389853477478,
          "13": 0.17093639075756073,
          "14": 0.03215153142809868,
          "15": 0.0980701819062233,
          "16": 0.07536471635103226,
          "17": -0.16702398657798767,
          "18": -0.06595130264759064,
          "19": 0.08184866607189178,
          "20": 0.16081055998802185,
          "21": -0.059351205825805664,
          "22": -0.019434507936239243,
          "23": -0.18206638097763062,
          "24": -0.06451596319675446,
          "25": -0.01193956658244133,
          "26": 0.1156604215502739,
          "27": 0.10223281383514404,
          "28": -0.032771997153759,
          "29": -0.11447679251432419,
          "30": -0.14078156650066376
        }
      },
      "19": {
        "bias": 0.09075744450092316,
        "weights": {
          "0": 0.19013631343841553,
          "1": -0.004162352532148361,
          "2": 0.08482670783996582,
          "3": -0.15954667329788208,
          "4": -0.18263903260231018,
          "5": 0.12934277951717377,
          "6": -0.03614451363682747,
          "7": -0.03750639781355858,
          "8": -0.09901268780231476,
          "9": 0.12307170033454895,
          "10": -0.06599917262792587,
          "11": 0.03144991770386696,
          "12": -0.19553281366825104,
          "13": 0.09467723220586777,
          "14": 0.07647476345300674,
          "15": -0.1601756364107132,
          "16": -0.09136853367090225,
          "17": -0.21958138048648834,
          "18": 0.19510746002197266,
          "19": -0.02191496640443802,
          "20": 0.1263475865125656,
          "21": -0.02078085020184517,
          "22": -0.025619830936193466,
          "23": -0.19181811809539795,
          "24": 0.18933986127376556,
          "25": -0.04927007853984833,
          "26": 0.07808124274015427,
          "27": -0.057602427899837494,
          "28": 0.0875711590051651,
          "29": 0.0922229215502739,
          "30": -0.03630952164530754
        }
      },
      "20": {
        "bias": 0.20537249743938446,
        "weights": {
          "0": -0.05211521312594414,
          "1": 0.05056309700012207,
          "2": -0.1792135089635849,
          "3": 0.15951459109783173,
          "4": -0.16516736149787903,
          "5": 0.07532621920108795,
          "6": -0.09167738258838654,
          "7": 0.10827367007732391,
          "8": -0.09873247891664505,
          "9": -0.06147751584649086,
          "10": 0.059259142726659775,
          "11": 0.021251656115055084,
          "12": -0.1302608996629715,
          "13": 0.04006631299853325,
          "14": 0.02809736877679825,
          "15": 0.1440594643354416,
          "16": -0.09884556382894516,
          "17": -0.10115064680576324,
          "18": 0.1702457219362259,
          "19": -0.08258118480443954,
          "20": -0.0035999955143779516,
          "21": 0.09980069845914841,
          "22": -0.14459767937660217,
          "23": -0.13292653858661652,
          "24": 0.015637964010238647,
          "25": 0.10153219103813171,
          "26": -0.19496455788612366,
          "27": 0.1116199940443039,
          "28": 0.14864040911197662,
          "29": 0.12927328050136566,
          "30": 0.07349704205989838
        }
      },
      "21": {
        "bias": 0.08198557794094086,
        "weights": {
          "0": -0.02584094926714897,
          "1": 0.005182222928851843,
          "2": 0.011156631633639336,
          "3": 0.11170343309640884,
          "4": -0.0935564711689949,
          "5": 0.11295109987258911,
          "6": 0.0637117475271225,
          "7": 0.1370241940021515,
          "8": -0.011151543818414211,
          "9": -0.1621316522359848,
          "10": -0.12890268862247467,
          "11": 0.1263318508863449,
          "12": 0.028940841555595398,
          "13": -0.058413196355104446,
          "14": -0.1630958616733551,
          "15": 0.012499036267399788,
          "16": 0.1028943657875061,
          "17": -0.04750225320458412,
          "18": 0.10907802730798721,
          "19": 0.1692962497472763,
          "20": 0.16019457578659058,
          "21": 0.15068374574184418,
          "22": -0.18409866094589233,
          "23": -0.09326586872339249,
          "24": 0.01711108162999153,
          "25": 0.07886917889118195,
          "26": -0.03447020426392555,
          "27": 0.0312776193022728,
          "28": 0.07183404266834259,
          "29": -0.018514111638069153,
          "30": 0.05858414247632027
        }
      },
      "22": {
        "bias": 0.10436539351940155,
        "weights": {
          "0": 0.14265528321266174,
          "1": 0.10018839687108994,
          "2": -0.06984473764896393,
          "3": -0.03572618216276169,
          "4": -0.059933848679065704,
          "5": -0.14488820731639862,
          "6": -0.01068800687789917,
          "7": 0.1520271748304367,
          "8": 0.02708756923675537,
          "9": 0.1385352909564972,
          "10": -0.10257688909769058,
          "11": 0.11132489144802094,
          "12": -0.18100078403949738,
          "13": -0.026239795610308647,
          "14": 0.11323367059230804,
          "15": 0.08130984008312225,
          "16": 0.1016150489449501,
          "17": -0.17890912294387817,
          "18": -0.04059416800737381,
          "19": 0.1488492339849472,
          "20": 0.050237372517585754,
          "21": 0.013685704208910465,
          "22": 0.16659635305404663,
          "23": 0.015351015143096447,
          "24": -0.13670222461223602,
          "25": -0.04934936761856079,
          "26": 0.04078448563814163,
          "27": 0.08869525045156479,
          "28": 0.02782634273171425,
          "29": 0.022246699780225754,
          "30": -0.00037816388066858053
        }
      },
      "23": {
        "bias": -0.04148982837796211,
        "weights": {
          "0": -0.012995694763958454,
          "1": -0.12727250158786774,
          "2": 0.06956777721643448,
          "3": 0.13385511934757233,
          "4": -0.014122006483376026,
          "5": 0.06489930301904678,
          "6": -0.10930028557777405,
          "7": 0.013128572143614292,
          "8": -0.02119199000298977,
          "9": 0.022202227264642715,
          "10": 0.11372934281826019,
          "11": -0.19650349020957947,
          "12": 0.028941553086042404,
          "13": -0.1474737823009491,
          "14": -0.16831514239311218,
          "15": -0.12804321944713593,
          "16": -0.022973237559199333,
          "17": -0.03392986208200455,
          "18": -0.18408460915088654,
          "19": -0.13213828206062317,
          "20": -0.051204659044742584,
          "21": 0.0957672968506813,
          "22": -0.09638898074626923,
          "23": -0.10836855322122574,
          "24": 0.006327914539724588,
          "25": -0.11568520218133926,
          "26": 0.1140875592827797,
          "27": -0.002684998093172908,
          "28": -0.04311548173427582,
          "29": 0.02195914089679718,
          "30": -0.16666364669799805
        }
      }
    },
    {
      "0": {
        "bias": -0.01016636099666357,
        "weights": {
          "0": 0.1650530844926834,
          "1": -0.035321056842803955,
          "2": -0.1695905476808548,
          "3": -0.1999145746231079,
          "4": -0.1558944284915924,
          "5": 0.07790564000606537,
          "6": -0.1234733834862709,
          "7": 0.1731279045343399,
          "8": 0.12420160323381424,
          "9": -0.09226534515619278,
          "10": 0.010593218728899956,
          "11": -0.18694469332695007,
          "12": 0.06850161403417587,
          "13": -0.04664875194430351,
          "14": 0.09960061311721802,
          "15": -0.18963028490543365,
          "16": -0.0708920806646347,
          "17": 0.1075354591012001,
          "18": 0.012727714143693447,
          "19": 0.1337820440530777,
          "20": 0.06832688301801682,
          "21": -0.03925781324505806,
          "22": 0.02052323706448078,
          "23": 0.050402749329805374
        }
      },
      "1": {
        "bias": 0.09126761555671692,
        "weights": {
          "0": 0.1893589347600937,
          "1": 0.12708167731761932,
          "2": 0.1366197168827057,
          "3": -0.19676394760608673,
          "4": -0.08628489822149277,
          "5": 0.11731904000043869,
          "6": 0.14629130065441132,
          "7": 0.1334504783153534,
          "8": 0.16126300394535065,
          "9": -0.07464838773012161,
          "10": 0.12211055308580399,
          "11": -0.17042918503284454,
          "12": -0.033354151993989944,
          "13": 0.18690955638885498,
          "14": 0.023151947185397148,
          "15": 0.03825647011399269,
          "16": -0.12673082947731018,
          "17": 0.14187881350517273,
          "18": 0.10569038987159729,
          "19": -0.20738567411899567,
          "20": 0.1375073939561844,
          "21": 0.14817211031913757,
          "22": 0.0002749071572907269,
          "23": 0.08108553290367126
        }
      },
      "2": {
        "bias": -0.1550646722316742,
        "weights": {
          "0": -0.17831362783908844,
          "1": 0.18996912240982056,
          "2": -0.023714106529951096,
          "3": -0.19233830273151398,
          "4": -0.16940496861934662,
          "5": -0.0013444229261949658,
          "6": 0.055227652192115784,
          "7": 0.12245669960975647,
          "8": 0.16527919471263885,
          "9": -0.0021748847793787718,
          "10": -0.17476823925971985,
          "11": 0.1105923131108284,
          "12": 0.18640385568141937,
          "13": 0.13900956511497498,
          "14": 0.1461014747619629,
          "15": -0.09445498883724213,
          "16": 0.1804341971874237,
          "17": 0.0024762721732258797,
          "18": -0.005273720715194941,
          "19": 0.021573074162006378,
          "20": -0.07112035155296326,
          "21": 0.06853308528661728,
          "22": -0.010184275917708874,
          "23": -0.16169144213199615
        }
      },
      "3": {
        "bias": -0.039062850177288055,
        "weights": {
          "0": -0.11751044541597366,
          "1": 0.05218065530061722,
          "2": 0.010968591086566448,
          "3": 0.00033376915962435305,
          "4": -0.028914231806993484,
          "5": 0.14486394822597504,
          "6": 0.10975072532892227,
          "7": -0.03508985415101051,
          "8": 0.162334144115448,
          "9": -0.0807299092411995,
          "10": 0.15700533986091614,
          "11": -0.0026946282014250755,
          "12": 0.02849164791405201,
          "13": 0.10448393225669861,
          "14": 0.0600847490131855,
          "15": 0.004956891760230064,
          "16": -0.09458243101835251,
          "17": -0.09477397799491882,
          "18": 0.1978858858346939,
          "19": -0.18247640132904053,
          "20": 0.12261290848255157,
          "21": 0.11517956852912903,
          "22": -0.03836384415626526,
          "23": 0.14719082415103912
        }
      },
      "4": {
        "bias": 0.11928409337997437,
        "weights": {
          "0": -0.1773235946893692,
          "1": -0.17456524074077606,
          "2": 0.08494249731302261,
          "3": 0.15141211450099945,
          "4": 0.10822393000125885,
          "5": 0.03881343454122543,
          "6": -0.08448027074337006,
          "7": -0.18654903769493103,
          "8": -0.04804219305515289,
          "9": 0.17114703357219696,
          "10": 0.02010861225426197,
          "11": 0.0803937092423439,
          "12": 0.14505209028720856,
          "13": -0.03795890510082245,
          "14": 0.14528337121009827,
          "15": 0.16157451272010803,
          "16": -0.07643947005271912,
          "17": 0.017601167783141136,
          "18": 0.10144463181495667,
          "19": 0.1410188525915146,
          "20": -0.14474445581436157,
          "21": -0.00015508559590671211,
          "22": -0.19863508641719818,
          "23": -0.06510435044765472
        }
      },
      "5": {
        "bias": -0.052781589329242706,
        "weights": {
          "0": -0.13656051456928253,
          "1": 0.04803289845585823,
          "2": -0.09799908101558685,
          "3": -0.07671342045068741,
          "4": -0.04657131806015968,
          "5": -0.05218107998371124,
          "6": 0.17816093564033508,
          "7": 0.1069718599319458,
          "8": 0.10867460072040558,
          "9": 0.21005366742610931,
          "10": -0.04910079762339592,
          "11": 0.059303805232048035,
          "12": -0.1199980154633522,
          "13": 0.07404576987028122,
          "14": 0.003557163057848811,
          "15": -0.09519804269075394,
          "16": -0.01738756336271763,
          "17": -0.11842355877161026,
          "18": -0.157358780503273,
          "19": 0.1852351874113083,
          "20": 0.18885891139507294,
          "21": 0.1064462885260582,
          "22": 0.020346691831946373,
          "23": -0.18004196882247925
        }
      },
      "6": {
        "bias": -0.16314086318016052,
        "weights": {
          "0": 0.12145348638296127,
          "1": 0.16094042360782623,
          "2": -0.15682967007160187,
          "3": 0.10607977956533432,
          "4": 0.1942896544933319,
          "5": 0.005936418194323778,
          "6": 0.17493084073066711,
          "7": 0.09115218371152878,
          "8": 0.19766543805599213,
          "9": 0.07634367048740387,
          "10": 0.0062179118394851685,
          "11": 0.18001513183116913,
          "12": -0.15257029235363007,
          "13": -0.10413986444473267,
          "14": -0.0915571004152298,
          "15": 0.12057780474424362,
          "16": -0.18535949289798737,
          "17": -0.05745956674218178,
          "18": -0.013219635002315044,
          "19": -0.18686485290527344,
          "20": 0.09962552785873413,
          "21": -0.16017210483551025,
          "22": -0.13424032926559448,
          "23": 0.07350113987922668
        }
      },
      "7": {
        "bias": -0.03687252849340439,
        "weights": {
          "0": -0.192844420671463,
          "1": 0.09361868351697922,
          "2": -0.09280901402235031,
          "3": 0.19285579025745392,
          "4": 0.022358188405632973,
          "5": 0.034089941531419754,
          "6": -0.11006121337413788,
          "7": -0.08103294670581818,
          "8": -0.14158190786838531,
          "9": 0.11703360825777054,
          "10": -0.17176780104637146,
          "11": 0.03920384496450424,
          "12": -0.19868023693561554,
          "13": -0.13644486665725708,
          "14": 0.08179710805416107,
          "15": 0.09614768624305725,
          "16": 0.008585813455283642,
          "17": 0.10709557682275772,
          "18": 0.0820828452706337,
          "19": -0.19151853024959564,
          "20": -0.16198846697807312,
          "21": -0.07029999047517776,
          "22": -0.07203478366136551,
          "23": 0.1678159236907959
        }
      },
      "8": {
        "bias": -0.013545290566980839,
        "weights": {
          "0": -0.14213797450065613,
          "1": -0.034771233797073364,
          "2": -0.0747181624174118,
          "3": -0.13276326656341553,
          "4": -0.2718428075313568,
          "5": 0.016544902697205544,
          "6": 0.19728784263134003,
          "7": 0.22392573952674866,
          "8": 0.13683898746967316,
          "9": -0.1228863000869751,
          "10": -0.2555495798587799,
          "11": -0.06467900425195694,
          "12": -0.09592092782258987,
          "13": -0.1940135508775711,
          "14": 0.043065864592790604,
          "15": -0.11928107589483261,
          "16": -0.22790420055389404,
          "17": -0.08426426351070404,
          "18": 0.12739326059818268,
          "19": 0.2018800675868988,
          "20": 0.044181693345308304,
          "21": -0.06415190547704697,
          "22": 0.06635333597660065,
          "23": 0.19530540704727173
        }
      },
      "9": {
        "bias": -0.15380923449993134,
        "weights": {
          "0": -0.09594535082578659,
          "1": 0.16001342236995697,
          "2": 0.016228199005126953,
          "3": -0.17804092168807983,
          "4": -0.0825757086277008,
          "5": -0.1173810288310051,
          "6": 0.17962145805358887,
          "7": 0.09675572067499161,
          "8": -0.10822221636772156,
          "9": 0.1948491781949997,
          "10": -0.15650248527526855,
          "11": -0.16627129912376404,
          "12": -0.0660615786910057,
          "13": -0.1685543805360794,
          "14": -0.1438051462173462,
          "15": 0.06445267796516418,
          "16": -0.08967596292495728,
          "17": 0.04997708648443222,
          "18": -0.15879084169864655,
          "19": 0.10845880210399628,
          "20": 0.0745309591293335,
          "21": 0.10423603653907776,
          "22": 0.17731152474880219,
          "23": 0.0614640973508358
        }
      },
      "10": {
        "bias": 0.039672352373600006,
        "weights": {
          "0": -0.08907198905944824,
          "1": -0.07711468636989594,
          "2": -0.05251169949769974,
          "3": 0.09419424831867218,
          "4": -0.14147545397281647,
          "5": -0.017991837114095688,
          "6": 0.05418642982840538,
          "7": -0.14331594109535217,
          "8": 0.11674928665161133,
          "9": 0.12337320297956467,
          "10": 0.2025536447763443,
          "11": -0.17884153127670288,
          "12": 0.11074493080377579,
          "13": -0.13735195994377136,
          "14": -0.09767818450927734,
          "15": 0.0785694420337677,
          "16": -0.1106949895620346,
          "17": -0.011366418562829494,
          "18": 0.03430384770035744,
          "19": 0.13583865761756897,
          "20": 0.11737961322069168,
          "21": -0.0624823272228241,
          "22": 0.021036040037870407,
          "23": -0.07137677073478699
        }
      },
      "11": {
        "bias": 0.12650953233242035,
        "weights": {
          "0": -0.054509181529283524,
          "1": 0.0200077872723341,
          "2": -0.1864275187253952,
          "3": 0.1831902265548706,
          "4": -0.15922686457633972,
          "5": 0.03791448101401329,
          "6": -0.086548812687397,
          "7": -0.20255501568317413,
          "8": 0.09058493375778198,
          "9": -0.10267962515354156,
          "10": 0.11955513805150986,
          "11": -0.119753398001194,
          "12": 0.05091848596930504,
          "13": 0.07082444429397583,
          "14": -0.09555099159479141,
          "15": 0.17384368181228638,
          "16": -0.06934356689453125,
          "17": -0.11523506045341492,
          "18": 0.055761612951755524,
          "19": 0.0544879324734211,
          "20": -0.05898771435022354,
          "21": -0.030720727518200874,
          "22": 0.1341787576675415,
          "23": -0.05502081289887428
        }
      },
      "12": {
        "bias": 0.13892552256584167,
        "weights": {
          "0": -0.14908187091350555,
          "1": -0.19306060671806335,
          "2": 0.0643789991736412,
          "3": -0.15145885944366455,
          "4": -0.23847965896129608,
          "5": -0.13427600264549255,
          "6": 0.22646117210388184,
          "7": 0.1784343719482422,
          "8": 0.18661506474018097,
          "9": -0.09603021293878555,
          "10": -0.2553213834762573,
          "11": -0.06393557041883469,
          "12": 0.017079943791031837,
          "13": 0.19049230217933655,
          "14": 0.06641582399606705,
          "15": -0.21963758766651154,
          "16": -0.005186024587601423,
          "17": -0.19137708842754364,
          "18": -0.05503436177968979,
          "19": 0.1341649740934372,
          "20": 0.020228521898388863,
          "21": -0.0359853096306324,
          "22": 0.16946592926979065,
          "23": 0.18514788150787354
        }
      },
      "13": {
        "bias": -0.17157591879367828,
        "weights": {
          "0": -0.0017920293612405658,
          "1": 0.10627080500125885,
          "2": -0.19626513123512268,
          "3": -0.07076584547758102,
          "4": 0.19798605144023895,
          "5": -0.10247604548931122,
          "6": -0.0780244693160057,
          "7": 0.1569516658782959,
          "8": 0.004385908599942923,
          "9": -0.1304965615272522,
          "10": -0.04355548694729805,
          "11": 0.16870498657226562,
          "12": 0.08451119065284729,
          "13": 0.18432754278182983,
          "14": -0.17119288444519043,
          "15": -0.06999625265598297,
          "16": 0.005905278492718935,
          "17": 0.1900946944952011,
          "18": -0.02704797126352787,
          "19": -0.06962599605321884,
          "20": 0.015544218942523003,
          "21": -0.0008194982656277716,
          "22": -0.15752096474170685,
          "23": 0.1268579363822937
        }
      },
      "14": {
        "bias": 0.09820123016834259,
        "weights": {
          "0": 0.05767194926738739,
          "1": 0.15392173826694489,
          "2": -0.18363477289676666,
          "3": -0.09287211298942566,
          "4": -0.14874638617038727,
          "5": 0.0649077296257019,
          "6": -0.15019607543945312,
          "7": 0.08625432103872299,
          "8": -0.05635477975010872,
          "9": 0.047382425516843796,
          "10": -0.08866935968399048,
          "11": -0.20165984332561493,
          "12": -0.16037224233150482,
          "13": 0.18395289778709412,
          "14": 0.04031062126159668,
          "15": -0.04193175211548805,
          "16": -0.11973028630018234,
          "17": -0.13867032527923584,
          "18": -0.02291596494615078,
          "19": 0.13418100774288177,
          "20": 0.04867852106690407,
          "21": -0.09208953380584717,
          "22": -0.019773365929722786,
          "23": 0.062928706407547
        }
      },
      "15": {
        "bias": -0.05198459327220917,
        "weights": {
          "0": 0.05353419855237007,
          "1": -0.00048263263306580484,
          "2": -0.18191267549991608,
          "3": -0.10336016118526459,
          "4": -0.049193982034921646,
          "5": -0.05856508016586304,
          "6": -0.15288352966308594,
          "7": -0.2000056952238083,
          "8": -0.11655265837907791,
          "9": -0.011328642256557941,
          "10": -0.03793393447995186,
          "11": 0.07295482605695724,
          "12": 0.14698031544685364,
          "13": 0.05516332760453224,
          "14": 0.16042843461036682,
          "15": 0.07985862344503403,
          "16": 0.07285716384649277,
          "17": 0.157935231924057,
          "18": 0.07506418228149414,
          "19": -0.17732085287570953,
          "20": -0.1814499944448471,
          "21": -0.015859827399253845,
          "22": -0.07116502523422241,
          "23": 0.11765250563621521
        }
      },
      "16": {
        "bias": -0.1449897438287735,
        "weights": {
          "0": 0.005817847792059183,
          "1": 0.05524463206529617,
          "2": -0.07144329696893692,
          "3": -0.1544152796268463,
          "4": 0.18746425211429596,
          "5": -0.10390797257423401,
          "6": -0.07426637411117554,
          "7": -0.18749618530273438,
          "8": -0.151336207985878,
          "9": 0.08250721544027328,
          "10": -0.10634801536798477,
          "11": -0.019607387483119965,
          "12": 0.07362836599349976,
          "13": -0.012689607217907906,
          "14": -0.13188356161117554,
          "15": 0.00763380341231823,
          "16": 0.07377667725086212,
          "17": -0.003456135978922248,
          "18": 0.1949698030948639,
          "19": -0.14184118807315826,
          "20": 0.013711273670196533,
          "21": 0.1672169268131256,
          "22": 0.1512172371149063,
          "23": -0.060597214847803116
        }
      },
      "17": {
        "bias": 0.24408935010433197,
        "weights": {
          "0": 0.15853510797023773,
          "1": 0.09846339374780655,
          "2": -0.09485938400030136,
          "3": 0.08624172955751419,
          "4": 0.11140373349189758,
          "5": 0.07863868772983551,
          "6": -0.18390107154846191,
          "7": 0.03998858481645584,
          "8": -0.19671007990837097,
          "9": -0.11649655550718307,
          "10": 0.10588675737380981,
          "11": -0.10669879615306854,
          "12": -0.01166775356978178,
          "13": -0.10280382633209229,
          "14": -0.14084166288375854,
          "15": 0.052766721695661545,
          "16": 0.1516941785812378,
          "17": -0.1956845074892044,
          "18": 0.1335199922323227,
          "19": -0.1074608564376831,
          "20": -0.17278775572776794,
          "21": 0.1230618953704834,
          "22": -0.14725202322006226,
          "23": 0.10529981553554535
        }
      },
      "18": {
        "bias": 0.04967276751995087,
        "weights": {
          "0": 0.0827074721455574,
          "1": -0.18813417851924896,
          "2": 0.088497593998909,
          "3": -0.00722533231601119,
          "4": -0.05562059208750725,
          "5": 0.006046707276254892,
          "6": -0.014856444671750069,
          "7": -0.13164415955543518,
          "8": -0.036982934921979904,
          "9": 0.11339868605136871,
          "10": -0.10642046481370926,
          "11": 0.10553933680057526,
          "12": -0.1686771661043167,
          "13": -0.13775639235973358,
          "14": -0.13784901797771454,
          "15": -0.03440360724925995,
          "16": 0.025881117209792137,
          "17": -0.0365094393491745,
          "18": 0.10944410413503647,
          "19": 0.14376525580883026,
          "20": -0.09063922613859177,
          "21": -0.14456188678741455,
          "22": 0.07582923769950867,
          "23": -0.13742190599441528
        }
      },
      "19": {
        "bias": -0.009975232183933258,
        "weights": {
          "0": 0.17791888117790222,
          "1": 0.14040465652942657,
          "2": -0.04763101041316986,
          "3": 0.1317574679851532,
          "4": -0.18966037034988403,
          "5": 0.19735780358314514,
          "6": -0.08959580957889557,
          "7": -0.07393365353345871,
          "8": 0.0943010151386261,
          "9": -0.028605010360479355,
          "10": -0.09315185993909836,
          "11": 0.11108746379613876,
          "12": -0.07170945405960083,
          "13": -0.0954754427075386,
          "14": -0.1364787518978119,
          "15": -0.16725929081439972,
          "16": 0.00900882389396429,
          "17": -0.17342761158943176,
          "18": -0.14948289096355438,
          "19": -0.15216301381587982,
          "20": 0.0320393405854702,
          "21": -0.03537512198090553,
          "22": -0.06076156347990036,
          "23": -0.1583745926618576
        }
      },
      "20": {
        "bias": 0.08958695083856583,
        "weights": {
          "0": 0.16492794454097748,
          "1": -0.12018445134162903,
          "2": -0.0415765754878521,
          "3": 0.12833631038665771,
          "4": 0.1449311375617981,
          "5": 0.09332869201898575,
          "6": -0.1940106898546219,
          "7": 0.13226599991321564,
          "8": 0.06401312351226807,
          "9": -0.0025231081526726484,
          "10": -0.012045293115079403,
          "11": -0.12884320318698883,
          "12": 0.16344118118286133,
          "13": -0.0858045294880867,
          "14": -0.054998405277729034,
          "15": -0.12050390988588333,
          "16": 0.035202085971832275,
          "17": 0.007477910257875919,
          "18": -0.10743001848459244,
          "19": 0.02191794291138649,
          "20": -0.06384419649839401,
          "21": -0.06029034033417702,
          "22": -0.1827368140220642,
          "23": 0.17124436795711517
        }
      },
      "21": {
        "bias": -0.31441059708595276,
        "weights": {
          "0": -0.1674993485212326,
          "1": -0.02477085404098034,
          "2": -0.13607127964496613,
          "3": 0.06032409518957138,
          "4": 0.24469658732414246,
          "5": -0.017103664577007294,
          "6": -0.024794114753603935,
          "7": 0.0033526525367051363,
          "8": 0.07337149232625961,
          "9": 0.03565077483654022,
          "10": 0.0008208686485886574,
          "11": 0.17962223291397095,
          "12": 0.22459350526332855,
          "13": 0.1247791200876236,
          "14": 0.11527252942323685,
          "15": 0.18604952096939087,
          "16": -0.06437786668539047,
          "17": -0.18151509761810303,
          "18": -0.10469257831573486,
          "19": 0.051664650440216064,
          "20": -0.021961499005556107,
          "21": -0.19659146666526794,
          "22": -0.15728117525577545,
          "23": 0.03057950735092163
        }
      },
      "22": {
        "bias": -0.17209358513355255,
        "weights": {
          "0": -0.004296169150620699,
          "1": -0.19353051483631134,
          "2": 0.12787988781929016,
          "3": 0.16534210741519928,
          "4": 0.07955020666122437,
          "5": 0.13125351071357727,
          "6": -0.04155409708619118,
          "7": 0.0839197114109993,
          "8": 0.0831083282828331,
          "9": -0.17354759573936462,
          "10": 0.2160002440214157,
          "11": 0.24493202567100525,
          "12": 0.19953922927379608,
          "13": -0.11430439352989197,
          "14": -0.12417440861463547,
          "15": 0.023577313870191574,
          "16": 0.038197800517082214,
          "17": 0.1394001990556717,
          "18": 0.153605118393898,
          "19": -0.020251553505659103,
          "20": 0.06996181607246399,
          "21": 0.027092022821307182,
          "22": 0.1982411891222,
          "23": -0.1063917949795723
        }
      },
      "23": {
        "bias": -0.19438214600086212,
        "weights": {
          "0": -0.13022685050964355,
          "1": 0.004736689385026693,
          "2": 0.04190412536263466,
          "3": 0.05976589769124985,
          "4": -0.0472615547478199,
          "5": -0.07752440124750137,
          "6": -0.010560496710240841,
          "7": -0.019844233989715576,
          "8": -0.18078652024269104,
          "9": 0.06224827095866203,
          "10": -0.16895700991153717,
          "11": -0.001951704383827746,
          "12": -0.04230484738945961,
          "13": 0.0005379010690376163,
          "14": -0.1522626429796219,
          "15": 0.1631479412317276,
          "16": 0.08714963495731354,
          "17": -0.09276647120714188,
          "18": -0.07308585196733475,
          "19": 0.09198477864265442,
          "20": -0.13056841492652893,
          "21": 0.17976868152618408,
          "22": 0.11607351899147034,
          "23": -0.14498409628868103
        }
      },
      "24": {
        "bias": -0.052522316575050354,
        "weights": {
          "0": -0.1780867576599121,
          "1": -0.10640617460012436,
          "2": -0.07897518575191498,
          "3": 0.0368344746530056,
          "4": 0.0942128449678421,
          "5": 0.12978409230709076,
          "6": 0.2117680013179779,
          "7": 0.06385096162557602,
          "8": 0.03250604867935181,
          "9": 0.08809219300746918,
          "10": -0.20430485904216766,
          "11": -0.140812486410141,
          "12": -0.1544339954853058,
          "13": -0.19700360298156738,
          "14": 0.10010506957769394,
          "15": 0.11565423011779785,
          "16": 0.14134518802165985,
          "17": -0.04890088364481926,
          "18": 0.08248180896043777,
          "19": 0.025539278984069824,
          "20": 0.013761404901742935,
          "21": -0.16041299700737,
          "22": 0.09705588966608047,
          "23": 0.0013335259864106774
        }
      },
      "25": {
        "bias": 0.11399335414171219,
        "weights": {
          "0": 0.18567590415477753,
          "1": 0.11137847602367401,
          "2": -0.19872739911079407,
          "3": -0.13495492935180664,
          "4": -0.08896813541650772,
          "5": 0.11856674402952194,
          "6": -0.1569548398256302,
          "7": -0.00016220421821344644,
          "8": 0.09588939696550369,
          "9": 0.01171749085187912,
          "10": 0.19133038818836212,
          "11": 0.12289922684431076,
          "12": 0.05614383518695831,
          "13": -0.10113242268562317,
          "14": -0.1529121696949005,
          "15": -0.18246398866176605,
          "16": 0.053992241621017456,
          "17": 0.10041724890470505,
          "18": 0.02848624810576439,
          "19": 0.06387291103601456,
          "20": 0.006358663085848093,
          "21": -0.01535505149513483,
          "22": 0.04635075852274895,
          "23": 0.1280142366886139
        }
      },
      "26": {
        "bias": 0.13238443434238434,
        "weights": {
          "0": 0.05220464617013931,
          "1": -0.14696961641311646,
          "2": 0.17267315089702606,
          "3": 0.006443704012781382,
          "4": -0.08236351609230042,
          "5": -0.07569876313209534,
          "6": 0.2007116973400116,
          "7": -0.17853935062885284,
          "8": -0.0692448616027832,
          "9": -0.137691929936409,
          "10": -0.0653783529996872,
          "11": 0.09642943739891052,
          "12": -0.079665407538414,
          "13": 0.14360719919204712,
          "14": 0.18834006786346436,
          "15": -0.09521406888961792,
          "16": -0.03981972485780716,
          "17": -0.05940178781747818,
          "18": -0.003265166422352195,
          "19": -0.10393493622541428,
          "20": -0.14116406440734863,
          "21": 0.1422915905714035,
          "22": -0.09574340283870697,
          "23": 0.10120249539613724
        }
      },
      "27": {
        "bias": 0.1682864874601364,
        "weights": {
          "0": -0.13274036347866058,
          "1": 0.11788780987262726,
          "2": 0.04742944985628128,
          "3": 0.03749523311853409,
          "4": 0.09379652887582779,
          "5": 0.1852935254573822,
          "6": 0.02689220756292343,
          "7": 0.15832680463790894,
          "8": -0.1176309809088707,
          "9": -0.17684583365917206,
          "10": -0.04841383919119835,
          "11": 0.006915143691003323,
          "12": -0.16705931723117828,
          "13": 0.10836345702409744,
          "14": -0.07334385067224503,
          "15": -0.06022079288959503,
          "16": 0.019340964034199715,
          "17": -0.11448540538549423,
          "18": 0.12813779711723328,
          "19": -0.09092488139867783,
          "20": 0.1636483520269394,
          "21": -0.14318421483039856,
          "22": -0.15341070294380188,
          "23": -0.05317133292555809
        }
      },
      "28": {
        "bias": 0.06578121334314346,
        "weights": {
          "0": -0.1369691640138626,
          "1": 0.019452761858701706,
          "2": -0.19512884318828583,
          "3": 0.016387272626161575,
          "4": -0.08125706762075424,
          "5": -0.138152077794075,
          "6": -0.18447469174861908,
          "7": 0.017623694613575935,
          "8": 0.03488803282380104,
          "9": -0.10640286654233932,
          "10": -0.03572198003530502,
          "11": -0.148106649518013,
          "12": 0.006581296678632498,
          "13": 0.08084335923194885,
          "14": -0.1733284443616867,
          "15": -0.047584641724824905,
          "16": 0.03072347119450569,
          "17": -0.10392680764198303,
          "18": 0.1318323314189911,
          "19": 0.19433970749378204,
          "20": -0.0802244022488594,
          "21": -0.19466468691825867,
          "22": -0.08396081626415253,
          "23": 0.15059450268745422
        }
      },
      "29": {
        "bias": 0.011307243257761002,
        "weights": {
          "0": 0.01063047256320715,
          "1": 0.056261394172906876,
          "2": -0.18781785666942596,
          "3": 0.006073055788874626,
          "4": -0.06462761014699936,
          "5": -0.02663523145020008,
          "6": -0.08990208804607391,
          "7": 0.008072764612734318,
          "8": -0.12985052168369293,
          "9": -0.006748857907950878,
          "10": 0.1589507907629013,
          "11": 0.008365465328097343,
          "12": 0.12419956177473068,
          "13": 0.13355869054794312,
          "14": -0.17593635618686676,
          "15": 0.18072909116744995,
          "16": 0.17377327382564545,
          "17": 0.06803330034017563,
          "18": -0.10584123432636261,
          "19": 0.1939520686864853,
          "20": 0.18687334656715393,
          "21": 0.09807872772216797,
          "22": 0.12770557403564453,
          "23": -0.016807598993182182
        }
      },
      "30": {
        "bias": 0.05612090602517128,
        "weights": {
          "0": -0.1229606345295906,
          "1": 0.07484458386898041,
          "2": -0.18191124498844147,
          "3": -0.16106978058815002,
          "4": 0.11346252262592316,
          "5": -0.18706746399402618,
          "6": -0.18738240003585815,
          "7": 0.17478850483894348,
          "8": 0.021265937015414238,
          "9": -0.12170252203941345,
          "10": 0.10041707009077072,
          "11": -0.0208276454359293,
          "12": 0.1818433403968811,
          "13": -0.11595532298088074,
          "14": -0.052775513380765915,
          "15": 0.027877137064933777,
          "16": 0.09627325087785721,
          "17": 0.10053203999996185,
          "18": -0.1810191124677658,
          "19": 0.05141963064670563,
          "20": -0.12299588322639465,
          "21": 0.13939791917800903,
          "22": 0.18272440135478973,
          "23": -0.04503057152032852
        }
      },
      "31": {
        "bias": 0.21034210920333862,
        "weights": {
          "0": -0.17960631847381592,
          "1": 0.10333817452192307,
          "2": -0.1383388489484787,
          "3": 0.0952346920967102,
          "4": -0.10839785635471344,
          "5": 0.049222711473703384,
          "6": -0.22878983616828918,
          "7": -0.019723201170563698,
          "8": -0.16142696142196655,
          "9": -0.08416783064603806,
          "10": 0.0727849081158638,
          "11": -0.04913875833153725,
          "12": 0.012318731285631657,
          "13": 0.1751607358455658,
          "14": -0.015962032601237297,
          "15": -0.08106929808855057,
          "16": 0.06938009709119797,
          "17": -0.08330308645963669,
          "18": 0.0309844221919775,
          "19": -0.0714404359459877,
          "20": -0.1719575673341751,
          "21": 0.130595862865448,
          "22": 0.03522798791527748,
          "23": -0.09477781504392624
        }
      },
      "32": {
        "bias": -0.07710311561822891,
        "weights": {
          "0": -0.14505401253700256,
          "1": 0.03253459557890892,
          "2": -0.010362339206039906,
          "3": 0.16241522133350372,
          "4": 0.019081849604845047,
          "5": 0.13290798664093018,
          "6": 0.01697077974677086,
          "7": -0.08695638924837112,
          "8": -0.09316550195217133,
          "9": -0.1221141442656517,
          "10": 0.0689006894826889,
          "11": 0.17527583241462708,
          "12": -0.18316836655139923,
          "13": -0.1546805500984192,
          "14": 0.09866746515035629,
          "15": 0.011186192743480206,
          "16": 0.007322296034544706,
          "17": -0.11458132416009903,
          "18": 0.17323727905750275,
          "19": 0.10594382882118225,
          "20": -0.117554672062397,
          "21": -0.11313123255968094,
          "22": 0.07910103350877762,
          "23": -0.052164945751428604
        }
      },
      "33": {
        "bias": 0.1340232491493225,
        "weights": {
          "0": -0.047119542956352234,
          "1": -0.044248055666685104,
          "2": -0.09932669252157211,
          "3": -0.15462253987789154,
          "4": -0.005995831452310085,
          "5": 0.02608499303460121,
          "6": 0.060288555920124054,
          "7": 0.1613600105047226,
          "8": -0.1484985500574112,
          "9": 0.12296517938375473,
          "10": -0.043177735060453415,
          "11": -0.1441918909549713,
          "12": -0.10576005280017853,
          "13": 0.10712340474128723,
          "14": -0.031855594366788864,
          "15": -0.0751543715596199,
          "16": 0.08029472827911377,
          "17": 0.04865438863635063,
          "18": 0.044697556644678116,
          "19": -0.1952694058418274,
          "20": -0.02906009927392006,
          "21": 0.1740751564502716,
          "22": -0.18797947466373444,
          "23": -0.1213419958949089
        }
      },
      "34": {
        "bias": 0.03268086165189743,
        "weights": {
          "0": -0.058574989438056946,
          "1": 0.022220781072974205,
          "2": -0.03580520674586296,
          "3": 0.0055738636292517185,
          "4": 0.1313442885875702,
          "5": 0.07768575847148895,
          "6": -0.15236954391002655,
          "7": -0.045722901821136475,
          "8": 0.07949000597000122,
          "9": -0.016472158953547478,
          "10": -0.05755733326077461,
          "11": 0.07018793374300003,
          "12": -0.08626049757003784,
          "13": 0.015347297303378582,
          "14": 0.1038794070482254,
          "15": 0.028556114062666893,
          "16": -0.12613710761070251,
          "17": -0.1472848355770111,
          "18": 0.12642936408519745,
          "19": 0.010358822531998158,
          "20": -0.05918937921524048,
          "21": 0.16724935173988342,
          "22": -0.010547438636422157,
          "23": -0.03942285478115082
        }
      },
      "35": {
        "bias": -0.12563593685626984,
        "weights": {
          "0": -0.19808973371982574,
          "1": 0.1435956358909607,
          "2": -0.09598933905363083,
          "3": -0.10741554945707321,
          "4": 0.06539248675107956,
          "5": 0.0007616542279720306,
          "6": -0.1863485723733902,
          "7": -0.18994562327861786,
          "8": -0.17133530974388123,
          "9": -0.020906444638967514,
          "10": -0.0895768404006958,
          "11": 0.09167102724313736,
          "12": 0.001714275567792356,
          "13": 0.17083686590194702,
          "14": 0.10800393670797348,
          "15": -0.10823564231395721,
          "16": 0.1425597369670868,
          "17": 0.06080218777060509,
          "18": -0.12257188558578491,
          "19": -0.1256760209798813,
          "20": 0.012772206217050552,
          "21": -0.030007094144821167,
          "22": -0.029080916196107864,
          "23": -0.17359675467014313
        }
      },
      "36": {
        "bias": -0.17458830773830414,
        "weights": {
          "0": -0.13087613880634308,
          "1": -0.17616675794124603,
          "2": -0.10861501097679138,
          "3": -0.09854710102081299,
          "4": 0.0945967584848404,
          "5": -0.09391151368618011,
          "6": -0.1170000210404396,
          "7": 0.10906394571065903,
          "8": -0.02710678055882454,
          "9": -0.08178874850273132,
          "10": -0.11083551496267319,
          "11": 0.14625346660614014,
          "12": -0.08310690522193909,
          "13": -0.18340593576431274,
          "14": 0.1318155974149704,
          "15": 0.12393783777952194,
          "16": 0.04236502945423126,
          "17": 0.09128479659557343,
          "18": -0.0740312859416008,
          "19": 0.1444242149591446,
          "20": 0.1857566088438034,
          "21": -0.09047001600265503,
          "22": 0.0031330015044659376,
          "23": 0.159281924366951
        }
      },
      "37": {
        "bias": 0.1731715351343155,
        "weights": {
          "0": -0.18586061894893646,
          "1": 0.06704925745725632,
          "2": -0.025517811998724937,
          "3": 0.13334546983242035,
          "4": 0.118191197514534,
          "5": -0.14325480163097382,
          "6": -0.11461486667394638,
          "7": -0.14551131427288055,
          "8": -0.1384003460407257,
          "9": -0.16375459730625153,
          "10": 0.0070700133219361305,
          "11": -0.09806570410728455,
          "12": -0.0177755244076252,
          "13": 0.023461615666747093,
          "14": 0.12004925310611725,
          "15": 0.03704735264182091,
          "16": -0.1649257093667984,
          "17": -0.1164744570851326,
          "18": 0.08687394112348557,
          "19": -0.06780275702476501,
          "20": -0.20118635892868042,
          "21": 0.1381523162126541,
          "22": -0.1261545717716217,
          "23": -0.03598634898662567
        }
      },
      "38": {
        "bias": 0.031201399862766266,
        "weights": {
          "0": 0.13570396602153778,
          "1": 0.16174837946891785,
          "2": 0.16156305372714996,
          "3": -0.15253619849681854,
          "4": 0.19181706011295319,
          "5": 0.0907837525010109,
          "6": -0.218825101852417,
          "7": -0.08279969543218613,
          "8": -0.16048111021518707,
          "9": -0.20786350965499878,
          "10": 0.04447701573371887,
          "11": 0.0850137323141098,
          "12": -0.13079483807086945,
          "13": -0.07231041043996811,
          "14": 0.021383708342909813,
          "15": 0.11229369044303894,
          "16": -0.05897102504968643,
          "17": -0.08196016401052475,
          "18": 0.02524402365088463,
          "19": 0.1860952377319336,
          "20": -0.11644081026315689,
          "21": 0.12526869773864746,
          "22": 0.12370748817920685,
          "23": 0.14828303456306458
        }
      },
      "39": {
        "bias": -0.09508945792913437,
        "weights": {
          "0": -0.11912726610898972,
          "1": 0.18448233604431152,
          "2": -0.14867788553237915,
          "3": -0.056850071996450424,
          "4": 0.1201426088809967,
          "5": -0.16847607493400574,
          "6": 0.1255519837141037,
          "7": -0.10091238468885422,
          "8": 0.0038416003808379173,
          "9": 0.0021015058737248182,
          "10": -0.11559466272592545,
          "11": 0.08872706443071365,
          "12": -0.04321210831403732,
          "13": 0.010076014325022697,
          "14": 0.1753385066986084,
          "15": 0.031088605523109436,
          "16": 0.1087409108877182,
          "17": 0.020999234169721603,
          "18": -0.10929515212774277,
          "19": 0.11216393858194351,
          "20": 0.1107432022690773,
          "21": -0.14632543921470642,
          "22": -0.15614156424999237,
          "23": -0.0824936181306839
        }
      },
      "40": {
        "bias": 0.245221346616745,
        "weights": {
          "0": 0.029262293130159378,
          "1": 0.08182600885629654,
          "2": 0.11557003855705261,
          "3": -0.022094201296567917,
          "4": 0.10116740316152573,
          "5": -0.047908980399370193,
          "6": -0.15782231092453003,
          "7": 0.06614654511213303,
          "8": -0.05718617886304855,
          "9": -0.08232636004686356,
          "10": -0.22152577340602875,
          "11": 0.13917475938796997,
          "12": -0.1522291600704193,
          "13": -0.15049214661121368,
          "14": -0.04432465136051178,
          "15": 0.16352862119674683,
          "16": -0.1323643922805786,
          "17": -0.088199682533741,
          "18": 0.14712847769260406,
          "19": -0.07613872736692429,
          "20": 0.1379265934228897,
          "21": -0.10785526037216187,
          "22": 0.14749903976917267,
          "23": -0.003053208813071251
        }
      },
      "41": {
        "bias": -0.08196753263473511,
        "weights": {
          "0": 0.044790420681238174,
          "1": -0.09722783416509628,
          "2": -0.017711838707327843,
          "3": 0.1105322390794754,
          "4": 0.09842342138290405,
          "5": -0.10933278501033783,
          "6": 0.05208657681941986,
          "7": 0.07159789651632309,
          "8": 0.12616753578186035,
          "9": 0.024868767708539963,
          "10": -0.06865066289901733,
          "11": 0.08300313353538513,
          "12": 0.10048267245292664,
          "13": 0.08765486627817154,
          "14": 0.11329063773155212,
          "15": -0.0374583937227726,
          "16": 0.10236142575740814,
          "17": -0.09702077507972717,
          "18": 0.05691433697938919,
          "19": 0.17447149753570557,
          "20": 0.12472480535507202,
          "21": -0.01286317128688097,
          "22": 0.0774507075548172,
          "23": 0.05086986720561981
        }
      },
      "42": {
        "bias": 0.17078012228012085,
        "weights": {
          "0": -0.08306968957185745,
          "1": 0.18155092000961304,
          "2": -0.0788249522447586,
          "3": 0.1506219506263733,
          "4": -0.1578078418970108,
          "5": 0.050937335938215256,
          "6": 0.07162853330373764,
          "7": -0.16863706707954407,
          "8": 0.034706391394138336,
          "9": 0.13035917282104492,
          "10": -0.11461718380451202,
          "11": 0.16676926612854004,
          "12": -0.18374544382095337,
          "13": -0.15899497270584106,
          "14": 0.2049320638179779,
          "15": 0.1479429006576538,
          "16": -0.11108845472335815,
          "17": -0.18298502266407013,
          "18": -0.17793616652488708,
          "19": -0.020427709445357323,
          "20": 0.16013085842132568,
          "21": 0.19224117696285248,
          "22": -0.044194385409355164,
          "23": -0.1975681483745575
        }
      },
      "43": {
        "bias": 0.03413541615009308,
        "weights": {
          "0": -0.015464728698134422,
          "1": -0.07171472907066345,
          "2": -0.015987271443009377,
          "3": 0.013023696839809418,
          "4": -0.03390231356024742,
          "5": 0.07556194067001343,
          "6": 0.1917075663805008,
          "7": -0.13764184713363647,
          "8": -0.004534552805125713,
          "9": -0.002803076757118106,
          "10": -0.018799392506480217,
          "11": 0.0960560292005539,
          "12": 0.06489072740077972,
          "13": 0.14589284360408783,
          "14": -0.16049374639987946,
          "15": 0.14068792760372162,
          "16": 0.15800930559635162,
          "17": 0.152375265955925,
          "18": -0.04930479824542999,
          "19": -0.055712319910526276,
          "20": 0.04344537854194641,
          "21": 0.0844026431441307,
          "22": 0.15748654305934906,
          "23": -0.18434728682041168
        }
      },
      "44": {
        "bias": 0.11138026416301727,
        "weights": {
          "0": -0.019045038148760796,
          "1": 0.1195518970489502,
          "2": -0.0740511417388916,
          "3": -0.13278032839298248,
          "4": -0.08355868607759476,
          "5": -0.14899300038814545,
          "6": -0.24617277085781097,
          "7": -0.20435933768749237,
          "8": -0.15821732580661774,
          "9": 0.025488898158073425,
          "10": 0.17765013873577118,
          "11": 0.08119719475507736,
          "12": 0.08955179154872894,
          "13": 0.16839279234409332,
          "14": 0.0770232230424881,
          "15": -0.19421401619911194,
          "16": 0.008954491466283798,
          "17": 0.15460093319416046,
          "18": 0.08312831819057465,
          "19": 0.012167360633611679,
          "20": -0.1964464783668518,
          "21": 0.10997777432203293,
          "22": 0.09096770733594894,
          "23": 0.06944340467453003
        }
      },
      "45": {
        "bias": -0.15840695798397064,
        "weights": {
          "0": 0.05109680816531181,
          "1": 0.049484994262456894,
          "2": -0.03575761988759041,
          "3": -0.16741648316383362,
          "4": 0.1502586007118225,
          "5": 0.05220567435026169,
          "6": -0.021680820733308792,
          "7": 0.04558873176574707,
          "8": -0.19279251992702484,
          "9": 0.11433936655521393,
          "10": -0.028165755793452263,
          "11": 0.04844895750284195,
          "12": 0.03424941003322601,
          "13": -0.1801888793706894,
          "14": -0.11529519408941269,
          "15": -0.1841312050819397,
          "16": 0.02008921653032303,
          "17": 0.07314301282167435,
          "18": 0.05762108042836189,
          "19": 0.19635707139968872,
          "20": -0.017829470336437225,
          "21": 0.11342928558588028,
          "22": 0.09209584444761276,
          "23": 0.07070482522249222
        }
      },
      "46": {
        "bias": -0.10876093804836273,
        "weights": {
          "0": -0.09769061952829361,
          "1": -0.1841801255941391,
          "2": 0.11697596311569214,
          "3": 0.17603769898414612,
          "4": -0.040280040353536606,
          "5": -0.08856549859046936,
          "6": 0.11250057071447372,
          "7": -0.054360635578632355,
          "8": -0.06775814294815063,
          "9": 0.14947833120822906,
          "10": 0.09146982431411743,
          "11": -0.1612233817577362,
          "12": 0.05923013761639595,
          "13": 0.16643549501895905,
          "14": -0.0876917839050293,
          "15": 0.08862820267677307,
          "16": -0.1148076131939888,
          "17": -0.1763158142566681,
          "18": 0.18825854361057281,
          "19": 0.007910892367362976,
          "20": -0.006933353841304779,
          "21": -0.01256172452121973,
          "22": -0.18424086272716522,
          "23": -0.0186554417014122
        }
      },
      "47": {
        "bias": -0.005974427796900272,
        "weights": {
          "0": 0.033313650637865067,
          "1": 0.09071548283100128,
          "2": -0.1679663509130478,
          "3": 0.06968417763710022,
          "4": -0.07732167840003967,
          "5": -0.1538311094045639,
          "6": 0.06471158564090729,
          "7": -0.07482913881540298,
          "8": 0.20826761424541473,
          "9": 0.009270391426980495,
          "10": -0.16444672644138336,
          "11": 0.1602347493171692,
          "12": -0.2255275696516037,
          "13": -0.09739968180656433,
          "14": 0.13411420583724976,
          "15": 0.04523057863116264,
          "16": -0.010041492991149426,
          "17": 0.15418681502342224,
          "18": 0.17232416570186615,
          "19": 0.08735126256942749,
          "20": 0.15668901801109314,
          "21": -0.01964735798537731,
          "22": -0.14215339720249176,
          "23": 0.06225460767745972
        }
      },
      "48": {
        "bias": -0.18511636555194855,
        "weights": {
          "0": 0.07600603252649307,
          "1": -0.111496202647686,
          "2": 0.02884078584611416,
          "3": 0.06422285735607147,
          "4": 0.1786864697933197,
          "5": -0.10482233017683029,
          "6": -0.05387527495622635,
          "7": -0.19121311604976654,
          "8": 0.11143248528242111,
          "9": 0.03564135357737541,
          "10": 0.07366104423999786,
          "11": -0.12557081878185272,
          "12": -0.0653466284275055,
          "13": 0.13662737607955933,
          "14": 0.09855657815933228,
          "15": -0.14478124678134918,
          "16": 0.003756385762244463,
          "17": 0.14545539021492004,
          "18": 0.17286087572574615,
          "19": 0.17455530166625977,
          "20": 0.150395005941391,
          "21": -0.08942002058029175,
          "22": 0.08179645985364914,
          "23": 0.019732069224119186
        }
      },
      "49": {
        "bias": -0.14629271626472473,
        "weights": {
          "0": -0.06038082391023636,
          "1": 0.13083091378211975,
          "2": -0.19035017490386963,
          "3": 0.04866873100399971,
          "4": -0.13783475756645203,
          "5": -0.043989188969135284,
          "6": 0.03202051296830177,
          "7": -0.02919866517186165,
          "8": -0.011729550547897816,
          "9": 0.13352349400520325,
          "10": -0.11483828723430634,
          "11": -0.19399844110012054,
          "12": 0.16633372008800507,
          "13": -0.03702204301953316,
          "14": 0.10905114561319351,
          "15": 0.06972594559192657,
          "16": 0.06145443022251129,
          "17": -0.1925976723432541,
          "18": -0.07941804081201553,
          "19": -0.04644870012998581,
          "20": -0.19508656859397888,
          "21": -0.1715966910123825,
          "22": -0.08175385743379593,
          "23": -0.02490171603858471
        }
      },
      "50": {
        "bias": -0.17493508756160736,
        "weights": {
          "0": 0.09141552448272705,
          "1": -0.15628404915332794,
          "2": 0.09805236756801605,
          "3": -0.17948095500469208,
          "4": 0.11263706535100937,
          "5": 0.10092848539352417,
          "6": -0.030561504885554314,
          "7": 0.12289392203092575,
          "8": -0.08306334167718887,
          "9": 0.08268958330154419,
          "10": 0.2111881673336029,
          "11": 0.177053764462471,
          "12": 0.23043371737003326,
          "13": -0.11264213919639587,
          "14": -0.12430492788553238,
          "15": -0.0917305201292038,
          "16": 0.1864503026008606,
          "17": -0.10596214234828949,
          "18": 0.1260940581560135,
          "19": -0.06829787790775299,
          "20": 0.16729460656642914,
          "21": -0.026526538655161858,
          "22": 0.16841936111450195,
          "23": 0.17783671617507935
        }
      },
      "51": {
        "bias": -0.13981451094150543,
        "weights": {
          "0": 0.04053700342774391,
          "1": -0.09895872324705124,
          "2": -0.16958032548427582,
          "3": -0.13678982853889465,
          "4": 0.08116934448480606,
          "5": 0.09180684387683868,
          "6": 0.017363859340548515,
          "7": 0.05963495373725891,
          "8": -0.17353472113609314,
          "9": -0.17492282390594482,
          "10": 0.10915160179138184,
          "11": -0.17521153390407562,
          "12": 0.01962491311132908,
          "13": 0.16578508913516998,
          "14": 0.017026659101247787,
          "15": -0.10248225182294846,
          "16": 0.10973680019378662,
          "17": 0.08914705365896225,
          "18": 0.15574772655963898,
          "19": -0.15603655576705933,
          "20": 0.00554573442786932,
          "21": 0.06052275747060776,
          "22": -0.11182088404893875,
          "23": -0.07133470475673676
        }
      },
      "52": {
        "bias": -0.07981524616479874,
        "weights": {
          "0": 0.060791291296482086,
          "1": 0.03922177106142044,
          "2": 0.1743161529302597,
          "3": -0.016414307057857513,
          "4": -0.16669075191020966,
          "5": -0.007194084580987692,
          "6": 0.013053501956164837,
          "7": 0.15765202045440674,
          "8": -0.059539537876844406,
          "9": 0.000388061860576272,
          "10": 0.019864818081259727,
          "11": -0.1095295399427414,
          "12": 0.0014740092447027564,
          "13": -0.03083988092839718,
          "14": 0.10227388143539429,
          "15": -0.15651379525661469,
          "16": 0.11120639741420746,
          "17": 0.16946345567703247,
          "18": 0.08640363812446594,
          "19": -0.17998012900352478,
          "20": -0.044114913791418076,
          "21": 0.08969144523143768,
          "22": 0.17520232498645782,
          "23": 0.12256310135126114
        }
      },
      "53": {
        "bias": -0.29274681210517883,
        "weights": {
          "0": -0.1265399008989334,
          "1": 0.09057299047708511,
          "2": 0.02307754009962082,
          "3": 0.1426500827074051,
          "4": 0.19286230206489563,
          "5": 0.12760323286056519,
          "6": -0.06920494884252548,
          "7": -0.1823478490114212,
          "8": -0.17055295407772064,
          "9": -0.09285574406385422,
          "10": -0.1564214825630188,
          "11": 0.027620960026979446,
          "12": 0.10799815505743027,
          "13": 0.15776227414608002,
          "14": -0.06443078070878983,
          "15": -0.03793003410100937,
          "16": 0.199225053191185,
          "17": -0.19298531115055084,
          "18": 0.08475323766469955,
          "19": 0.1096651703119278,
          "20": 0.16788479685783386,
          "21": 0.10260739922523499,
          "22": 0.1158984899520874,
          "23": -0.10375665873289108
        }
      },
      "54": {
        "bias": 0.1523808240890503,
        "weights": {
          "0": -0.027324078604578972,
          "1": 0.10416121780872345,
          "2": -0.15872877836227417,
          "3": 0.0434146523475647,
          "4": -0.14142102003097534,
          "5": 0.012265026569366455,
          "6": -0.08546464145183563,
          "7": 0.1785362958908081,
          "8": -0.1686384677886963,
          "9": 0.15545982122421265,
          "10": -0.08312822133302689,
          "11": 0.03637078031897545,
          "12": -0.13531851768493652,
          "13": -0.05244780331850052,
          "14": 0.15936589241027832,
          "15": 0.027196483686566353,
          "16": 0.09617885202169418,
          "17": 0.1563984751701355,
          "18": -0.06085944175720215,
          "19": -0.10462436825037003,
          "20": -0.1073482409119606,
          "21": 0.14759159088134766,
          "22": 0.12484113872051239,
          "23": -0.14767636358737946
        }
      },
      "55": {
        "bias": 0.019686002284288406,
        "weights": {
          "0": 0.08479582518339157,
          "1": -0.17052146792411804,
          "2": -0.07449851185083389,
          "3": -0.14646609127521515,
          "4": 0.23149439692497253,
          "5": -0.006721037440001965,
          "6": -0.09091263264417648,
          "7": -0.1284475326538086,
          "8": 0.016347641125321388,
          "9": 0.16953864693641663,
          "10": 0.05209692567586899,
          "11": 0.015138263814151287,
          "12": 0.08110849559307098,
          "13": 0.0055201705545187,
          "14": 0.1366651952266693,
          "15": 0.17611797153949738,
          "16": 0.05679788440465927,
          "17": -0.019928397610783577,
          "18": 0.11046391725540161,
          "19": -0.003838667180389166,
          "20": 0.11261827498674393,
          "21": -0.037245023995637894,
          "22": 0.1644916981458664,
          "23": 0.06552120298147202
        }
      },
      "56": {
        "bias": 0.12755826115608215,
        "weights": {
          "0": 0.07879094779491425,
          "1": 0.1534126251935959,
          "2": -0.08043023943901062,
          "3": -0.12066929042339325,
          "4": -0.09835201501846313,
          "5": -0.009139087051153183,
          "6": -0.23631779849529266,
          "7": 0.13297373056411743,
          "8": -0.13685399293899536,
          "9": -0.11474761366844177,
          "10": 0.14801181852817535,
          "11": 0.2098357230424881,
          "12": -0.16264930367469788,
          "13": -0.01651737652719021,
          "14": -0.09704006463289261,
          "15": 0.08344554901123047,
          "16": 0.14188888669013977,
          "17": 0.009494759142398834,
          "18": -0.1323118954896927,
          "19": -0.08052022010087967,
          "20": -0.029940688982605934,
          "21": -0.011350387707352638,
          "22": 0.10901898890733719,
          "23": 0.0641901046037674
        }
      },
      "57": {
        "bias": 0.10127397626638412,
        "weights": {
          "0": -0.15395262837409973,
          "1": 0.14452069997787476,
          "2": -0.08345331251621246,
          "3": -0.14188557863235474,
          "4": -0.005724097136408091,
          "5": -0.057772018015384674,
          "6": 0.16261710226535797,
          "7": 0.18273888528347015,
          "8": -0.10799837857484818,
          "9": 0.10198557376861572,
          "10": 0.03664064034819603,
          "11": 0.10980921983718872,
          "12": -0.17009884119033813,
          "13": 0.19211383163928986,
          "14": 0.17260098457336426,
          "15": -0.18829406797885895,
          "16": -0.1710171401500702,
          "17": 0.01377194281667471,
          "18": -0.14263659715652466,
          "19": 0.11130500584840775,
          "20": -0.000919419398996979,
          "21": 0.16480021178722382,
          "22": 0.20224206149578094,
          "23": -0.04625948518514633
        }
      },
      "58": {
        "bias": 0.14247816801071167,
        "weights": {
          "0": 0.19106686115264893,
          "1": 0.17697575688362122,
          "2": 0.17336338758468628,
          "3": 0.11311759054660797,
          "4": 0.02382919378578663,
          "5": -0.11634362488985062,
          "6": -0.09083740413188934,
          "7": 0.053149085491895676,
          "8": -0.13322396576404572,
          "9": -0.17057056725025177,
          "10": 0.1616775542497635,
          "11": -0.05502987280488014,
          "12": 0.07754725962877274,
          "13": 0.17736512422561646,
          "14": 0.08886858820915222,
          "15": 0.13984279334545135,
          "16": -0.07547465711832047,
          "17": 0.18691599369049072,
          "18": 0.04841585457324982,
          "19": 0.10392134636640549,
          "20": -0.007545791566371918,
          "21": -0.15365177392959595,
          "22": 0.14685989916324615,
          "23": -0.06551729887723923
        }
      },
      "59": {
        "bias": 0.18497216701507568,
        "weights": {
          "0": 0.1933971494436264,
          "1": 0.19286617636680603,
          "2": -0.11687599122524261,
          "3": -0.06095201522111893,
          "4": 0.04039933159947395,
          "5": 0.1728614866733551,
          "6": -0.1887812465429306,
          "7": -0.18170329928398132,
          "8": 0.025409849360585213,
          "9": -0.1740320771932602,
          "10": 0.022165872156620026,
          "11": -0.09746674448251724,
          "12": 0.021092573180794716,
          "13": -0.11354033648967743,
          "14": -0.08231987059116364,
          "15": -0.07749345898628235,
          "16": -0.0665576308965683,
          "17": 0.19663076102733612,
          "18": -0.006393774412572384,
          "19": -0.01597539149224758,
          "20": 0.13363023102283478,
          "21": 0.037924788892269135,
          "22": -0.15336516499519348,
          "23": -0.1304956078529358
        }
      }
    },
    {
      "0": {
        "bias": 0.08373172581195831,
        "weights": {
          "0": 0.003832862013950944,
          "1": 0.20732688903808594,
          "2": 0.1893475353717804,
          "3": 0.057442937046289444,
          "4": -0.05832037702202797,
          "5": 0.18125808238983154,
          "6": 0.08256158232688904,
          "7": -0.00009235263132723048,
          "8": -0.00017917864897754043,
          "9": -0.09151740372180939,
          "10": -0.06122518330812454,
          "11": -0.1443197876214981,
          "12": -0.11349723488092422,
          "13": -0.09702526032924652,
          "14": 0.1422709822654724,
          "15": -0.0007205712026916444,
          "16": -0.16458965837955475,
          "17": 0.030266284942626953,
          "18": 0.025303583592176437,
          "19": 0.12395786494016647,
          "20": -0.10081791132688522,
          "21": 0.19838526844978333,
          "22": -0.0701390728354454,
          "23": -0.03982364386320114,
          "24": 0.17716580629348755,
          "25": -0.06034989282488823,
          "26": -0.040979497134685516,
          "27": 0.12687192857265472,
          "28": 0.0023834260646253824,
          "29": -0.1599220633506775,
          "30": 0.0328560471534729,
          "31": -0.15800204873085022,
          "32": 0.017529960721731186,
          "33": 0.15164116024971008,
          "34": -0.0901128277182579,
          "35": 0.08312874287366867,
          "36": 0.09042913466691971,
          "37": 0.06080297380685806,
          "38": 0.17041325569152832,
          "39": -0.16128668189048767,
          "40": -0.1952691227197647,
          "41": 0.17828144133090973,
          "42": 0.024017205461859703,
          "43": 0.13209514319896698,
          "44": -0.16386550664901733,
          "45": -0.0367492139339447,
          "46": 0.14369113743305206,
          "47": -0.12134988605976105,
          "48": -0.15333791077136993,
          "49": -0.07840406894683838,
          "50": 0.17399193346500397,
          "51": 0.14964643120765686,
          "52": -0.025335466489195824,
          "53": 0.1566275656223297,
          "54": -0.11752458661794662,
          "55": -0.08721001446247101,
          "56": -0.16959214210510254,
          "57": 0.035746898502111435,
          "58": 0.15684401988983154,
          "59": -0.12112115323543549
        }
      },
      "1": {
        "bias": 0.058816418051719666,
